svm_type one_class
kernel_type rbf
gamma 0.125
nr_class 2
total_sv 180
rho 8.4449782877942656
SV
1 1:9.76823 2:-0.96823137 3:1.9284055 4:9.2523109 5:1.8113499 6:1.9766119 7:1.1343948 8:1.8011059 
0.1891517491530614 1:10.970967 2:10.392486 3:-2.1353494 4:1.4316485 5:2.4635145 6:2.522729 7:2.1501637 8:0.91134679 
0.39361165833276007 1:11.462051 2:10.248078 3:-4.2182238 4:1.8178187 5:1.6868609 6:2.1431921 7:1.7338656 8:0.70963793 
1 1:11.388513 2:10.242865 3:-4.2671025 4:1.4436607 5:1.6415792 6:1.9588035 7:1.7129509 8:0.6428857 
1 1:11.241492 2:10.057757 3:-4.3507405 4:1.4695733 5:1.5870214 6:1.9384213 7:1.5749191 8:0.63628954 
1 1:10.61749 2:9.3864893 3:-3.0517086 4:3.2482505 5:2.2250426 6:2.2607304 7:1.7576974 8:1.2293396 
1 1:10.733858 2:10.414232 3:-1.9642875 4:-0.1963416 5:2.2732183 6:2.3987074 7:1.4050773 8:0.54953263 
1 1:10.664501 2:9.915305 3:-1.3389619 4:2.9497849 5:2.3730373 6:2.1820842 7:1.8768471 8:1.5071528 
1 1:10.742451 2:9.7943541 3:-2.5055923 4:3.0227048 5:2.219448 6:2.1407842 7:1.2787253 8:1.6625284 
1 1:10.128496 2:5.3344463 3:-1.4844911 4:7.2251264 5:3.9102149 6:3.5881081 7:2.878712 8:3.7218589 
1 1:11.23168 2:9.4312018 3:-4.4827102 4:2.6581905 5:3.2431088 6:3.2625596 7:1.8335776 8:2.5600498 
1 1:11.105369 2:9.2422562 3:-3.9227746 4:3.0743988 5:3.1044008 6:2.7516887 7:2.0098498 8:3.3310426 
0.8236457028094355 1:13.180096 2:11.003741 3:-5.9058549 4:0.89942455 5:4.6661097 6:5.0247524 7:3.0474894 8:2.0449374 
1 1:13.681647 2:9.8954202 3:-7.9852558 4:1.7536008 5:5.196647 6:5.352089 7:3.8452257 8:2.4501461 
1 1:15.72589 2:11.283317 3:-9.2022988 4:0.65390474 5:6.1274086 6:6.2338569 7:4.7686008 8:3.2901491 
1 1:14.864217 2:10.488348 3:-8.1774849 4:0.34016792 5:5.5925299 6:7.3366275 7:3.0987012 8:3.4352396 
0.64204786765416288 1:13.173147 2:9.7619621 3:-7.6354493 4:0.45805556 5:5.7618941 6:5.5440124 7:3.5886221 8:3.0514172 
0.099249046208412905 1:13.063906 2:10.194606 3:-6.7752364 4:-0.3176017 5:5.4334803 6:5.5431871 7:3.3349301 8:2.8991326 
1 1:15.198521 2:10.532756 3:-8.5163491 4:-0.10580735 5:5.5099942 6:5.4282018 7:5.0905639 8:4.7431557 
1 1:17.548447 2:10.593707 3:-10.636905 4:1.1983226 5:6.1044445 6:8.2408823 7:5.9341727 8:3.9088795 
1 1:15.49078 2:10.33697 3:-9.3846495 4:-0.34819299 5:4.6809685 6:5.6243067 7:4.492243 8:3.8751568 
1 1:14.99465 2:10.248875 3:-8.9682091 4:0.30551774 5:5.9059377 6:4.6114365 7:5.6458007 8:4.5845034 
1 1:15.914085 2:10.500082 3:-10.042765 4:1.0859972 5:6.3872573 6:5.8141867 7:5.5968601 8:4.0788831 
1 1:16.043978 2:11.144316 3:-9.552824 4:-0.5167865 5:6.6290544 6:6.4145366 7:5.4121291 8:3.898316 
1 1:16.932524 2:11.330268 3:-10.617619 4:0.27948025 5:6.9877243 6:6.2386426 7:6.0798926 8:4.297209 
1 1:14.491688 2:10.877923 3:-7.4038356 4:-1.0861625 5:5.4880468 6:5.2544008 7:4.6750861 8:4.0418789 
1 1:13.187081 2:10.156827 3:-6.8460037 4:-0.62770066 5:5.0921192 6:4.8311979 7:3.2515103 8:3.9361257 
1 1:13.870395 2:9.4868533 3:-8.686214 4:-1.2397405 5:4.3175014 6:4.1058161 7:3.7693292 8:3.6021457 
1 1:12.796199 2:10.129335 3:-6.5388367 4:0.66721404 5:3.4244553 6:3.238207 7:3.1186981 8:3.0744685 
1 1:14.773082 2:9.8440683 3:-9.2030368 4:-0.20607635 5:6.827353 6:5.6580525 7:5.6510443 8:4.3891698 
1 1:9.9097207 2:8.3781709 3:-0.72564056 4:3.8051471 5:1.7424634 6:1.1486474 7:1.518604 8:3.5233148 
0.78642460955465243 1:9.908151 2:6.2355167 3:-7.4312419 4:-1.5956513 5:1.7440351 6:1.3512979 7:1.4137426 8:0.85866893 
1 1:9.8805363 2:6.3746698 3:-7.3320242 4:-1.2129438 5:1.5348819 6:1.1013043 7:1.3811737 8:0.99705597 
0.27324678762169941 1:10.16353 2:6.0739598 3:-7.8055366 4:-1.170093 5:2.689835 6:2.5208028 7:1.8661722 8:1.2275987 
1 1:10.083076 2:4.5526132 3:-8.6845938 4:-0.18365586 5:2.1966362 6:1.7278385 7:1.7819941 8:2.0372828 
1 1:9.927619 2:4.000796 3:-8.898661 4:-0.28879332 5:1.5918864 6:1.4802598 7:1.3690182 8:1.3230275 
1 1:9.9642053 2:3.5387893 3:-9.0949472 4:-0.16687468 5:1.7525796 6:1.757475 7:1.4122226 8:1.4159413 
1 1:10.02997 2:3.4151073 3:-9.2143043 4:0.15073922 5:1.7837998 6:1.9353407 7:1.4275391 8:1.1873293 
1 1:10.02164 2:5.1003268 3:-8.5159284 4:-0.51727621 5:1.3130554 6:1.1992915 7:1.1307591 8:0.79907336 
0.61563374334822341 1:9.9327066 2:4.4550217 3:-8.6978692 4:-0.52674795 5:2.0440362 6:1.6518791 7:1.6357317 8:1.2863942 
1 1:9.9028105 2:3.3833691 3:-8.9952225 4:1.0011905 5:1.7819747 6:1.8354087 7:1.4688068 8:1.5334193 
1 1:9.9793948 2:8.5892267 3:-1.9930265 4:4.0824742 5:0.80512056 6:1.317611 7:1.2667228 8:1.5755283 
1 1:12.808872 2:11.318958 3:-5.0375168 4:1.5150596 5:3.5027718 6:3.436781 7:2.6257343 8:1.3564172 
1 1:11.104304 2:9.1724356 3:-5.7449075 4:1.4241433 5:3.1005586 6:3.0190653 7:1.800878 8:1.1812725 
1 1:9.7858925 2:8.5735346 3:-3.4208104 4:1.8399367 5:2.1825795 6:2.0445861 7:1.8580855 8:2.0740599 
1 1:10.529862 2:9.3938664 3:-1.6477523 4:-2.6710078 5:2.3618653 6:2.1577305 7:1.774115 8:3.2494636 
1 1:10.596186 2:10.285629 3:-0.69351566 4:-0.71613455 5:2.6026947 6:2.6165548 7:1.9418616 8:1.2837513 
1 1:14.253566 2:10.811803 3:-7.2369572 4:-0.21923884 5:3.7721132 6:5.8027569 7:3.1800004 8:2.0716891 
1 1:11.530824 2:9.288094 3:-6.3006233 4:-1.0831301 5:4.1231939 6:3.9573599 7:2.3487568 8:1.2820157 
0.17273737641935533 1:10.454621 2:7.4766181 3:-6.8228733 4:-0.20166215 5:2.7221916 6:2.546978 7:2.1855824 8:1.7185685 
1 1:13.128845 2:11.32958 3:-5.3848019 4:0.52659224 5:4.2794775 6:4.7156701 7:3.1690297 8:0.87603035 
1 1:11.061736 2:9.2539352 3:-4.9332119 4:-0.67838342 5:3.5910328 6:3.2594663 7:3.1717526 8:2.0350141 
1 1:10.393313 2:7.6223082 3:-0.51152603 4:2.3966377 5:3.9816892 6:2.9858694 7:6.5614134 8:2.7932276 
1 1:10.303161 2:9.8336039 3:-0.033005468 4:0.4639721 5:2.9790662 6:2.8869427 7:2.5383443 8:1.8265288 
1 1:10.390847 2:8.6667378 3:0.18289879 4:1.7908863 5:2.7080884 6:3.3092674 7:3.2924795 8:3.8934183 
1 1:9.8329646 2:7.054425 3:4.0180659 4:4.8125986 5:2.2686785 6:1.5796453 7:0.99360275 8:3.0464242 
0.18031126086912311 1:11.642276 2:8.1905311 3:-7.8958416 4:0.11219371 5:3.1627716 6:3.5751538 7:1.6163397 8:0.84245921 
0.21068783962677157 1:12.227405 2:8.2629633 3:-8.2642597 4:0.76694937 5:4.4112481 6:4.2812941 7:3.4453652 8:1.2671899 
1 1:14.829987 2:9.0039159 3:-10.409011 4:1.719396 5:4.7179088 6:5.5144764 7:3.9751518 8:1.8977802 
1 1:14.218532 2:8.9377782 3:-9.9273876 4:1.3507506 5:3.5090286 6:4.6063168 7:2.9376369 8:2.0906052 
1 1:12.191493 2:8.0005 3:-4.1204233 4:2.8184513 5:4.7993712 6:4.4462906 7:7.1384199 8:3.4655995 
1 1:14.75245 2:10.025159 3:-9.2115354 4:3.0401545 5:5.0032906 6:3.8812859 7:5.2374518 8:2.3608634 
1 1:14.3739 2:9.0952566 3:-10.133515 4:2.1294407 5:4.6564552 6:4.8570194 7:3.1431566 8:2.207979 
0.47286655943365041 1:11.820538 2:7.7017479 3:-8.5609878 4:1.2686866 5:2.9656657 6:2.5743059 7:2.3949114 8:1.3930687 
1 1:11.585801 2:7.4888329 3:-8.3684947 4:1.3780802 5:3.5829451 6:3.3433688 7:2.5458112 8:1.1813517 
1 1:12.294051 2:7.0005573 3:-9.3236564 4:1.9170421 5:3.8237722 6:3.7500934 7:3.1323627 8:1.5088412 
1 1:12.382369 2:7.2884112 3:-9.0021423 4:1.5109893 5:4.451272 6:4.7996054 7:3.2819479 8:1.6990882 
1 1:12.861149 2:7.0003911 3:-9.7552643 4:2.0979479 5:4.1112102 6:4.4073218 7:3.2872518 8:1.8731404 
0.41875782209817741 1:12.585209 2:6.9925266 3:-9.6934815 4:1.7495815 5:4.3437179 6:4.2185867 7:3.2030637 8:1.810863 
0.46648927736885754 1:11.692034 2:7.0058111 3:-8.6834614 4:1.3495748 5:3.8208677 6:3.7076838 7:2.8799215 8:1.7194713 
1 1:11.293245 2:7.0219829 3:-8.4875596 4:1.2328036 5:2.1093139 6:2.2238623 7:1.6171612 8:1.2486352 
1 1:9.2549759 2:2.5008727 3:2.3905811 4:8.0067079 5:1.5378404 6:1.7892684 7:2.1930868 8:1.9828787 
1 1:9.8766147 2:-2.2212034 3:-0.18830354 4:9.4058448 5:1.4838602 6:1.7146576 7:0.9450385 8:1.5738778 
1 1:9.6542558 2:0.80545836 3:1.6590848 4:9.4178997 5:1.1680673 6:0.60763327 7:0.73971107 8:1.2467897 
1 1:10.576574 2:3.6202118 3:-2.9717672 4:6.8835403 5:4.5457041 6:4.3721734 7:5.8675025 8:3.1086007 
0.83694225770523112 1:15.231033 2:6.525292 3:-12.951968 4:1.8017341 5:3.3610738 6:4.455748 7:2.879871 8:1.2468629 
1 1:16.713 2:6.6763067 3:-14.213252 4:2.2427476 5:4.2785726 6:4.9427688 7:4.2660885 8:1.8386251 
1 1:16.513993 2:7.5360477 3:-13.566061 4:2.5589352 5:4.7951902 6:5.1155691 7:4.4747366 8:1.4612718 
0.76285493875471144 1:12.743302 2:5.9402064 3:-10.652196 4:0.73900057 5:2.1017343 6:3.5455405 7:1.4598775 8:1.674961 
1 1:15.410916 2:7.1991105 3:-12.747335 4:1.2861944 5:3.3050338 6:4.7489432 7:2.6559669 8:1.6843172 
1 1:16.835409 2:4.7275964 3:-14.760837 4:0.18741913 5:2.8268879 6:5.9747048 7:3.6538022 8:1.4516651 
1 1:16.974188 2:5.2289424 3:-15.049268 4:1.5684509 5:4.5710961 6:5.2854986 7:4.68514 8:1.687779 
0.13846178876064716 1:16.055569 2:4.6857978 3:-14.190541 4:1.4959669 5:3.8953391 6:5.260877 7:4.1517074 8:1.5733338 
1 1:15.953 2:4.1997564 3:-14.429628 4:0.67173886 5:2.9212634 6:4.764937 7:3.1683896 8:1.9963207 
1 1:17.193524 2:5.3570174 3:-15.138314 4:1.7542022 5:3.7464672 6:5.4915906 7:4.0301512 8:1.5199232 
1 1:16.933551 2:5.5441711 3:-14.86283 4:1.1059498 5:3.704476 6:5.1699119 7:4.3312123 8:1.4547244 
1 1:17.822198 2:5.3391833 3:-15.774852 4:1.7923897 5:5.8556385 6:5.0708559 7:6.201713 8:2.6793513 
1 1:15.199293 2:5.4233796 3:-13.152715 4:0.40786252 5:2.247298 6:5.1189546 7:2.3734312 8:1.287889 
1 1:15.233566 2:6.2179133 3:-13.104584 4:0.25752657 5:4.913992 6:4.488817 7:4.7161592 8:1.8325771 
0.61892842033443229 1:13.966063 2:5.699059 3:-11.908824 4:1.2231318 5:4.1726859 6:4.2142495 7:3.8240558 8:2.0696605 
0.68167254425960966 1:16.020007 2:6.4437149 3:-13.609949 4:0.79688718 5:4.7183827 6:5.0748291 7:4.8098042 8:1.6212458 
1 1:12.981856 2:5.6036125 3:-11.157658 4:1.0111855 5:2.2430003 6:3.291427 7:1.9204701 8:1.4565841 
1 1:15.026965 2:5.2363792 3:-13.21454 4:1.4780644 5:2.6737317 6:4.2961674 7:2.87875 8:1.4092106 
1 1:15.671093 2:4.4860485 3:-13.779239 4:0.10649315 5:4.4052034 6:5.029614 7:4.6387168 8:2.8584727 
1 1:12.844188 2:4.5810999 3:-11.418224 4:-0.41210422 5:2.6632922 6:3.56579 7:2.1657809 8:1.7688075 
1 1:11.880367 2:4.7800467 3:-10.363267 4:-0.86117426 5:1.918935 6:3.2497081 7:1.2847505 8:1.275335 
1 1:13.151194 2:4.7164691 3:-11.66206 4:-0.32257909 5:3.4338152 6:3.8360676 7:3.0366804 8:1.5669589 
1 1:14.815243 2:5.2430163 3:-13.087545 4:-0.20661459 5:4.5377924 6:4.5410713 7:4.4136257 8:1.0797255 
1 1:14.663917 2:5.6984918 3:-12.221307 4:-1.4467993 5:2.8593176 6:5.0830536 7:2.0867897 8:3.0145715 
0.2636577661390605 1:15.025035 2:5.1946934 3:-13.20287 4:-0.51572472 5:4.4820564 6:4.7118547 7:4.4034534 8:1.6376615 
1 1:15.085831 2:6.2738981 3:-12.474281 4:-1.8043902 5:3.2100261 6:5.1235745 7:3.1174526 8:1.9213896 
0.50784147570790683 1:14.181614 2:4.6189202 3:-12.400583 4:-1.0700613 5:3.1919876 6:4.5487373 7:3.3830191 8:1.7079882 
1 1:16.280389 2:6.4516489 3:-13.717884 4:-1.0341652 5:2.9540688 6:5.1167079 7:3.5074734 8:2.1025957 
0.36543715999194853 1:13.995781 2:5.3425758 3:-12.177617 4:-0.28241203 5:4.3078398 6:4.3425819 7:4.0614365 8:1.4727088 
1 1:9.9044299 2:-1.6013527 3:1.012439 4:9.614103 5:1.1450316 6:0.97105569 7:1.1257995 8:1.0854097 
1 1:9.4527408 2:3.1737972 3:-1.4223737 4:8.6738881 5:1.6386023 6:1.0482217 7:1.0807107 8:1.5620982 
1 1:9.9187947 2:0.9925654 3:4.9729588 4:8.4242515 5:1.8791273 6:0.97089001 7:1.0938604 8:1.7581042 
1 1:12.665832 2:8.5134277 3:-8.3123652 4:-2.7400433 5:2.1992706 6:3.3811687 7:1.8108444 8:1.211163 
1 1:12.805351 2:8.2649164 3:-8.788586 4:-2.5412742 5:1.9248395 6:3.4151565 7:1.6875497 8:1.0792274 
1 1:9.7732003 2:-0.36717467 3:6.1542722 4:7.4881068 5:1.0480702 6:0.8558037 7:0.98998226 8:0.90543006 
1 1:14.671756 2:8.9908241 3:-10.387599 4:-3.2232153 5:4.6541367 6:2.7988784 7:5.2009442 8:1.7063509 
1 1:14.006815 2:6.5486771 3:-11.36196 4:-2.6686485 5:2.0985746 6:4.175578 7:1.6498529 8:1.1560428 
1 1:13.485291 2:6.1783634 3:-10.921462 4:-2.7853756 5:2.1320182 6:4.0210751 7:1.6105427 8:1.5578382 
1 1:13.71563 2:5.9867471 3:-11.241847 4:-2.6972506 5:2.2318197 6:4.1381881 7:1.6085833 8:1.9728077 
1 1:14.276729 2:5.832079 3:-12.063456 4:-2.1625591 5:1.5666919 6:4.0227123 7:1.3564256 8:2.0101303 
0.52741100768033755 1:13.631396 2:6.4444564 3:-11.084775 4:-2.4089589 5:2.402192 6:4.0622878 7:1.6798177 8:1.4335853 
1 1:10.179051 2:8.4845613 3:1.270075 4:4.5962568 5:1.4304144 6:1.6533607 7:1.1622918 8:2.6169055 
0.64703723748662689 1:10.14297 2:7.0206154 3:-7.1732327 4:-0.81363147 5:1.5652949 6:1.6076759 7:0.79961649 8:0.8364618 
1 1:9.8661897 2:6.6978651 3:-6.8294897 4:-1.9591631 5:1.5171235 6:1.4848023 7:1.135678 8:0.89850734 
1 1:9.7435286 2:-0.60926321 3:-0.82243993 4:9.1398968 5:1.4844629 6:2.2103686 7:2.3163926 8:1.5176474 
1 1:14.134255 2:10.184481 3:-9.2669645 4:0.61760811 5:6.347975 6:5.4304484 7:4.0254504 8:2.0971913 
0.33873555877567685 1:10.948159 2:9.7770192 3:-3.4215746 4:-1.2112648 5:3.1512331 6:3.4457837 7:2.374102 8:1.8756929 
1 1:10.037503 2:8.5927589 3:-3.5449375 4:-3.4126359 5:2.8576778 6:2.8999467 7:1.0794218 8:1.137882 
1 1:11.213433 2:6.9909363 3:-7.6364384 4:-2.9024019 5:2.1022848 6:2.4543145 7:1.8957314 8:2.2205631 
1 1:14.34341 2:8.3844466 3:-11.017222 4:-0.94848584 5:3.5512916 6:3.0950844 7:3.27274 8:2.340289 
0.49027043512611201 1:10.434444 2:7.2633326 3:-6.8573833 4:-2.3287372 5:2.6970438 6:2.531948 7:1.5867592 8:1.4213969 
1 1:12.262589 2:9.8011856 3:-6.0639421 4:-1.2988424 5:1.8533117 6:2.7857601 7:2.0653309 8:2.6941006 
1 1:13.076218 2:9.0022841 3:-8.743251 4:-1.1859879 5:1.9199528 6:2.3326302 7:2.1427643 8:2.3977019 
1 1:19.702094 2:10.184158 3:-15.490891 4:1.1537711 5:7.9124353 6:5.4643313 7:7.0763104 8:5.0823312 
1 1:12.412132 2:7.1400009 3:-9.504817 4:-0.17760661 5:1.5262781 6:3.2329785 7:0.99808061 8:1.8946047 
0.71292598751965564 1:12.940158 2:7.9414989 3:-9.7084947 4:-0.57760318 5:3.6768225 6:2.8735328 7:3.4705529 8:1.7346151 
1 1:9.9951393 2:9.0824611 3:-1.2332212 4:1.9401541 5:1.0178918 6:1.3417443 7:1.4741741 8:3.0313879 
1 1:9.6148069 2:2.2890259 3:4.505925 4:8.088729 5:1.5220486 6:0.87760949 7:0.94828141 8:1.4564237 
1 1:9.5941004 2:1.9319583 3:2.1661123 4:9.0517954 5:1.8133269 6:0.93061536 7:0.91982824 8:1.8064555 
1 1:9.8834148 2:2.1911423 3:3.901531 4:8.6581152 5:1.9154524 6:1.285974 7:0.97045838 8:1.9414736 
1 1:9.5972209 2:5.6398669 3:1.359902 4:4.5678486 5:2.0663524 6:4.4571636 7:2.1610794 8:4.1613959 
1 1:9.9339133 2:7.9926373 3:-4.9983885 4:-3.0392647 5:1.098344 6:0.89436837 7:0.78850972 8:0.60339182 
1 1:9.8865915 2:8.0494984 3:-4.6275016 4:-3.2482756 5:1.5077561 6:1.2444631 7:0.8272176 8:1.0126959 
1 1:9.9832339 2:7.9188541 3:-4.6040204 4:-3.8375981 5:0.84609451 6:0.7724253 7:0.71297967 8:0.8021474 
0.14790820672084867 1:9.9596733 2:8.0689121 3:-4.5510719 4:-3.3733803 5:2.2071957 6:2.0987215 7:1.173296 8:1.0422368 
1 1:10.153881 2:8.9202821 3:-2.0035291 4:-4.0916749 5:2.8971693 6:2.8225481 7:0.93369158 8:1.5260924 
1 1:10.540721 2:10.301307 3:-1.5384281 4:-0.89294641 5:1.7603623 6:1.7935241 7:1.1327286 8:0.65178934 
1 1:10.905377 2:10.457018 3:-1.4972968 4:-2.1303921 5:2.3580199 6:2.2623318 7:1.367647 8:1.1701327 
1 1:10.311903 2:9.5487734 3:-1.6104791 4:-3.3295393 5:1.6322482 6:1.6361759 7:0.89362922 8:0.81570545 
1 1:10.247074 2:9.4149868 3:-1.7301864 4:-2.7205787 5:2.5700719 6:2.8064843 7:1.5713838 8:1.491683 
1 1:13.590487 2:12.000938 3:-4.0104181 4:-3.6668117 5:3.1942604 6:3.5138005 7:2.6812513 8:1.3480615 
0.42109704119444541 1:12.763876 2:10.864665 3:-4.1051408 4:-4.3094898 5:2.711083 6:3.0561407 7:2.3096441 8:1.4585031 
0.71845591076517912 1:11.950056 2:9.9862124 3:-4.1256127 4:-4.2913214 5:1.7604346 6:2.4214265 7:1.8999756 8:1.1265879 
1 1:14.332755 2:11.189706 3:-6.8855335 4:-3.7215603 5:3.6455191 6:4.4290368 7:3.3041306 8:1.3091695 
1 1:15.928067 2:12.422433 3:-8.1756355 4:-3.1833313 5:6.1583511 6:6.1647511 7:4.5976318 8:1.0930557 
0.94342503344338402 1:14.229234 2:11.760895 3:-6.6100284 4:-3.3716338 5:4.7728206 6:4.2763706 7:3.4005747 8:1.4214815 
0.50908950408232634 1:13.760194 2:11.60595 3:-5.493275 4:-3.993634 5:3.9709243 6:3.6999913 7:2.6497709 8:1.8912207 
1 1:14.146304 2:11.739065 3:-5.4980014 4:-3.1372993 5:4.3321156 6:4.203299 7:4.7126633 8:1.0639042 
1 1:15.262231 2:11.684498 3:-8.8361812 4:-2.1223276 5:5.2489022 6:4.8958182 7:4.0528268 8:0.99114568 
1 1:14.16576 2:9.6097306 3:-9.2464906 4:-1.5369479 5:5.2555126 6:4.7536738 7:4.7748554 8:1.6388423 
0.14770661519042255 1:13.767757 2:10.425508 3:-7.8439113 4:-2.8296939 5:4.1930968 6:4.1367676 7:3.2417887 8:1.1339489 
1 1:12.152533 2:8.6947914 3:-7.4688516 4:-3.1560154 5:2.3349001 6:2.5510078 7:1.9296488 8:1.2494269 
0.17855310453463824 1:12.719044 2:9.8453605 3:-6.4768425 4:-3.9114275 5:2.7567391 6:2.9326035 7:2.0691895 8:1.5205634 
1 1:13.185183 2:9.9753448 3:-7.1333432 4:-3.9559121 5:3.3176894 6:3.3488505 7:2.3313872 8:1.4712681 
1 1:14.418551 2:11.181448 3:-7.3439731 4:-3.6721447 5:4.715709 6:4.7016501 7:3.7431733 8:1.253912 
0.87774817027150243 1:12.671039 2:11.633592 3:-4.1767826 4:0.018092096 5:3.0118977 6:3.1315626 7:2.1075132 8:1.6100166 
1 1:12.091319 2:11.543515 3:-2.5838795 4:-0.14582863 5:1.6838539 6:2.0114402 7:1.6693405 8:1.5007786 
0.20622500093381199 1:13.118061 2:10.963351 3:-6.1110308 4:-1.689244 5:2.2333952 6:3.1726316 7:2.1140322 8:1.4640823 
1 1:13.217583 2:11.706982 3:-5.4322639 4:0.75311827 5:4.0346601 6:3.8229677 7:2.5437799 8:1.6634242 
1 1:10.987799 2:8.1123603 3:-3.6369946 4:6.1294191 5:2.7142151 6:2.1632747 7:1.9475812 8:1.73723 
1 1:11.568634 2:10.146435 3:-3.5807909 4:3.5260486 5:2.8888361 6:2.8017122 7:2.1128669 8:1.2882656 
1 1:14.055644 2:12.013805 3:-6.1268997 4:-1.0469021 5:5.0529617 6:5.2384152 7:3.3485435 8:1.2138322 
0.82043495767704977 1:13.59397 2:11.886086 3:-5.5664492 4:-0.89670645 5:4.7500804 6:4.9299846 7:2.9524281 8:1.1266094 
1 1:13.810311 2:12.743694 3:-3.9540966 4:-1.9895878 5:4.0260539 6:3.892463 7:2.6272745 8:1.6984979 
1 1:13.967031 2:11.669059 3:-5.5417976 4:-3.2823292 5:4.4441793 6:4.2117772 7:3.2341001 8:2.9963409 
1 1:12.857838 2:11.756197 3:-3.6041516 4:-2.4695527 5:2.2479583 6:2.5590199 7:2.2899863 8:1.1348592 
1 1:13.236409 2:10.561507 3:-5.6078983 4:-4.8042146 5:3.4894508 6:3.5664083 7:2.5329728 8:1.4727995 
1 1:12.077722 2:10.163462 3:-4.2136029 4:-4.4938011 5:2.0924959 6:2.1797812 7:1.6494792 8:1.2381508 
1 1:12.969495 2:10.82651 3:-4.1218032 4:-4.9968298 5:2.7275213 6:2.8188014 7:2.5500487 8:1.4240433 
1 1:12.267041 2:9.8072874 3:-3.8929416 4:-5.7507554 5:2.6117266 6:2.5754966 7:2.0085518 8:1.4915999 
0.24491578414846249 1:11.003398 2:9.7040994 3:-4.9323047 4:-0.26591633 5:1.6623046 6:1.7641231 7:1.2896032 8:0.70352107 
1 1:10.309288 2:8.2988941 3:-5.7800924 4:-0.8600849 5:1.5651741 6:1.6930856 7:0.80387809 8:1.4824248 
0.29045558243773589 1:10.283626 2:8.3596703 3:-5.0198801 4:-2.4972108 5:1.7617093 6:1.5464417 7:0.77647212 8:2.1313969 
0.75694720985989861 1:10.441314 2:9.2507714 3:-2.9927954 4:-3.5406518 5:1.3876209 6:1.4233341 7:0.98308957 8:0.94041407 
1 1:10.262426 2:8.7796455 3:-4.3774447 4:-2.7680494 5:0.91179013 6:1.0100116 7:0.58537574 8:0.93790697 
