svm_type one_class
kernel_type rbf
gamma 0.125
nr_class 2
total_sv 163
rho 62.580462770023502
SV
1 1:1.2748048 2:0.055851936 3:-0.31986861 4:0.41317403 5:0.3696535 6:0.98064099 7:0.34518865 8:0.63624759 
1 1:1.7766365 2:-0.13887767 3:-0.076403791 4:0.27062393 5:0.73704241 6:1.5837758 7:0.44094297 8:0.94790837 
1 1:2.0165738 2:-0.96851578 3:-1.1035289 4:0.033133881 5:1.2687165 6:1.3212904 7:1.0783272 8:0.78148354 
1 1:3.8749857 2:-0.27446519 3:0.43535926 4:-0.13908881 5:1.9700011 6:3.054409 7:1.0414863 8:2.8632318 
1 1:3.8572079 2:0.081884179 3:0.42832523 4:0.071997244 5:2.0519192 6:2.8987956 7:0.65608613 8:3.1716887 
1 1:4.0776573 2:0.23885461 3:0.034070694 4:0.19542148 5:1.8434386 6:3.0124071 7:0.7942056 8:3.1974668 
1 1:3.8873338 2:0.23225106 3:0.29036819 4:0.10051337 5:2.0213976 6:3.0686311 7:0.63402022 8:3.0381864 
1 1:3.6610477 2:0.015233218 3:0.18729414 4:0.11631672 5:2.0105727 6:3.0644376 7:0.72301494 8:2.7355627 
1 1:4.5690018 2:0.060163806 3:-0.057536812 4:0.050408651 5:2.416849 6:2.9351329 7:1.2742876 8:4.0581586 
1 1:3.4274381 2:0.52573877 3:0.16915273 4:-0.17297066 5:1.7317562 6:3.0118097 7:0.8133909 8:2.1630479 
1 1:4.1275347 2:0.03408663 3:0.27410281 4:0.16740938 5:2.2005395 6:3.2394202 7:0.95877511 8:3.218929 
1 1:3.6397749 2:0.18992687 3:0.13432943 4:0.0965176 5:2.0422044 6:3.1203342 7:0.95996356 8:2.587878 
1 1:4.0731556 2:0.18316579 3:0.26647265 4:0.22221149 5:2.4386924 6:3.1453113 7:1.3217207 8:3.2777969 
1 1:3.427353 2:-0.022967232 3:0.48915582 4:0.13820057 5:1.8897592 6:2.8622715 7:1.0684476 8:2.3926679 
1 1:4.8343458 2:0.94923779 3:0.087619267 4:-0.185307 5:1.8130388 6:3.2944525 7:1.6758178 8:3.4717659 
1 1:4.3971215 2:-0.010606419 3:0.48960213 4:0.17531983 5:1.9346228 6:2.8028377 7:0.84416288 8:3.7733769 
1 1:4.250713 2:0.18955648 3:0.3062932 4:0.14273064 5:1.9217532 6:3.3635507 7:0.75925755 8:3.1179532 
1 1:4.2872485 2:-0.1052089 3:0.36690748 4:0.061819684 5:2.4090463 6:3.7570628 7:0.78750313 8:3.0493951 
1 1:4.14644 2:0.14602669 3:0.45214933 4:0.25857367 5:2.6083138 6:3.7794176 7:0.86383332 8:2.9450699 
1 1:4.3759778 2:0.11135497 3:0.25146249 4:0.11297922 5:2.406454 6:3.4543013 7:1.1147699 8:3.4171473 
1 1:3.4148025 2:-0.15547228 3:0.18558158 4:0.22927759 5:2.1240201 6:3.2699586 7:0.59346102 8:2.2397169 
1 1:3.5175125 2:0.1039577 3:0.068314011 4:0.16217673 5:1.8907826 6:3.1770434 7:0.79101823 8:2.2774685 
1 1:4.0874831 2:0.12721493 3:0.34569367 4:0.19842222 5:1.8556667 6:3.2229749 7:0.79407151 8:2.9929652 
1 1:4.1732006 2:0.29761264 3:0.45607573 4:0.22345126 5:1.9296465 6:3.1903125 7:0.93148856 8:3.121997 
1 1:4.1180749 2:0.10731908 3:0.14977332 4:0.25679565 5:2.3015523 6:3.3473742 7:0.91837025 8:3.1792252 
1 1:3.4233902 2:0.099896818 3:0.049646726 4:0.062940973 5:1.7499922 6:2.9924993 7:0.67698655 8:2.3135049 
1 1:3.7772467 2:0.34716909 3:0.059432705 4:-0.043215759 5:1.6181796 6:3.0253607 7:0.5924224 8:2.6937706 
1 1:4.156841 2:0.0016336522 3:0.29219916 4:-0.095007358 5:2.036312 6:3.2779887 7:1.3210778 8:2.9733867 
0.56426152550574327 1:3.8758348 2:0.016678655 3:0.22675525 4:0.1664624 5:2.033183 6:3.0484967 7:0.95431824 8:2.9786687 
1 1:4.7641738 2:0.0054257048 3:0.3291494 4:0.2526717 5:2.331061 6:3.9004023 7:1.0200891 8:3.4212959 
1 1:3.8851131 2:0.22442798 3:0.23180704 4:0.138398 5:2.0496763 6:3.2949574 7:0.84711411 8:2.7563879 
1 1:3.7460646 2:-0.1928276 3:0.29534362 4:0.26625594 5:2.3269706 6:3.3302315 7:1.0331592 8:2.6635746 
1 1:3.740893 2:0.12208443 3:0.30022446 4:-0.13165679 5:2.1377216 6:3.1333636 7:1.044664 8:2.7445347 
1 1:4.2052484 2:0.38073497 3:0.1503866 4:0.18972563 5:1.8834523 6:2.9139302 7:1.0413289 8:3.3841662 
1 1:3.3380004 2:-0.013039431 3:0.24118495 4:0.084553761 5:2.4242139 6:2.9855545 7:0.91974393 8:2.6821831 
1 1:2.7837358 2:-0.16903815 3:0.12339967 4:0.18975332 5:1.726335 6:2.5395801 7:0.47669847 8:1.9932138 
1 1:3.9488939 2:-0.053390983 3:0.1722416 4:0.29749912 5:2.8402655 6:3.5751014 7:1.0148506 8:3.1190666 
1 1:2.5672878 2:-0.93498548 3:-0.1965262 4:0.80668012 5:1.8088159 6:2.3652091 7:0.81362402 8:1.4293461 
1 1:3.8134283 2:-0.4870303 3:0.37814757 4:-0.24981022 5:1.9128151 6:2.7051876 7:1.9730963 8:2.5587787 
1 1:4.2042908 2:-0.15582837 3:-0.010754671 4:0.19563773 5:2.4903849 6:3.441207 7:1.173914 8:3.2550616 
1 1:2.900961 2:-0.1186615 3:-0.050064703 4:0.17361402 5:2.0702761 6:2.6946293 7:0.58297269 8:2.2481113 
1 1:0.67626152 2:0.023463738 3:-0.0039932483 4:0.053967676 5:0.34880248 6:0.47375908 7:0.51533422 8:0.29239832 
1 1:0.87071635 2:0.11331929 3:-0.16681475 4:0.028442817 5:0.40620446 6:0.52903245 7:0.69675902 8:0.34106181 
1 1:0.79308108 2:0.08209655 3:-0.035817136 4:0.076395426 5:0.372873 6:0.50793248 7:0.64076271 8:0.29254169 
1 1:0.7743264 2:0.0021057249 3:-0.01914275 4:0.060732353 5:0.33243172 6:0.50108822 7:0.55842823 8:0.3782875 
1 1:0.6936168 2:0.0099307488 3:0.0073430667 4:0.058559805 5:0.27029164 6:0.45586165 7:0.51534724 8:0.27782625 
1 1:0.63055039 2:-0.034609648 3:-0.0074789052 4:-0.0064839817 5:0.29718303 6:0.40771912 7:0.45230205 8:0.33734808 
1 1:0.88676746 2:0.068150864 3:-0.12137959 4:0.013083868 5:0.47636901 6:0.62512947 7:0.72251033 8:0.28447705 
1 1:0.86015096 2:0.04722106 3:-0.0151888 4:0.08307231 5:0.29851343 6:0.48220566 7:0.65196778 8:0.4025222 
1 1:0.95823247 2:0.00043861436 3:-0.116266 4:-0.029935667 5:0.45033924 6:0.45035335 7:0.89579777 8:0.31832217 
1 1:0.86961232 2:0.039793946 3:-0.070269239 4:-0.0023207938 5:0.30613109 6:0.42523641 7:0.73789493 8:0.34365708 
1 1:0.80846814 2:0.044840616 3:-0.068874322 4:0.0083402038 5:0.32604754 6:0.44060013 7:0.58327188 8:0.46772775 
0.56266428775165556 1:0.89338587 2:0.060809054 3:-0.0037760406 4:0.13091683 5:0.36649588 6:0.45650934 7:0.74497562 8:0.38498945 
1 1:1.2341369 2:-0.067418766 3:-0.038011827 4:0.06708001 5:1.09086 6:0.73456435 7:1.4272878 8:0.3547452 
1 1:0.83514659 2:0.028919602 3:-0.024793842 4:-0.0088046371 5:0.41056587 6:0.35842822 7:0.7371947 8:0.43883795 
1 1:0.82732712 2:-0.028545795 3:-0.047580278 4:-0.032940666 5:0.35886294 6:0.389166 7:0.75245743 8:0.30240136 
1 1:1.1970096 2:-0.30195071 3:0.17361985 4:-0.20893503 5:0.6472322 6:0.64288527 7:1.0456616 8:0.42433461 
1 1:1.7080739 2:-0.036327125 3:-0.08173385 4:0.089001585 5:0.79468576 6:1.1220127 7:1.394111 8:0.57503262 
1 1:1.422186 2:0.068798784 3:-0.47687608 4:-0.053385593 5:0.73667549 6:0.71428484 7:1.2655474 8:0.46743641 
1 1:0.70476472 2:-0.044560182 3:-0.037904511 4:-0.034934999 5:0.26213571 6:0.39777796 7:0.49411078 8:0.39798599 
1 1:0.93268824 2:0.31132753 3:-0.12292585 4:0.21360366 5:0.3462093 6:0.45800453 7:0.68829133 8:0.38547764 
1 1:0.56782649 2:-0.028856837 3:0.00092057996 4:0.061795478 5:0.24694958 6:0.25892003 7:0.40310891 8:0.38629315 
1 1:0.71989289 2:0.072386321 3:-0.2032703 4:-0.16631566 5:0.44998162 6:0.35764909 7:0.57647904 8:0.43158867 
1 1:1.9115007 2:0.49365174 3:0.040169315 4:-0.04167349 5:1.2163863 6:1.5023011 7:1.4434288 8:0.7389133 
1 1:1.6530798 2:0.49798903 3:-0.041105615 4:0.39809597 5:0.5063382 6:1.2704879 7:0.62769368 8:0.7568021 
0.034651862884267914 1:2.0174707 2:-0.22574217 3:0.042153572 4:0.15429932 5:0.97521284 6:1.16431 7:1.5446042 8:1.0969337 
1 1:0.94943713 2:0.24277096 3:-0.055085093 4:-0.79171222 5:1.2295064 6:0.57245172 7:0.20252534 8:1.1643106 
1 1:0.58279793 2:-0.039735874 3:-0.2450466 4:0.45107787 5:0.30623408 6:0.11149813 7:0.16348299 8:0.35941091 
1 1:0.16988684 2:-0.0028798179 3:-0.074517338 4:-0.0086438568 5:0.089543355 6:0.15407445 7:0.033909965 8:0.079717538 
1 1:0.18770773 2:0.046279775 3:-0.00047155208 4:0.045117922 5:0.099634563 6:0.13535804 7:0.10425918 8:0.10859004 
1 1:2.2743688 2:-0.14265117 3:-0.59987512 4:0.32486272 5:0.79057136 6:1.5555322 7:1.4043123 8:0.95929546 
1 1:3.7270999 2:0.013498574 3:-0.053103779 4:-0.029395496 5:1.4885749 6:0.47903145 7:1.6733394 8:3.6157609 
1 1:1.8078151 2:0.083868243 3:0.97397086 4:-0.79573784 5:2.0642666 6:0.90106803 7:1.6840281 8:1.5141552 
1 1:4.0138931 2:0.01272867 3:-0.97006743 4:1.3905021 5:2.8491585 6:0.78498501 7:2.384625 8:3.879654 
1 1:0.50931703 2:0.010203752 3:0.0014465945 4:-0.044524236 5:0.20652648 6:0.36802699 7:0.27263732 8:0.30032221 
1 1:3.9908094 2:-0.075978979 3:0.048017959 4:0.18467412 5:1.7749464 6:0.49811426 7:1.7105701 8:3.9825423 
1 1:4.296803 2:-0.31248756 3:-0.12180554 4:0.090978953 5:1.9615605 6:1.3041649 7:1.6349346 8:4.2208549 
1 1:4.8598516 2:0.49821925 3:0.2257546 4:0.6972791 5:1.9843799 6:1.9509332 7:1.025654 8:4.6810713 
1 1:3.9144552 2:0.004204531 3:0.28715723 4:0.019835021 5:1.7545594 6:0.74387664 7:1.5184746 8:3.9318508 
1 1:3.9617295 2:0.010677789 3:-0.38390107 4:0.033547274 5:1.5355905 6:0.76322736 7:1.1648765 8:3.995656 
1 1:3.0922336 2:0.16728622 3:-0.24546728 4:0.03876327 5:1.4971429 6:0.28321155 7:0.99816458 8:3.2614511 
1 1:4.0847689 2:0.066047319 3:-0.16863174 4:-0.18995813 5:1.7100912 6:0.61254432 7:1.5167388 8:4.1067212 
1 1:3.9118795 2:-0.54213689 3:0.083442524 4:-0.040766756 5:1.414727 6:0.47206266 7:1.1463828 8:3.9325157 
1 1:4.3126321 2:-0.42189836 3:-0.23916699 4:-0.092669127 5:1.5639375 6:0.57216944 7:1.8980095 8:4.1074434 
1 1:3.6987933 2:-0.0062543708 3:0.069943877 4:0.19550716 5:1.667959 6:0.47341998 7:1.2607938 8:3.821816 
1 1:3.8541982 2:-0.29258248 3:-0.068647075 4:0.013367964 5:1.7230743 6:0.53895279 7:1.1811687 8:4.0059585 
1 1:3.9859617 2:-0.13382867 3:-0.1886365 4:0.017048496 5:1.5609545 6:0.70615168 7:1.6391898 8:3.8839531 
1 1:3.9517462 2:-0.10921156 3:0.010507802 4:-0.068474475 5:1.8477134 6:0.63891908 7:1.0902287 8:4.173344 
1 1:4.0468237 2:-0.01703142 3:-0.29901908 4:-0.016560496 5:1.6842264 6:0.63262344 7:1.5990698 8:4.0207198 
1 1:4.3208229 2:0.18788632 3:0.093624186 4:-0.073067455 5:1.6853819 6:0.7199301 7:1.2700267 8:4.3965156 
1 1:3.6765636 2:0.03963288 3:-0.0050523337 4:0.062511922 5:1.5560374 6:0.37142337 7:1.2893698 8:3.7593136 
1 1:4.0289348 2:-0.32305182 3:0.016722917 4:0.0038480288 5:1.3348837 6:0.678409 7:1.3901471 8:3.9391402 
1 1:3.9727223 2:-0.040961048 3:-0.12471598 4:-0.0092585787 5:1.5047059 6:0.64992084 7:1.3157703 8:3.9844318 
1 1:4.0330481 2:-0.0029017517 3:0.0085516174 4:0.035501232 5:1.6564274 6:0.8811059 7:2.5066575 8:3.4566179 
1 1:4.0004147 2:-0.18485654 3:-0.051901151 4:0.052643371 5:1.3696997 6:0.65263607 7:1.4831542 8:3.9005227 
1 1:3.5870138 2:0.037253113 3:-0.049523471 4:-0.035507792 5:1.8232306 6:0.5910331 7:0.71525451 8:3.9146938 
1 1:4.3526925 2:0.2201173 3:-0.23122186 4:0.2086362 5:1.7796653 6:1.108459 7:3.2857877 8:3.153191 
1 1:3.6459371 2:-0.080242296 3:-0.15550557 4:0.047010238 5:1.9690351 6:0.49099183 7:0.85659595 8:4.0202359 
1 1:3.0267069 2:0.049082557 3:0.11050223 4:0.06234935 5:1.265667 6:0.29487059 7:0.64842987 8:3.1995234 
1 1:3.5480225 2:0.079193221 3:0.062390514 4:0.046312873 5:1.673898 6:0.57786433 7:0.58091402 8:3.8349317 
1 1:3.6775966 2:0.056440235 3:0.022685119 4:-0.036111118 5:1.6555113 6:0.50575111 7:0.64654179 8:3.9479906 
1 1:3.347608 2:0.013259164 3:-0.09007636 4:-0.096486308 5:1.6270532 6:0.45484077 7:0.47733203 8:3.6608 
1 1:3.2909161 2:0.064274773 3:0.037443177 4:0.066565055 5:1.4554277 6:0.39181538 7:0.65337055 8:3.5153978 
1 1:3.2349574 2:0.11160231 3:0.071488191 4:0.10628442 5:1.4991621 6:0.47936663 7:0.57904933 8:3.4811613 
1 1:4.0416596 2:0.0041761546 3:-0.30865433 4:-5.1901854e-06 5:1.5708253 6:0.60702426 7:0.98168525 8:4.1683372 
1 1:0.59719654 2:0.09332472 3:0.11133032 4:-0.049602782 5:0.31992697 6:0.28448886 7:0.537859 8:0.25535539 
1 1:4.1304934 2:0.68862558 3:-0.85514826 4:1.7751216 5:1.819796 6:1.3247849 7:1.6678063 8:3.3881352 
1 1:0.97774113 2:0.0083043451 3:-0.29811294 4:0.60472525 5:0.3053742 6:0.53418924 7:0.51254528 8:0.21572526 
1 1:1.6288889 2:0.26639206 3:0.01921316 4:-0.78930083 5:0.78505866 6:0.74842552 7:0.8250492 8:1.1551708 
1 1:1.4428197 2:-0.79134411 3:-0.4154274 4:0.94969365 5:0.66426666 6:0.45250171 7:0.52036173 8:0.58883047 
1 1:1.6761996 2:0.079320475 3:-0.91830584 4:0.64444727 5:1.711733 6:0.48404412 7:1.8223889 8:0.95884574 
1 1:3.7756973 2:-0.14802331 3:-0.32792987 4:-0.10146033 5:1.8747554 6:2.8486661 7:1.7776436 8:2.5210989 
1 1:2.2959251 2:0.27949455 3:-0.181242 4:-0.12557827 5:1.0820467 6:1.5265032 7:1.6383444 8:1.1406037 
1 1:2.7205443 2:0.50061886 3:-0.56118088 4:-0.31848091 5:0.92039473 6:1.1065205 7:1.5983924 8:1.9499406 
1 1:5.7768378 2:-0.29068012 3:-0.10186842 4:-0.12223835 5:2.5103037 6:3.7282644 7:3.2137697 8:3.9160431 
1 1:2.447704 2:-1.3892756 3:1.0164598 4:1.0241215 5:1.3215282 6:1.2192939 7:1.0166206 8:1.0979047 
1 1:4.5276083 2:-0.35002835 3:-0.47095417 4:0.1641269 5:1.5336748 6:2.8602882 7:1.9720966 8:3.2264109 
1 1:4.3134831 2:-0.058321477 3:-0.013836783 4:0.19159115 5:2.52387 6:2.911786 7:2.1420479 8:3.4451255 
1 1:3.6831348 2:0.39182773 3:-0.47705731 4:-0.23176108 5:1.5863668 6:2.2554172 7:2.238987 8:2.3552592 
1 1:4.0134347 2:-0.19150591 3:0.14767358 4:0.081690777 5:1.5371484 6:1.6598979 7:2.2841675 8:3.2299607 
1 1:5.0730453 2:0.37620217 3:0.075004703 4:-0.051051167 5:2.0907486 6:2.8618272 7:2.3391051 8:4.0368044 
1 1:3.8543416 2:-0.023199328 3:-0.31943881 4:-0.12880021 5:1.782795 6:1.819561 7:2.296784 8:3.0543607 
1 1:3.4476366 2:0.39695213 3:-0.44030855 4:-0.34027931 5:1.7140111 6:1.7907167 7:2.1838385 8:2.5260607 
1 1:0.83886231 2:0.075652497 3:-0.070366201 4:0.13583202 5:0.31394266 6:0.53627446 7:0.28100299 8:0.63762994 
1 1:0.57976771 2:0.16407523 3:-0.059120664 4:-0.062391096 5:0.23993825 6:0.45142966 7:0.29492002 8:0.26196531 
1 1:0.61672347 2:-0.060904078 3:-0.020071819 4:0.10316812 5:0.29577195 6:0.44241257 7:0.31819834 8:0.39508729 
1 1:0.53086874 2:-0.029330394 3:0.20976461 4:0.036753646 5:0.22909341 6:0.38697198 7:0.2257743 8:0.29558717 
1 1:0.71637419 2:-0.10436646 3:-0.09941356 4:-0.10328569 5:0.268031 6:0.38808856 7:0.55755063 8:0.30350257 
1 1:0.55510279 2:0.093028654 3:-0.11753365 4:0.0032633529 5:0.25051051 6:0.38826536 7:0.36800428 8:0.24947614 
1 1:0.68933751 2:0.0067161449 3:-0.0090768736 4:0.0084676484 5:0.30096241 6:0.31656492 7:0.37723387 8:0.56837191 
1 1:0.73906739 2:0.058987725 3:-0.024104075 4:-0.035992316 5:0.34833432 6:0.40816739 7:0.43923313 8:0.55015912 
1 1:0.69070955 2:0.016587123 3:0.026385118 4:0.0026019643 5:0.3248518 6:0.44010619 7:0.41037062 8:0.46854327 
1 1:0.66301982 2:-0.20108405 3:0.16144922 4:0.066450365 5:0.27002387 6:0.40435523 7:0.43721687 8:0.29483916 
0.21504684213426897 1:0.82750482 2:-0.054098652 3:-0.03088039 4:0.0091702384 5:0.28400365 6:0.40842312 7:0.44420885 8:0.6303388 
1 1:0.78457057 2:-0.072937713 3:0.067781543 4:0.038681735 5:0.33903597 6:0.57926221 7:0.43143309 8:0.44430466 
1 1:0.82052263 2:-0.075802752 3:0.050110125 4:0.039652191 5:0.28994264 6:0.30508641 7:0.36004355 8:0.72442091 
1 1:0.54520113 2:-0.16089717 3:0.090552697 4:0.1028019 5:0.27147763 6:0.3942432 7:0.32200195 8:0.25918237 
1 1:0.72510814 2:0.082896892 3:0.014978327 4:-0.067291369 5:0.38619164 6:0.36933949 7:0.29932099 8:0.66128413 
1 1:0.78574337 2:0.0051068159 3:0.030817296 4:-0.017691154 5:0.36131332 6:0.37880105 7:0.51389778 8:0.58229721 
0.45906815218302249 1:0.94339093 2:-0.28118276 3:0.21814835 4:0.12130701 5:0.3581422 6:0.47556285 7:0.44009232 8:0.67604969 
1 1:0.70650336 2:0.074662734 3:-0.032296898 4:0.081721051 5:0.40167349 6:0.58696435 7:0.34318095 8:0.42999109 
1 1:0.75374416 2:-0.027744877 3:0.025051284 4:0.02355626 5:0.36701026 6:0.42389794 7:0.49499839 8:0.52551088 
1 1:0.71654246 2:-0.085480141 3:0.084319615 4:0.027921351 5:0.31531123 6:0.458135 7:0.43874017 8:0.44190204 
1 1:0.7078914 2:-0.1169054 3:0.038656417 4:0.070594088 5:0.31034348 6:0.42707618 7:0.51930955 8:0.35383911 
1 1:0.62935579 2:-0.04067404 3:0.066646895 4:0.061312067 5:0.22009483 6:0.4134628 7:0.35314068 8:0.3728475 
1 1:0.76378956 2:-0.21708744 3:0.057627461 4:-0.098888433 5:0.34390758 6:0.4347515 7:0.38508289 8:0.55147295 
1 1:2.5193691 2:0.14438913 3:-0.02813082 4:-0.065344149 5:0.84194341 6:0.39905023 7:0.30519563 8:2.6034198 
0.064307329541047523 1:2.5815244 2:-0.16746457 3:-0.14899545 4:0.0001552402 5:0.67518078 6:0.69410914 7:0.44377332 8:2.5280766 
1 1:2.345133 2:0.041602323 3:-0.20345358 4:-0.10156505 5:0.94598979 6:0.36873413 7:0.51866754 8:2.4364164 
1 1:4.1447231 2:-0.52798091 3:-0.70790283 4:0.27612474 5:1.8255429 6:1.743451 7:1.2179815 8:3.8900001 
1 1:3.7836163 2:-0.13522994 3:-0.27463425 4:-0.019924852 5:1.1888615 6:0.84448132 7:0.64993613 8:3.8078169 
1 1:4.3931229 2:-0.10826049 3:-0.23221438 4:0.16457831 5:1.7238313 6:1.0500072 7:1.0143729 8:4.4773793 
1 1:2.6693318 2:0.038915358 3:0.2365965 4:0.046514068 5:1.3688031 6:0.57710372 7:0.37742155 8:2.9092615 
1 1:3.8629984 2:-0.26871653 3:-0.21413736 4:0.026335356 5:1.8813872 6:0.85658807 7:0.90570131 8:4.097509 
1 1:3.7904091 2:0.051330696 3:-0.018774125 4:-0.0054882607 5:1.8288673 6:0.8539687 7:0.64099066 8:4.07048 
1 1:3.9363402 2:0.30718391 3:-0.18904953 4:-0.67475516 5:1.5677126 6:1.0424371 7:1.2526478 8:3.8355311 
1 1:4.0317312 2:0.10071528 3:-0.01425425 4:-0.010248921 5:1.5386453 6:1.033886 7:0.71332695 8:4.1272362 
1 1:4.0398931 2:-0.32533131 3:-0.18060342 4:-0.029172891 5:1.8382696 6:0.7979063 7:0.67999816 8:4.2966976 
1 1:2.9933071 2:-0.30215982 3:0.04586345 4:0.016048236 5:1.2615777 6:0.4299539 7:0.61494787 8:3.1455974 
1 1:2.9991425 2:-0.2155084 3:0.0960548 4:0.14262293 5:1.3277614 6:2.0929063 7:2.4086731 8:0.70698762 
1 1:2.7191893 2:0.22633362 3:-0.28168525 4:0.18913804 5:1.2330993 6:1.3059527 7:2.1951424 8:1.4913132 
1 1:4.2953538 2:-0.23352028 3:0.056832304 4:0.1636592 5:1.7101069 6:0.73441081 7:0.90943932 8:4.4635798 
1 1:3.7643409 2:0.15470268 3:-0.017017753 4:-0.071832189 5:1.7460825 6:0.86365418 7:0.47825796 8:4.0267921 
