svm_type one_class
kernel_type rbf
gamma 0.14285714285714285
nr_class 2
total_sv 422
rho 46.711819950650948
SV
0.91914396708137047 1:0.24571641 2:-0.12365894 3:-0.54558522 4:0.79379118 5:0.32219266 6:1.7591095 7:4.2017101 
0.19115959784419106 1:-0.28575285 2:0.042562449 3:0.42692875 4:0.93267539 5:0.26646619 6:1.9353777 7:4.9523089 
1 1:-0.35795074 2:0.050563351 3:0.52177663 4:1.1550539 5:0.30280485 6:1.7458372 7:4.8767241 
1 1:0.14000371 2:-0.15022332 3:-0.49102008 4:0.76178418 5:0.27833965 6:1.6307859 7:3.6005196 
1 1:-0.063827161 2:0.049199414 3:0.55524348 4:0.48814345 5:0.35845778 6:1.9034383 7:4.3046432 
1 1:-0.12149614 2:0.12573918 3:0.4828477 4:0.48357863 5:0.51475962 6:1.6059955 7:3.3417609 
1 1:0.079445498 2:-0.21352217 3:-0.55976719 4:0.51925576 5:0.47663291 6:1.9125072 7:4.5197318 
1 1:-0.021826048 2:0.038699137 3:0.54731874 4:0.42220874 5:0.50106724 6:1.7293922 7:3.7216578 
1 1:0.091151001 2:-0.11193693 3:-0.61661067 4:0.55522283 5:0.40914641 6:1.963288 7:4.73122 
0.36878860156836757 1:-0.14142752 2:0.064263023 3:0.46411097 4:0.64740888 5:0.33944689 6:1.5381931 7:3.139931 
1 1:-0.10270791 2:0.055786854 3:0.51616461 4:0.54068378 5:0.39846546 6:1.7349037 7:3.7410916 
1 1:-0.15578714 2:-0.015023983 3:0.51388624 4:0.40052692 5:0.31946695 6:1.8487109 7:3.9687874 
1 1:0.021099615 2:-0.07196653 3:-0.49230784 4:0.47269433 5:0.44396979 6:1.7714753 7:3.8066651 
1 1:-0.062803554 2:0.067426314 3:0.5271602 4:0.54986448 5:0.45832146 6:1.72763 7:3.7835034 
1 1:-0.1854884 2:-0.02293221 3:0.50525159 4:0.8081857 5:0.27657119 6:1.4766852 7:3.2004659 
1 1:-0.34380156 2:0.05666188 3:0.5624583 4:0.93178329 5:0.32901365 6:1.8393416 7:4.7974169 
1 1:0.0055473171 2:-0.061730409 3:-0.56607396 4:0.55297528 5:0.31316789 6:1.8905916 7:4.3024737 
1 1:0.086264074 2:-0.030675341 3:-0.63108983 4:0.65014061 5:0.4204137 6:1.9987745 7:5.0011868 
1 1:0.38018932 2:0.12814962 3:-0.36399313 4:1.5431154 5:0.5025901 6:1.037004 7:4.0026365 
1 1:-0.79201154 2:-0.87494063 3:-0.14642605 4:1.3226793 5:1.1515555 6:0.55358463 7:4.7962606 
1 1:-0.78905627 2:-0.84583373 3:0.43858473 4:1.07127 5:2.2949918 6:0.85951473 7:8.6837734 
1 1:0.0028562005 2:0.95420452 3:0.07221417 4:1.7134953 5:1.7439138 6:2.3459071 7:12.396311 
1 1:-0.42930619 2:-0.50899932 3:0.63903106 4:2.2304101 5:2.2785061 6:3.043104 7:20.278546 
1 1:0.51718823 2:0.32276798 3:-0.50079392 4:2.9221963 5:0.73888851 6:3.2770046 7:20.446404 
1 1:0.52255393 2:0.22550833 3:-0.79592438 4:2.8713179 5:0.93860771 6:3.5836658 7:22.925523 
1 1:-0.42617216 2:0.38069122 3:0.92823823 4:2.6620323 5:0.59722578 6:3.1940705 7:18.833356 
1 1:0.84172275 2:0.12133105 3:-0.2615824 4:2.6031565 5:0.59607146 6:2.4412311 7:13.882978 
1 1:-0.38950088 2:0.26797172 3:0.56645368 4:2.9118429 5:0.68602727 6:2.7078013 7:16.82604 
1 1:0.40987404 2:0.024484141 3:-0.81760186 4:3.6122843 5:1.2719581 6:2.7040814 7:22.8156 
1 1:0.49670674 2:0.19922352 3:-0.5679255 4:2.7012972 5:0.63689653 6:2.8781735 7:16.595473 
1 1:-0.4351967 2:0.33587814 3:0.69770584 4:3.1627032 5:0.57574372 6:3.0773527 7:20.593276 
1 1:-0.46079052 2:0.26100456 3:0.36072418 4:2.8525278 5:0.59877867 6:2.5042299 7:15.177191 
1 1:0.61842675 2:0.026415796 3:-0.23244247 4:2.9651206 5:0.76170508 6:2.5133843 7:16.126414 
1 1:-0.18211927 2:0.29145603 3:0.18729941 4:3.1131597 5:1.2759254 6:3.2395205 7:21.967437 
1 1:0.5489037 2:0.093544934 3:-0.62754019 4:2.870335 5:1.1500397 6:3.9029501 7:25.498286 
1 1:-0.69836754 2:0.62716048 3:0.71877372 4:2.8047575 5:0.74512894 6:3.2976635 7:20.694149 
1 1:0.61936784 2:0.0013703243 3:-0.2916964 4:2.4456646 5:0.68104135 6:2.4441766 7:12.887797 
1 1:-0.39485009 2:0.1543673 3:0.35324521 4:2.9317608 5:0.78032277 6:2.5488043 7:16.005046 
1 1:-0.38345826 2:-0.18984701 3:0.37853834 4:3.3148372 5:0.81680967 6:2.8782788 7:20.266186 
1 1:-0.25043823 2:0.066468735 3:0.42669764 4:3.2203956 5:0.81975595 6:2.377675 7:16.945494 
1 1:-0.26769103 2:0.16402557 3:0.61718852 4:3.274518 5:0.87137392 6:2.8038622 7:19.822889 
1 1:-0.27033263 2:0.10432587 3:0.19656653 4:2.5825484 5:0.73357366 6:2.2296701 7:12.301717 
1 1:0.69304697 2:0.081595305 3:-0.3448538 4:2.8258165 5:0.74616807 6:3.0189855 7:18.262176 
1 1:0.52593846 2:0.35811562 3:-0.44741751 4:2.7868961 5:0.94452883 6:3.3837199 7:20.713526 
1 1:-0.10080926 2:0.20586159 3:0.60843829 4:3.0858999 5:0.93213001 6:3.2814428 7:21.58225 
1 1:-0.49869717 2:0.4833595 3:0.46509959 4:3.3232099 5:0.71062951 6:2.9355674 7:20.864927 
1 1:0.06777304 2:0.2440159 3:-0.24092856 4:3.3295133 5:0.89060832 6:2.416901 7:17.842436 
1 1:0.64675767 2:0.34366948 3:-0.3820054 4:2.9525473 5:0.65075158 6:2.6790168 7:17.000477 
1 1:-0.2582639 2:0.22814991 3:0.74269657 4:3.1680632 5:1.0261229 6:2.9128936 7:20.244853 
1 1:0.6491351 2:0.16640299 3:-0.33827074 4:2.8687071 5:0.86955378 6:2.9109874 7:18.022945 
1 1:-0.38857632 2:0.34340532 3:0.65692778 4:3.0169211 5:1.1544042 6:2.5581948 7:17.679296 
1 1:0.17420247 2:0.38811934 3:-0.50253846 4:3.9943269 5:1.5258806 6:3.2607652 7:29.349077 
1 1:0.80306787 2:0.0024434632 3:-0.057453926 4:3.1587738 5:1.6015448 6:3.3208759 7:24.21924 
1 1:-0.46996998 2:0.91649597 3:0.76495188 4:3.7030094 5:1.4245245 6:4.2576302 7:35.514952 
1 1:0.47512106 2:0.17013422 3:-0.32841438 4:3.1508013 5:0.87342636 6:3.1788073 7:21.157779 
1 1:0.45988247 2:0.44300937 3:-0.6305615 4:3.1140289 5:0.70072108 6:3.1887169 7:21.161458 
1 1:0.38140797 2:0.19314744 3:0.47197892 4:3.1799126 5:1.0154746 6:2.9118206 7:20.027274 
1 1:-0.74994699 2:0.40059728 3:0.57035267 4:4.3157321 5:0.89665867 6:3.157942 7:30.450339 
1 1:-0.24094505 2:0.19040834 3:0.17784432 4:3.1805234 5:0.77403747 6:2.863228 7:19.038876 
1 1:0.38352432 2:0.40464044 3:-0.11200298 4:3.5693877 5:0.90063442 6:2.9821816 7:22.768447 
1 1:0.40784622 2:0.49465423 3:-0.3964434 4:4.2313492 5:1.139503 6:3.0197325 7:28.889756 
1 1:0.45713896 2:0.41809246 3:0.020704267 4:3.8193405 5:1.1185214 6:3.2750124 7:26.948364 
1 1:-0.68941922 2:0.36684934 3:0.81223613 4:3.7310057 5:1.0899989 6:3.6036538 7:29.364427 
1 1:0.1321285 2:0.30176743 3:-0.088658005 4:3.4741842 5:0.83781632 6:2.8243802 7:20.865397 
1 1:0.54447906 2:0.50285765 3:-0.48689262 4:4.019161 5:1.5162752 6:3.4110295 7:30.874256 
1 1:0.27860407 2:0.18669362 3:-0.033911279 4:3.1058341 5:0.62942855 6:2.3771851 7:15.80702 
1 1:-0.24722938 2:0.34729725 3:0.37885048 4:3.0008803 5:0.85408257 6:2.541718 7:16.520336 
0.84012915951602074 1:0.55722468 2:0.13993767 3:-0.31135966 4:2.7232947 5:0.79831844 6:2.475587 7:14.609204 
1 1:0.15606781 2:0.27895078 3:-0.32314772 4:3.6439106 5:1.1046579 6:2.2686082 7:19.851532 
1 1:-0.40029835 2:0.08150924 3:0.38274835 4:2.9445684 5:0.68359515 6:2.6040062 7:16.232013 
1 1:-0.33590984 2:0.10153571 3:0.51776607 4:3.0397039 5:0.74263317 6:2.2685289 7:15.328754 
1 1:-0.037774604 2:0.2383365 3:0.22129832 4:3.0728994 5:0.68618004 6:2.535875 7:16.45142 
1 1:0.60223058 2:-0.0045732311 3:-0.19704532 4:2.867893 5:0.71153358 6:2.6693616 7:16.258111 
1 1:-0.639774 2:0.22952023 3:0.65524375 4:3.2716278 5:0.74170074 6:3.0520077 7:21.459754 
1 1:0.67667359 2:0.10594385 3:-0.46514912 4:2.8099398 5:0.70785776 6:2.880991 7:17.382408 
1 1:0.52764097 2:0.44326011 3:-0.25907202 4:3.0843134 5:0.77541522 6:2.9480894 7:19.347492 
1 1:0.72408992 2:0.26245743 3:-0.58961702 4:3.1367911 5:0.87074382 6:3.1908894 7:21.720267 
1 1:-0.61058457 2:0.082846533 3:0.71103062 4:3.6158832 5:0.72348416 6:3.5806357 7:27.304234 
1 1:-0.25281566 2:0.11920127 3:0.30330285 4:3.2928442 5:0.87837948 6:2.8142114 7:19.704276 
1 1:0.5129639 2:0.13784378 3:-0.29640808 4:2.7090635 5:0.6472312 6:2.340993 7:13.608172 
1 1:0.2325085 2:0.34091233 3:-0.19706182 4:2.5686871 5:0.7838469 6:2.2184776 7:12.343327 
1 1:0.056645373 2:-0.0015354192 3:0.46995349 4:2.8635861 5:0.78348552 6:2.3436482 7:14.530729 
1 1:-0.37495569 2:0.19131638 3:0.37607835 4:2.640689 5:0.8497349 6:1.8330532 7:11.374 
1 1:0.7196983 2:0.24148989 3:-0.31897072 4:3.0953783 5:0.68027801 6:2.7950403 7:18.534421 
1 1:-0.67944727 2:0.4597669 3:0.38938531 4:3.2690133 5:1.2051792 6:2.8320328 7:20.983969 
1 1:-0.35263435 2:0.25329445 3:0.61086524 4:3.1194628 5:0.92486456 6:3.130305 7:20.946897 
1 1:-0.38793245 2:0.17994108 3:0.25832995 4:3.551244 5:1.0995153 6:2.7146467 7:21.439179 
1 1:-0.026052604 2:0.32030801 3:0.38023886 4:3.969285 5:1.0281451 6:3.3668034 7:28.395528 
1 1:0.70738196 2:0.42881089 3:-0.33349939 4:3.3607099 5:0.82146705 6:3.3342239 7:23.881718 
1 1:0.54340591 2:0.37867042 3:-0.2482094 4:3.2330208 5:0.86689289 6:2.81515 7:19.629285 
1 1:-0.053558022 2:0.22423707 3:-0.011870613 4:2.6138693 5:0.6581571 6:2.2752898 7:12.495719 
1 1:0.52803193 2:0.13535145 3:-0.36809924 4:2.8861348 5:0.82766413 6:2.7790017 7:17.170287 
1 1:-0.58433387 2:0.32960307 3:0.48557182 4:3.798836 5:1.0632389 6:2.7462884 7:23.789597 
1 1:0.4388819 2:0.38154312 3:-0.020868482 4:2.7959798 5:0.67321515 6:2.5220924 7:14.9703 
1 1:0.25895734 2:0.3234614 3:-0.35258482 4:2.9181872 5:0.90461513 6:2.5767548 7:16.269813 
1 1:-0.4990934 2:0.20085909 3:0.39937378 4:3.174386 5:1.069829 6:2.6711892 7:18.805451 
1 1:0.64905257 2:0.054796263 3:-0.40426071 4:1.9018918 5:0.4196343 6:2.1651098 7:9.0686845 
1 1:0.56261504 2:0.24056687 3:-0.36568836 4:3.6134098 5:1.361724 6:3.3736886 7:26.800933 
1 1:0.67578205 2:0.1751202 3:-0.60110792 4:2.8944245 5:0.97183587 6:3.4326205 7:21.953721 
1 1:0.47003602 2:-0.10229516 3:-0.3883617 4:2.6591015 5:0.64632452 6:2.4236552 7:13.744884 
1 1:-0.43354923 2:0.14221603 3:0.61717201 4:2.4462688 5:0.63564131 6:2.460781 7:13.032805 
1 1:-0.23642136 2:0.11434737 3:0.38931927 4:1.809901 5:0.41223989 6:1.7865831 7:6.8581023 
1 1:-0.11416575 2:0.016542893 3:-0.048208823 4:2.3883919 5:0.7459058 6:1.8920792 7:9.8563866 
1 1:0.55948651 2:0.19253812 3:-0.39788791 4:2.5578122 5:0.64220604 6:2.4465252 7:13.448728 
1 1:-0.098585499 2:0.12779301 3:0.31084081 4:2.5537054 5:0.76976344 6:2.1452384 7:11.838667 
1 1:-0.3177655 2:-0.38822963 3:0.089632089 4:3.3366254 5:0.80358185 6:1.3807167 7:13.944923 
1 1:-0.11821464 2:0.067993374 3:0.2906904 4:2.5472018 5:0.65444152 6:1.984455 7:10.957691 
1 1:0.13577718 2:0.071966528 3:-0.20480496 4:2.082614 5:0.42439176 6:1.5221153 7:6.8997841 
1 1:0.54013519 2:0.13543289 3:-0.47556266 4:1.959253 5:0.56403034 6:1.9357438 7:8.4401545 
1 1:-0.25055381 2:0.098217226 3:0.40761221 4:1.8222246 5:0.47521656 6:1.8119391 7:7.0680279 
1 1:-0.2460466 2:0.11200297 3:0.20772719 4:2.0472236 5:0.48162444 6:1.8186905 7:7.8469557 
1 1:0.61922188 2:0.14165558 3:-0.32841743 4:2.3359479 5:0.5375001 6:1.7855643 7:9.4451589 
1 1:-0.48496185 2:0.20922541 3:0.35835799 4:2.5201312 5:0.8019585 6:2.2153702 7:12.309448 
1 1:-0.37891805 2:-0.094981289 3:0.24319041 4:2.402436 5:1.1209106 6:1.9700715 7:11.121063 
0.68418704869735369 1:-0.33622352 2:0.10591083 3:0.4371979 4:2.236645 5:0.70571493 6:2.2354464 7:10.81324 
0.99752027128033971 1:0.31921835 2:-0.072659944 3:-0.297706 4:2.1721571 5:0.64883315 6:1.9025491 7:8.9547527 
1 1:0.4004469 2:0.36503325 3:-0.38405262 4:3.3552527 5:1.1799637 6:2.9843526 7:21.997499 
1 1:0.11282275 2:0.10005158 3:0.58944423 4:3.4524906 5:0.99239568 6:3.1091167 7:22.941331 
1 1:-0.39481707 2:0.21259762 3:0.4795127 4:2.4181635 5:0.81251686 6:2.294284 7:12.202448 
1 1:0.36088929 2:0.21008811 3:-0.16237459 4:2.285118 5:0.73917427 6:1.9442474 7:9.7489843 
1 1:-0.57342085 2:0.061433231 3:0.45849564 4:2.6615541 5:0.54387473 6:2.4247535 7:13.801903 
1 1:-0.062275235 2:-0.054994382 3:0.2351501 4:2.1591247 5:0.6330991 6:1.7525691 7:8.1963304 
1 1:0.52612007 2:0.094238348 3:-0.36817014 4:2.6623759 5:0.93120024 6:2.2248237 7:13.326452 
1 1:-0.027010166 2:0.035413672 3:-0.031368749 4:2.2408682 5:0.7351131 6:1.7898573 7:8.7684383 
1 1:-0.4818505 2:-0.15009367 3:0.50094207 4:2.9717266 5:0.89568764 6:1.8968278 7:13.737022 
1 1:-0.45867725 2:0.2555728 3:0.37371745 4:2.012293 5:0.72271448 6:1.8889871 7:8.5552786 
1 1:0.34091232 2:-0.016707987 3:-0.45654747 4:2.118759 5:0.47066366 6:2.2263501 7:9.9922345 
1 1:-0.61036026 2:-0.16483589 3:0.31789427 4:2.5356203 5:2.4598028 6:2.6856956 7:20.193728 
1 1:0.22223936 2:0.11081426 3:-0.13777488 4:3.4547022 5:1.1977491 6:3.2443214 7:23.975843 
1 1:-0.50714846 2:0.041473671 3:0.55644122 4:2.9700451 5:0.81538027 6:2.6257122 7:16.948924 
1 1:0.39914749 2:-0.080373577 3:-0.26291638 4:2.7296237 5:0.62439314 6:2.1180035 7:12.561554 
1 1:0.13338325 2:-1.580556 3:-0.095129875 4:1.1032933 5:1.1837155 6:0.95090847 7:6.0476635 
1 1:-0.76154533 2:0.73326634 3:0.23015773 4:0.90878667 5:1.1792744 6:0.48226561 7:3.6197648 
1 1:0.3564151 2:-0.72851458 3:0.51677548 4:0.84914171 5:1.2941802 6:0.71759398 7:3.8357073 
1 1:0.14926575 2:-0.026762499 3:0.11981214 4:0.25331861 5:0.59837661 6:0.35756647 7:0.58743011 
1 1:0.21965085 2:-0.38196181 3:0.10539462 4:1.0893843 5:1.4046188 6:0.42277676 7:3.5437017 
1 1:-0.20954329 2:0.27076188 3:0.11145814 4:1.0654625 5:1.3880791 6:0.64204529 7:3.6038394 
1 1:0.16235807 2:-0.25291472 3:0.14117591 4:0.81339444 5:1.4382785 6:0.5106965 7:3.1013231 
1 1:-0.074216054 2:0.032090786 3:-0.16029104 4:0.30321339 5:0.55480496 6:0.29735979 7:0.5204008 
1 1:-0.24033419 2:0.95027517 3:-0.74400084 4:0.82292737 5:1.6390356 6:1.0419194 7:5.9635639 
1 1:-0.013554604 2:0.088179222 3:0.17403056 4:0.25790092 5:0.29817628 6:0.4027842 7:0.35590303 
1 1:-0.32679639 2:0.29447007 3:-0.18720543 4:0.610478 5:1.3336201 6:0.49481024 7:2.6246176 
1 1:-0.054218416 2:-0.0077926604 3:0.079709657 4:0.29645942 5:0.36231922 6:0.35027536 7:0.35121023 
1 1:-0.095030818 2:-1.5060635 3:0.55492979 4:0.84401222 5:1.2169119 6:0.29957732 7:4.868183 
1 1:0.20647246 2:-0.43982297 3:-0.8857546 4:5.5511151e-17 5:1.110223e-16 6:2.220446e-16 7:1.0206363 
1 1:0.20372356 2:-0.41691551 3:-1.1255192 4:0.049910908 5:0.15515946 6:0.33150217 7:1.6185745 
1 1:-0.53666988 2:-0.62593875 3:0.26429002 4:0.95027177 5:0.42379716 6:0.64952752 7:2.2541696 
1 1:0.2485396 2:0.0050520214 3:0.70924756 4:1.8703834 5:1.2634691 6:1.5705657 7:8.1261943 
1 1:0.37951836 2:-0.56370645 3:0.1690875 4:1.2522895 5:0.90467083 6:0.72454905 7:3.4020194 
1 1:0.21613072 2:0.20155251 3:-0.63211344 4:0.94618548 5:1.1762779 6:0.68913156 7:3.2407023 
1 1:0.052831589 2:-0.22638335 3:-0.76668539 4:0.36990415 5:0.98507243 6:2.616522 7:8.5952313 
1 1:0.31941647 2:-0.28373865 3:-0.97271209 4:1.6760383 5:1.7922435 6:1.364513 7:9.0118402 
1 1:0.0015519229 2:-0.36156617 3:0.82281895 4:0.77695037 5:1.5967247 6:1.666176 7:6.7370875 
1 1:0.37408066 2:0.16471898 3:-0.76311927 4:0.61417421 5:0.72840634 6:1.3863607 7:3.5792015 
1 1:-0.26546697 2:-0.0025940816 3:-0.19805423 4:0.40506304 5:0.48510972 6:0.2609706 7:0.57721808 
1 1:-0.3903999 2:-0.63899761 3:0.32913419 4:0.50340247 5:0.45658999 6:0.44307765 7:1.3272656 
1 1:-0.91786629 2:-0.47493947 3:-0.44031827 4:0.72438449 5:0.48268522 6:0.49735613 7:2.2670072 
1 1:0.42938873 2:0.42935571 3:0.30251037 4:0.8279928 5:0.69731986 6:0.499038 7:1.8810995 
1 1:-0.060640756 2:-0.060244519 3:-0.050470676 4:0.20638124 5:0.066681686 6:0.1099671 7:0.068986419 
1 1:0.24811035 2:0.19542735 3:0.15930375 4:0.36242087 5:0.36162081 6:0.17341744 7:0.41732038 
1 1:0.049520806 2:0.14338229 3:0.028376726 4:0.30510106 5:0.33918504 6:0.23185527 7:0.28570604 
1 1:-0.035611792 2:-0.082929084 3:0.057602942 4:0.2901549 5:0.29082671 6:0.29875736 7:0.26948953 
1 1:0.70097612 2:-1.0203761 3:0.8046581 4:1.5031621 5:1.0189877 6:1.2677646 7:7.085069 
1 1:0.9795672 2:-0.7514294 3:0.2454538 4:1.2173786 5:0.87769376 6:0.70454527 7:4.3331867 
1 1:0.22146341 2:-0.64319157 3:-0.76490234 4:0.41355572 5:0.92295072 6:2.733241 7:9.54129 
1 1:-0.093066147 2:0.22686214 3:0.69080605 4:0.48100824 5:1.0826813 6:2.514736 7:8.2648056 
1 1:0.055824938 2:-0.40582629 3:-0.70910862 4:0.37037989 5:1.4688187 6:3.0762364 7:12.428486 
0.38909885772282343 1:0.19118431 2:-0.46410899 3:-0.79102096 4:0.65552502 5:1.4743725 6:2.9059229 7:11.925538 
1 1:0.056529798 2:-0.50449214 3:-0.7536591 4:0.47464433 5:1.7363073 6:3.4845453 7:16.207816 
1 1:-0.086990512 2:0.30822278 3:0.94495898 4:0.50784107 5:1.4982784 6:3.2162172 7:13.84231 
1 1:0.1518743 2:-0.48390433 3:-0.74258099 4:0.60979654 5:1.4725897 6:2.7604165 7:10.968927 
1 1:0.10361903 2:-0.32432871 3:-0.70632311 4:0.43678884 5:1.507138 6:2.879655 7:11.36948 
1 1:-0.063381396 2:0.30336888 3:0.50417845 4:0.43297381 5:1.4556588 6:2.4622213 7:8.7191883 
1 1:0.1349682 2:0.49471829 3:-1.4668525 4:0.86378743 5:1.9399644 6:1.8758538 7:10.443037 
1 1:0.30723219 2:0.73866816 3:-1.3930204 4:0.64791813 5:1.7753297 6:1.9215119 7:9.8443294 
1 1:0.051543818 2:-0.78035557 3:0.72219129 4:0.71993744 5:2.1638725 6:3.8208658 7:20.932841 
1 1:-0.066820513 2:0.3321152 3:0.43861754 4:0.44945952 5:1.3108702 6:1.937392 7:5.9810331 
0.4950761479438982 1:0.041654406 2:0.35382305 3:0.3693093 4:0.49732211 5:1.5036432 6:2.2255107 7:7.7244852 
1 1:-0.013075819 2:0.30876761 3:0.66184772 4:0.64456734 5:1.715179 6:2.6949013 7:11.15335 
1 1:0.098584254 2:0.34384662 3:0.75512344 4:0.49363479 5:1.4071544 6:1.8553653 7:6.3643001 
1 1:-0.35884205 2:-1.1403863 3:0.68464785 4:1.3544945 5:1.4213096 6:3.4182551 7:17.437236 
1 1:-0.4572574 2:0.46249103 3:-0.033581078 4:0.63122897 5:1.0172447 6:0.36783631 7:1.9926503 
0.47814187453815704 1:0.23638041 2:-0.071463082 3:-0.74802484 4:0.98261808 5:1.0959473 6:1.0965881 7:3.9896681 
1 1:-0.055885915 2:0.0085190932 3:0.06934146 4:0.35913794 5:0.39921115 6:0.27329404 7:0.37104328 
1 1:-0.016664406 2:-0.0088290384 3:-0.071202452 4:0.32081353 5:0.25139161 6:0.29451247 7:0.2582821 
1 1:-0.035463205 2:0.007000184 3:-0.045435165 4:0.30277652 5:0.23985275 6:0.3026255 7:0.24415615 
1 1:-0.45268416 2:-0.97796223 3:0.73084248 4:1.1197376 5:2.3028472 6:1.7296609 7:11.244108 
1 1:-0.21003858 2:0.061020493 3:1.0833447 4:0.81834488 5:1.7662644 6:3.0815661 7:14.506904 
1 1:-0.11040151 2:0.20685218 3:1.0009935 4:0.52888134 5:1.3307297 6:3.3723088 7:14.479988 
1 1:0.043718142 2:-0.32311469 3:-0.81879056 4:0.5629793 5:1.6922437 6:3.767704 7:18.15296 
1 1:-0.31994479 2:0.32048962 3:0.45121476 4:1.0227707 5:2.0761142 6:3.9711745 7:21.53521 
1 1:0.2807999 2:-0.53625713 3:-1.1591911 4:1.1335617 5:1.6250605 6:4.0095476 7:21.7124 
1 1:-0.57681967 2:0.29407867 3:1.0843754 4:1.397181 5:1.5397843 6:3.9232321 7:21.309874 
1 1:0.48211113 2:0.018847232 3:0.30430864 4:1.732648 5:1.0544035 6:4.3878078 7:23.692084 
1 1:0.040812403 2:-0.18771723 3:-1.08209 4:0.91469709 5:1.6088849 6:3.8929156 7:19.787796 
1 1:-0.020508782 2:-0.59074741 3:-1.050004 4:0.7606437 5:1.2669696 6:3.8132764 7:18.17678 
1 1:-0.23567995 2:0.37257892 3:1.0836749 4:0.91943009 5:1.5001629 6:3.8262363 7:19.104636 
0.97331440749613252 1:0.39926152 2:-0.31035212 3:-0.95785299 4:0.85756745 5:0.91921768 6:3.8017015 7:17.206528 
1 1:-0.29242284 2:0.18099772 3:1.1365231 4:0.67811355 5:1.2180491 6:3.7970489 7:17.771018 
1 1:-0.28547218 2:-0.41167364 3:-1.0718869 4:0.66324731 5:1.4588451 6:3.8616661 7:18.880502 
1 1:0.032805119 2:0.074063295 3:0.50749694 4:0.57780635 5:1.3313463 6:4.1037191 7:19.210969 
1 1:-0.012778644 2:-0.12067066 3:-1.0473367 4:0.57120787 5:1.3895215 6:4.31189 7:21.961083 
1 1:0.093421661 2:0.11560828 3:1.1532973 4:0.58826827 5:1.2765015 6:3.8489023 7:18.141752 
1 1:-0.18771723 2:-0.34461054 3:-1.2364573 4:0.56972219 5:1.1450871 6:3.9990333 7:19.310896 
1 1:0.025982136 2:0.18972659 3:1.1028805 4:1.3350459 5:1.4311075 6:3.8454936 7:19.871254 
1 1:-0.04893526 2:-0.16432274 3:-0.70270965 4:0.39130494 5:1.4283033 6:3.9288607 7:18.152314 
1 1:-0.0079577557 2:0.21972987 3:1.0594054 4:0.65059088 5:1.1224038 6:3.9697733 7:18.612843 
1 1:0.062585181 2:-0.20145522 3:-1.1274943 4:0.56071935 5:1.0760962 6:4.2310879 7:20.690239 
1 1:-0.33371403 2:0.29430496 3:0.68463135 4:0.98236695 5:1.6082923 6:4.3397655 7:23.051914 
1 1:-0.038517529 2:-0.53067679 3:-1.1760807 4:0.68275339 5:1.5352773 6:4.084332 7:21.171264 
1 1:-0.052088644 2:0.17937976 3:0.78162685 4:0.58964933 5:1.0625826 6:4.228 7:19.998583 
1 1:0.10414426 2:-0.057487375 3:-0.98453315 4:0.80076918 5:1.7209976 6:4.432941 7:24.237486 
1 1:0.067938122 2:-0.061829464 3:-0.98299776 4:0.57576245 5:1.3447897 6:3.8340563 7:17.814672 
0.24716352585446649 1:-0.0055638279 2:0.18251662 3:0.76803923 4:0.34366261 5:1.2562423 6:3.6048955 7:15.314748 
1 1:0.019270764 2:0.049032114 3:-1.0875845 4:0.69377387 5:0.81585682 6:3.7784803 7:16.609474 
1 1:-0.080650502 2:-0.4249993 3:-1.103076 4:0.54223151 5:1.6059489 6:3.5592212 7:16.945048 
1 1:0.03740124 2:0.021893409 3:-0.81401458 4:0.61789241 5:1.1313073 6:4.0660323 7:18.858764 
1 1:-0.40681973 2:0.18438224 3:1.1092487 4:0.72915432 5:1.4049838 6:4.2166681 7:21.715867 
1 1:-0.74185456 2:0.52261998 3:0.98157789 4:1.4752072 5:1.5600011 6:3.4418532 7:18.243168 
1 1:-0.10946044 2:-0.34811064 3:-0.9312558 4:0.82316876 5:2.3196825 6:3.5408923 7:19.596852 
1 1:-0.3784888 2:-0.035397163 3:-0.86044496 4:0.56321442 5:1.3744563 6:3.8626994 7:18.011659 
1 1:-0.094008089 2:0.093063284 3:1.1885483 4:0.73510631 5:1.2168447 6:3.7031536 7:17.164584 
1 1:-0.27317893 2:-0.32253684 3:-0.99188222 4:0.5239464 5:1.469892 6:3.5650026 7:16.306833 
1 1:-0.040927971 2:0.17495511 3:1.0570445 4:0.61533374 5:0.85724004 6:3.568904 7:15.000199 
1 1:-0.16275431 2:0.13983861 3:0.78634863 4:0.46483208 5:0.90877448 6:3.0972746 7:11.299438 
1 1:-0.030427689 2:0.21197024 3:0.85710996 4:0.55163133 5:1.0631562 6:2.9455786 7:10.891527 
1 1:0.062258725 2:-0.36977158 3:-0.85701091 4:0.48637139 5:0.81830035 6:2.3946723 7:7.5157031 
1 1:0.028941803 2:0.28550521 3:0.8985167 4:0.43623828 5:1.0460749 6:3.0914995 7:11.731629 
1 1:-0.22732442 2:-0.30227923 3:-1.044497 4:0.57702598 5:1.4172296 6:3.3906149 7:15.071791 
1 1:0.29176244 2:-0.7255428 3:-0.80406374 4:0.8601977 5:1.7055161 6:2.9820687 7:13.799515 
1 1:-0.38037093 2:0.56982169 3:0.64669165 4:1.058134 5:2.615941 6:3.3879893 7:20.328856 
1 1:-0.27581391 2:-0.27375018 3:-1.1722834 4:0.79353899 5:1.4342644 6:3.9897335 7:20.130053 
0.078398184368462798 1:-0.0037807586 2:-0.14386702 3:1.1279214 4:0.68838019 5:0.97001118 6:3.518027 7:15.084221 
1 1:-0.027951214 2:0.35458251 3:0.89102126 4:0.55908554 5:1.0300368 6:3.8316521 7:16.975539 
0.07617708594797222 1:0.12283344 2:-0.23851812 3:-0.94989542 4:0.49200429 5:0.9884275 6:3.6381145 7:15.429215 
1 1:-0.08522396 2:0.27274307 3:1.0799107 4:0.50933675 5:1.085603 6:3.3891084 7:14.171872 
1 1:0.2998853 2:-0.46351464 3:-1.098088 4:0.71871025 5:1.6599084 6:3.8451039 7:19.567239 
1 1:0.085749189 2:0.012608252 3:-0.26889474 4:0.77233741 5:1.7307004 6:4.0672603 7:20.214252 
1 1:0.29961718 2:-0.25983764 3:-1.0093937 4:0.52456081 5:1.1706835 6:3.5559647 7:15.466711 
0.67109402693836229 1:0.16452087 2:-0.312763 3:-1.0247347 4:0.58790823 5:1.2251894 6:3.2663291 7:13.6906 
0.36395433125823856 1:0.085554154 2:0.28205464 3:0.74268006 4:0.65659733 5:1.529729 6:2.6036898 7:10.188839 
1 1:0.01624087 2:-0.28248038 3:-0.87076802 4:0.44279422 5:1.2250483 6:3.2081013 7:12.82702 
0.43494532356216886 1:-0.17254466 2:-0.40627491 3:-0.81900517 4:0.58112778 5:1.33763 6:2.7129666 7:10.352752 
1 1:0.05005793 2:-0.11291101 3:-0.8353995 4:0.52577871 5:0.62151839 6:3.005301 7:10.40771 
1 1:0.2800695 2:0.0041213027 3:-1.0334862 4:0.79096572 5:0.49739702 6:3.4600707 7:13.99167 
0.19184484895547907 1:-0.064669166 2:-0.06901126 3:0.82778844 4:0.64621866 5:0.50486423 6:3.3760871 7:12.764629 
1 1:-0.040919825 2:0.00073303913 3:1.1420248 4:0.46359795 5:0.8848827 6:3.7949948 7:16.705822 
0.89849184857654885 1:-0.12246626 2:1.0795373 3:0.58349848 4:1.152958 5:1.2446685 6:3.4175769 7:16.079213 
1 1:0.11548655 2:-0.072197666 3:-0.90647448 4:0.40796742 5:0.74055227 6:3.0988127 7:11.157741 
1 1:-0.037213248 2:0.13899661 3:0.99589195 4:0.45872642 5:0.85510447 6:3.4080121 7:13.568685 
1 1:0.037526936 2:-0.25560583 3:-0.92463538 4:0.37476097 5:0.822258 6:3.6246274 7:14.876171 
1 1:-0.25819787 2:0.23543077 3:1.0713586 4:0.714044 5:1.1537852 6:3.7159298 7:16.919116 
1 1:0.10044253 2:-0.24094154 3:-1.0353107 4:0.40285132 5:0.9197473 6:3.5632132 7:14.844723 
1 1:-0.074459521 2:0.12197493 3:1.064507 4:0.71427551 5:0.64028106 6:3.8452823 7:16.859942 
1 1:0.10539902 2:-0.20326954 3:-0.89331611 4:0.38093834 5:0.83341287 6:3.4868983 7:13.848592 
1 1:0.30294029 2:-0.27306491 3:-1.0218879 4:0.61601172 5:1.190501 6:3.5882465 7:15.882868 
1 1:0.056232623 2:-0.085554151 3:-0.8906415 4:0.47675145 5:0.57702621 6:3.4211597 7:13.068309 
1 1:0.045839328 2:0.11041185 3:0.95350362 4:0.52966709 5:0.70084508 6:3.4177375 7:13.376122 
1 1:0.024847356 2:0.0039293511 3:0.86135301 4:0.52369599 5:0.53793737 6:3.5046044 7:13.588448 
1 1:0.1290799 2:-0.15711454 3:-1.1501371 4:0.49697026 5:0.60409754 6:3.5959198 7:14.906715 
1 1:0.24069719 2:-0.0311134 3:0.99251755 4:0.68124414 5:1.2246413 6:3.8115064 7:17.535415 
1 1:0.014644255 2:-0.29968718 3:-0.8657116 4:0.48782239 5:0.92078558 6:3.1904703 7:12.104401 
1 1:0.092026024 2:0.094568542 3:0.81093187 4:0.4671745 5:0.93673501 6:3.0368613 7:10.993273 
1 1:-0.15920468 2:-0.45321247 3:-1.0603795 4:0.85041605 5:0.84708039 6:3.0396951 7:12.035651 
1 1:0.16450435 2:0.0081063475 3:0.92828401 4:0.54689492 5:0.74081058 6:3.0125377 7:10.812116 
0.045659316808236053 1:0.022610159 2:-0.077522873 3:-0.58732657 4:0.41611154 5:0.58829234 6:2.9463517 7:9.5516986 
1 1:0.10383058 2:0.085289988 3:1.0215978 4:0.42117178 5:0.83582065 6:3.8556523 7:16.803754 
1 1:0.21565194 2:-0.15502769 3:-1.0897506 4:0.4173199 5:0.75607427 6:3.6651962 7:15.437563 
1 1:0.040235658 2:0.20187875 3:0.96254441 4:0.51669265 5:0.71788988 6:3.3746964 7:13.139779 
1 1:0.25905639 2:-0.17794339 3:-0.98022407 4:0.45293985 5:0.81364276 6:3.6034744 7:14.91181 
1 1:0.090622684 2:0.056694896 3:0.96084147 4:0.50795664 5:0.61224671 6:3.43381 7:13.35856 
1 1:0.15885798 2:-0.1205881 3:-1.0116093 4:0.39704986 5:0.62099267 6:3.3571342 7:12.876762 
1 1:0.019432118 2:-0.16050897 3:-1.0086706 4:0.56916433 5:0.58576375 6:3.68641 7:15.300243 
1 1:0.13945646 2:-0.38758178 3:-1.0128634 4:0.75046035 5:0.65423487 6:3.6393099 7:15.431351 
1 1:0.057225856 2:-0.1322564 3:-1.0425759 4:0.60127086 5:0.71606609 6:3.4283419 7:13.735537 
1 1:0.13310258 2:-0.044906849 3:-0.97944812 4:0.39716185 5:0.59106666 6:3.3786245 7:12.901253 
1 1:0.065197483 2:0.060871895 3:-0.10247677 4:0.28125075 5:0.47378756 6:0.2871141 7:0.40446873 
1 1:-0.17729753 2:-0.21986262 3:-0.0086335624 4:0.23623327 5:0.35490312 6:0.24929165 7:0.32375722 
1 1:0.37066313 2:-0.0073799162 3:-1.0176354 4:1.4104622 5:1.5150264 6:0.89349697 7:6.2560729 
1 1:0.62856382 2:-0.59098735 3:1.6810186 4:1.1341639 5:1.6699269 6:2.6530092 7:14.683623 
1 1:0.011144161 2:-0.31388568 3:-1.0724317 4:1.099329 5:1.1549661 6:4.2922292 7:22.214461 
0.19407625784502705 1:0.10472211 2:-0.073452417 3:-1.0590422 4:0.77394598 5:0.68796985 6:3.282935 7:12.98789 
1 1:-0.022072598 2:0.043249259 3:0.93470528 4:0.76965696 5:0.63244744 6:2.9814582 7:10.757486 
1 1:-0.054581633 2:0.098398831 3:0.86018079 4:0.72634196 5:0.60800713 6:3.0631883 7:11.03294 
1 1:-0.005745433 2:0.0029552695 3:0.79727821 4:0.64296648 5:0.72831627 6:2.5995659 7:8.3372876 
1 1:-0.15434528 2:0.039746965 3:0.99386959 4:0.75827523 5:0.5324791 6:3.4253397 7:13.604647 
0.38692111164894405 1:-0.021842555 2:0.046788975 3:0.84892107 4:0.7265792 5:0.62430656 6:2.9100023 7:10.109123 
1 1:0.022717585 2:0.075301523 3:0.84020386 4:0.68521932 5:0.58556024 6:3.0116285 7:10.594441 
1 1:-0.10267423 2:0.025086198 3:0.86788476 4:0.72150808 5:0.66964708 6:2.8618118 7:9.9233633 
1 1:-0.12076971 2:1.2257919 3:-0.58236919 4:0.87460391 5:0.88914023 6:0.6305511 7:3.809402 
1 1:-0.19138243 2:-0.021512364 3:0.046623877 4:0.39172676 5:0.30093576 6:0.34655218 7:0.4033744 
1 1:0.24066461 2:-0.043461026 3:0.25198598 4:0.14726895 5:0.10583734 6:0.12542694 7:0.17192686 
1 1:-0.13543047 2:-0.078372357 3:0.0037642478 4:0.23124912 5:0.25778001 6:0.32687971 7:0.25127484 
1 1:0.068961732 2:-1.2164143 3:0.4069353 4:1.0027991 5:1.7393309 6:3.4616987 7:17.664252 
1 1:0.24317389 2:0.10186591 3:1.1778803 4:0.90461862 5:0.95932991 6:3.8737393 7:18.201417 
1 1:-0.1384848 2:-0.11482616 3:-1.2191219 4:0.7218695 5:1.0860512 6:3.9335573 7:18.692097 
1 1:0.12734063 2:0.095971879 3:1.1141852 4:0.68867845 5:0.75378346 6:3.5148445 7:14.663434 
1 1:0.075251988 2:0.048109764 3:1.1474195 4:0.79829347 5:0.86304355 6:3.6593393 7:16.097429 
1 1:0.43622381 2:1.0914015 3:-1.3404695 4:0.9126427 5:1.8784793 6:1.579967 7:10.036204 
1 1:-0.25126373 2:-0.66998709 3:0.20830504 4:0.33408358 5:0.614526 6:0.38757111 7:1.1948726 
1 1:0.0065973504 2:-0.054717237 3:-0.059180624 4:1.5695893 5:1.0423218 6:0.6944568 7:4.0388552 
1 1:0.26713544 2:1.1609697 3:-0.5631363 4:1.1716695 5:1.9976731 6:1.333723 7:8.8786588 
1 1:0.020505259 2:-0.85101784 3:0.75791866 4:0.53438937 5:1.5757867 6:1.542074 7:6.4457603 
1 1:0.1452422 2:0.17977404 3:0.90832066 4:0.52241194 5:0.50675859 6:0.63547508 7:1.8120075 
1 1:-0.063596026 2:0.1799741 3:0.92057391 4:0.71440802 5:0.75344336 6:1.7532705 7:5.0359045 
1 1:0.089516518 2:0.23004855 3:2.1217991 4:0.77870515 5:0.82485129 6:0.97497442 7:6.8003036 
1 1:-0.29171291 2:-0.4380564 3:1.6074671 4:2.1072312 5:2.0371794 6:2.4466677 7:17.437647 
1 1:0.12282463 2:-0.4831211 3:-0.68467405 4:2.3833514 5:1.6124242 6:2.6110237 7:15.814991 
1 1:-0.34632756 2:1.2542549 3:-0.49295173 4:0.83136657 5:2.1474959 6:2.4866837 7:13.422604 
1 1:0.40652256 2:-0.44348815 3:1.4510361 4:2.3142781 5:2.2861511 6:3.1024313 7:22.674898 
1 1:0.48775113 2:-0.60921425 3:-0.20544884 4:1.4256911 5:1.6011868 6:1.4145087 7:7.2484815 
0.54824193184641801 1:0.19481648 2:-0.30554819 3:-0.52362708 4:1.9306806 5:1.74194 6:2.2349083 7:12.162196 
1 1:0.92960481 2:1.4489723 3:-0.60431082 4:1.3115942 5:2.8760434 6:1.4809587 7:15.514021 
1 1:-0.075486652 2:-0.61244533 3:1.5701517 4:0.83485634 5:2.0966874 6:2.827455 7:15.933749 
1 1:-0.73082598 2:0.15165967 3:0.4514294 4:3.5112151 5:2.8577409 6:3.7550362 7:35.356508 
1 1:0.5992423 2:-0.44489149 3:-0.92418956 4:2.3796115 5:2.0277205 6:3.2086117 7:21.480537 
1 1:-1.294572 2:-0.29648427 3:0.77335539 4:2.3557948 5:0.96210475 6:1.9116229 7:12.491615 
1 1:1.4172569 2:-0.31738576 3:-0.3097582 4:2.0005107 5:1.3698735 6:0.90373369 7:8.900632 
1 1:0.54513945 2:-0.35834675 3:-0.1358267 4:1.5485569 5:1.2682242 6:0.97905096 7:5.4090001 
1 1:-1.3148461 2:1.2038668 3:0.5271602 4:1.1367433 5:1.2334284 6:1.4085157 7:8.2534612 
1 1:-0.40903536 2:-0.044356953 3:0.14602122 4:2.7540959 5:1.7090924 6:1.8252083 7:14.028026 
1 1:-0.58858088 2:-0.037857349 3:0.96270735 4:2.5182234 5:2.0038138 6:3.300666 7:22.525781 
1 1:0.32070425 2:-0.55849592 3:-1.0440843 4:1.8109969 5:2.4131987 6:3.8249017 7:25.237991 
1 1:0.066559889 2:0.11725355 3:0.29334562 4:2.7117102 5:1.9283451 6:3.1645359 7:21.190405 
1 1:-0.040432676 2:-0.050024909 3:0.31457909 4:2.1873101 5:2.1342439 6:2.409157 7:15.246457 
1 1:0.036130649 2:-0.41040368 3:-0.95984034 4:2.374195 5:2.3088628 6:3.0904778 7:21.609732 
1 1:0.4848804 2:-0.1947927 3:-0.93029074 4:1.6850715 5:2.1769065 6:3.2666197 7:19.387686 
1 1:0.52207514 2:-0.71831148 3:-0.25677803 4:1.2681171 5:1.7533949 6:1.9639779 7:9.3941925 
1 1:-0.020210321 2:0.024724516 3:-1.0159414 4:1.3673507 5:1.2659011 6:1.3043445 7:6.2066248 
0.4837095988922907 1:-0.28525755 2:0.28459716 3:-0.36906166 4:1.5211002 5:0.69902003 6:1.3790445 7:5.0027125 
1 1:-0.52917218 2:0.18192381 3:0.66682049 4:2.0198563 5:1.1181865 6:1.8634159 7:9.5602481 
1 1:-0.20346765 2:1.3660103 3:-0.80944596 4:1.9552333 5:2.1808617 6:3.0371364 7:20.365878 
1 1:-0.42673063 2:-0.23680108 3:2.3897048 4:1.8312471 5:2.4517177 6:3.2574657 7:25.924331 
1 1:0.94854164 2:-0.40084318 3:-0.74178849 4:2.6294304 5:2.6216074 6:3.8560427 7:30.266451 
1 1:0.27439406 2:-0.8407652 3:-0.68811494 4:1.2343882 5:1.536807 6:2.2382232 7:10.150813 
1 1:0.1614639 2:-0.58939536 3:-0.80805254 4:1.7910772 5:2.3686122 6:3.0902446 7:19.3943 
1 1:-0.62225704 2:0.56793958 3:0.72597204 4:2.1155602 5:1.7079058 6:3.440764 7:20.468189 
1 1:0.16985356 2:-0.31855797 3:-0.061845984 4:2.2376108 5:2.2276395 6:2.5617467 7:16.66598 
1 1:-0.47571543 2:0.50974228 3:0.85369243 4:1.4680018 5:1.8001106 6:2.809192 7:14.50192 
1 1:0.23763472 2:-0.18451389 3:-0.051817654 4:1.6567672 5:2.1859253 6:2.4099347 7:13.424133 
1 1:0.17104226 2:-0.57802511 3:-0.16980423 4:1.3827623 5:1.969272 6:2.362116 7:11.761857 
1 1:-0.52915788 2:0.21976289 3:0.54754988 4:2.1928714 5:2.1636218 6:2.5469364 7:16.604944 
0.22255817327424654 1:0.36922677 2:-0.16668366 3:-0.77588138 4:2.0054833 5:1.9137888 6:2.7731649 7:16.141098 
1 1:0.18948379 2:-0.39775583 3:-0.34114347 4:3.1070948 5:3.1263648 6:1.3035189 7:21.43785 
1 1:-0.47003603 2:-0.82965405 3:0.34479215 4:0.80055248 5:0.75072015 6:0.63205985 7:2.632106 
1 1:0.061835852 2:-0.0034534256 3:-0.027203865 4:0.41592882 5:0.31065211 6:0.3368751 7:0.387562 
1 1:0.10964206 2:1.0968993 3:-0.42323055 4:0.53432968 5:1.3575875 6:1.0437331 7:4.6122644 
1 1:-0.060343578 2:0.11801256 3:-0.0062902605 4:0.42012162 5:0.281386 6:0.27851832 7:0.35086059 
1 1:-0.1021961 2:-0.045831402 3:0.045864423 4:0.32553022 5:0.28745837 6:0.21838676 7:0.25094312 
1 1:-0.11954798 2:-0.16192882 3:-0.092851516 4:0.33879122 5:0.32358497 6:0.2444769 7:0.32838974 
1 1:0.20232847 2:0.14966198 3:0.082565865 4:0.43428978 5:0.37305152 6:0.35328787 7:0.52274001 
1 1:0.032227268 2:-0.087634398 3:-0.055654777 4:0.34412852 5:0.35126181 6:0.28679612 7:0.33587715 
1 1:0.026861563 2:-1.0306782 3:0.1473506 4:1.2435555 5:1.0109226 6:0.36419743 7:3.7857659 
1 1:0.93503656 2:-0.36798852 3:-0.43723092 4:0.91479794 5:0.65754334 6:0.74879569 7:3.0307933 
1 1:0.040383146 2:0.44466035 3:0.017417914 4:0.40657512 5:1.4515142 6:0.35013334 7:2.5944472 
1 1:0.019399103 2:-0.75978428 3:0.6241722 4:0.74216348 5:1.3849682 6:1.2942975 7:5.111389 
0.52252460472499751 1:0.0082714483 2:0.017137244 3:0.027918193 4:0.39053343 5:0.44121567 6:0.41335489 7:0.51919141 
1 1:-0.15183666 2:0.09438275 3:0.028930579 4:0.44279386 5:0.40003488 6:0.27750095 7:0.46590054 
1 1:-0.040545165 2:-0.036603046 3:-0.026926939 4:0.45312382 5:0.44218652 6:0.27036587 7:0.47765657 
1 1:0.62717699 2:-0.40341871 3:-0.41010519 4:0.68532679 5:0.52511206 6:0.71630566 7:1.9827932 
1 1:0.21639488 2:-0.085933881 3:0.045501205 4:0.35621801 5:0.30375167 6:0.30657303 7:0.3694251 
1 1:-0.092636886 2:0.092851517 3:0.066055996 4:0.29309926 5:0.17253532 6:0.2489591 7:0.19922264 
1 1:-0.099174795 2:0.064206889 3:0.05152731 4:0.38440864 5:0.39280344 6:0.4585568 7:0.52895211 
1 1:-0.085521131 2:0.056818611 3:0.050481903 4:0.41136825 5:0.33637299 6:0.36679027 7:0.42999637 
1 1:-0.31188797 2:1.4213183 3:-0.42204184 4:0.97183742 5:2.0253044 6:1.1430197 7:8.6483591 
1 1:0.026666302 2:-0.089675016 3:0.18567045 4:0.2955131 5:0.45017942 6:0.40753764 7:0.49930265 
1 1:-0.32255314 2:-0.97233455 3:0.76040505 4:0.65529253 5:1.4966081 6:0.80296843 7:4.9416931 
1 1:0.309395 2:0.96331796 3:-0.4562668 4:1.3030015 5:1.4130442 6:1.1264911 7:6.1953752 
1 1:0.084560038 2:0.24678955 3:-0.018228218 4:0.34679224 5:0.5278083 6:0.20709037 7:0.51012063 
1 1:0.069589107 2:-0.049579142 3:0.0085521133 4:0.2601052 5:0.29794244 6:0.28445906 7:0.24471524 
1 1:-0.017283413 2:0.071642275 3:0.026926939 4:0.35298384 5:0.27595648 6:0.38298237 7:0.35358145 
1 1:-0.32611949 2:-1.1228529 3:0.32668083 4:1.0177285 5:1.7743602 6:1.4290005 7:7.7000407 
1 1:0.24587733 2:-0.10663264 3:-0.64564383 4:0.65439756 5:0.49141924 6:2.5661516 7:7.7435454 
1 1:-0.11173881 2:-0.24811034 3:0.63630696 4:0.64417303 5:0.61864249 6:2.3112733 7:6.6185925 
1 1:-0.083358343 2:-0.17275929 3:0.50475631 4:0.55653351 5:0.53423552 6:2.2613219 7:6.0002873 
1 1:0.13161669 2:-0.050470676 3:-0.82496526 4:0.59219044 5:0.5419518 6:2.8096415 7:9.2389245 
1 1:0.049034317 2:0.028314428 3:-0.68895692 4:0.67341669 5:0.48137456 6:1.9802141 7:5.084327 
1 1:0.072990139 2:0.057949651 3:-0.54835885 4:0.5317445 5:0.56136128 6:2.3101798 7:6.2441926 
1 1:0.17584664 2:0.046277169 3:-0.76964068 4:0.63628004 5:0.41632468 6:2.3987086 7:6.9573919 
0.083075462625921456 1:-0.14279586 2:-0.15467108 3:0.71168243 4:0.70001254 5:0.64936015 6:2.4582297 7:7.5053852 
1 1:0.18200482 2:-0.058378905 3:-0.55828129 4:0.37518084 5:0.31941186 6:2.5336589 7:7.0104237 
1 1:-0.061928527 2:-0.18553793 3:0.44426413 4:0.62905868 5:0.43224978 6:2.5125224 7:7.1309538 
1 1:-0.15861034 2:-0.22359319 3:-0.83244424 4:0.6919169 5:0.43893451 6:2.8196053 7:9.3897012 
1 1:-0.033234372 2:-0.17769575 3:-0.80419583 4:0.47833302 5:0.45197598 6:2.85252 7:9.2493664 
1 1:0.29884518 2:-0.20468938 3:-0.79955655 4:0.6334346 5:0.47390674 6:2.7712227 7:9.0759988 
1 1:-0.3931991 2:-0.34391713 3:1.3301508 4:1.4350605 5:1.1923995 6:3.7849851 7:19.849513 
1 1:-0.24040024 2:-0.32385764 3:-0.30145375 4:2.1398699 5:1.2018621 6:4.2952434 7:24.726182 
1 1:-0.14842374 2:0.057091136 3:0.97916745 4:0.54384211 5:0.58488069 6:3.7376048 7:15.591597 
1 1:-0.062787043 2:-0.21150797 3:1.2909233 4:0.94979754 5:0.97936782 6:4.3900062 7:22.848592 
1 1:-0.10277395 2:-0.055374109 3:-0.92920856 4:0.98317203 5:0.97176455 6:4.0779483 7:19.417674 
0.096231295823099278 1:-0.23245899 2:-0.054020301 3:0.80383262 4:1.0346344 5:1.1151339 6:4.0711397 7:19.591273 
1 1:-0.13807183 2:0.15102218 3:-0.71235033 4:1.01444 5:0.99869766 6:4.2399619 7:20.553077 
1 1:0.1072151 2:-0.11134257 3:1.0343765 4:0.78791033 5:0.82014129 6:4.1911406 7:19.952921 
1 1:-0.1490837 2:-0.29875383 3:-0.97487574 4:1.6960631 5:1.0360212 6:4.8031861 7:28.082429 
1 1:-0.38691389 2:0.41797843 3:0.85638416 4:2.0282885 5:1.4157356 6:4.0138242 7:23.286848 
1 1:0.088143781 2:-0.57245402 3:-0.6969565 4:1.5279336 5:1.0986974 6:4.0107513 7:20.449064 
1 1:-0.5995725 2:-0.10635659 3:1.1279379 4:1.4506376 5:0.7702667 6:4.3577967 7:23.331095 
1 1:-0.130461 2:-0.046062539 3:0.3010575 4:0.38690595 5:0.49104832 6:2.9384283 7:9.1349631 
1 1:0.16050897 2:-0.1558697 3:-0.81509235 4:0.57360905 5:0.62373493 6:2.9709688 7:10.259162 
1 1:-0.074769905 2:-0.010604618 3:0.65453805 4:0.49030871 5:0.40414057 6:2.8145995 7:8.7598254 
1 1:-0.0057176984 2:-0.033165911 3:-0.41744089 4:0.51279924 5:0.4659508 6:2.592695 7:7.3775302 
1 1:-0.28169142 2:0.03065883 3:0.81700748 4:0.54938899 5:0.4111569 6:3.1293474 7:11.011485 
1 1:-0.11596533 2:-0.069473539 3:-1.1244543 4:0.97060141 5:0.62814345 6:3.6977154 7:16.292402 
0.38045591488678038 1:0.11528249 2:-0.10340727 3:-0.71554309 4:0.56331344 5:0.56819579 6:3.1218152 7:10.921884 
1 1:0.25732902 2:0.89267772 3:-0.3267559 4:2.5147897 5:2.6104996 6:1.1966772 7:15.540773 
1 1:0.10280698 2:0.12644911 3:0.092471784 4:2.0887103 5:1.8830533 6:0.62705243 7:8.3369046 
1 1:-0.2538593 2:-0.39408138 3:0.078369939 4:1.7974352 5:2.1684781 6:0.61635428 7:8.5388496 
1 1:0.38854287 2:0.47914641 3:-0.13502565 4:1.2505114 5:1.6693904 6:0.74715475 7:5.3076622 
1 1:0.051114562 2:-0.7114929 3:-0.11225061 4:1.5920836 5:1.619696 6:1.4946114 7:7.9134436 
1 1:-0.59864794 2:0.084563573 3:0.39034289 4:1.5813621 5:2.5730189 6:1.4217231 7:11.660327 
1 1:0.32501332 2:-0.39141603 3:0.097540323 4:1.4347172 5:2.0276935 6:1.4753114 7:8.6148525 
1 1:-0.1374777 2:-0.02877671 3:-0.89873137 4:0.6238472 5:0.73025688 6:4.169527 7:19.134862 
1 1:0.041769975 2:-0.33813867 3:0.78988179 4:0.94687586 5:0.96325364 6:4.278324 7:20.868484 
1 1:-0.2204398 2:-0.1739315 3:-1.0022978 4:1.1079591 5:0.77173227 6:4.1236184 7:19.910819 
1 1:-0.017814151 2:-0.1930169 3:0.89575957 4:0.63487998 5:0.60605302 6:3.374822 7:12.999754 
0.2379172224736861 1:-0.61609423 2:0.76242497 3:0.1398474 4:1.5098066 5:1.6620538 6:2.5884213 7:12.722285 
1 1:-0.088030638 2:-0.090540136 3:-0.4306765 4:0.58011853 5:0.4254631 6:2.2409143 7:5.7406825 
1 1:-0.28434951 2:-0.088261775 3:0.29324833 4:0.54513583 5:0.50796818 6:2.3672991 7:6.3339489 
1 1:0.10744624 2:-0.1102199 3:-0.64979553 4:0.56046396 5:0.46013336 6:2.8409766 7:9.0429182 
1 1:0.049298479 2:-0.1647355 3:0.63135398 4:0.59978585 5:0.46854126 6:2.7789028 7:8.7297509 
1 1:0.23343307 2:-0.29861404 3:-0.55666332 4:0.5539123 5:0.61049203 6:2.266281 7:6.2690845 
1 1:-0.15783129 2:-0.038932479 3:-0.41714764 4:0.44730526 5:0.4307586 6:2.068781 7:4.8659282 
