svm_type one_class
kernel_type rbf
gamma 0.14285714285714285
nr_class 2
total_sv 938
rho 1.4043232070353453
SV
0.55526345121696441 1:8.7072327 2:-0.024261238 3:3.5970486 4:3.0973444 5:1.9923474 6:2.4386219 7:108.26512 
0.21260540027799169 1:10.316162 2:-1.6818943 3:1.3844957 4:2.3527749 5:2.0778442 6:0.83917047 7:121.72599 
0.31913253898510324 1:9.9706051 2:-2.7886385 3:1.3962984 4:1.9258423 5:1.8070395 6:0.6958291 7:116.59756 
0.63466676770734687 1:10.539405 2:-2.7212367 3:1.7387081 4:2.1744871 5:1.7024247 6:0.6434768 7:129.54801 
0.44149740445810948 1:10.722529 2:-2.8294288 3:1.8971137 4:1.9160999 5:1.7462916 6:0.65316533 7:133.72494 
0.17852077247237433 1:10.697034 2:-3.4493329 3:2.0019409 4:2.2479724 5:1.8454088 6:0.82923595 7:139.47875 
0.52924059371508159 1:10.880417 2:-3.3248344 3:2.0977089 4:2.1923636 5:2.0028237 6:0.71717853 7:143.17049 
0.27357347736378668 1:9.8666648 2:-4.1795739 3:2.0313046 4:2.0029419 5:1.8888578 6:0.68351225 7:126.99286 
0.6095604957837244 1:10.467579 2:-3.7309427 3:2.250679 4:2.1679564 5:1.808665 6:0.8601428 7:137.26686 
0.43341428009217253 1:9.499157 2:-4.5287943 3:1.6490226 4:2.0901928 5:1.7641559 6:0.68689481 7:121.41621 
0.03140410460790722 1:10.780249 2:-3.1758762 3:1.6218452 4:2.102441 5:1.5629371 6:0.65046388 7:136.21647 
0.10721569504866521 1:10.640868 2:-3.8467703 3:1.8251582 4:2.0134499 5:1.6589063 6:0.69021638 7:138.63926 
0.38265482433631293 1:9.5969819 2:-4.7350287 3:1.6152881 4:2.0921811 5:1.5790674 6:0.52951188 7:124.28277 
0.30685703846628837 1:10.090978 2:-4.6122678 3:1.8921958 4:2.2069428 5:1.6143996 6:0.66079032 7:134.59478 
0.10332720938410753 1:9.9397039 2:-4.734901 3:1.3822525 4:2.065741 5:1.8557246 6:0.76855783 7:131.4293 
0.3526177677137512 1:9.4438807 2:-4.1213469 3:1.7349343 4:1.9308837 5:2.0483071 6:0.71458817 7:117.61689 
0.42314947842898887 1:9.9441731 2:-2.2453143 3:2.7890215 4:2.0244525 5:1.8947596 6:1.8783876 7:122.92352 
0.33648914200276159 1:8.9906803 2:-3.6717995 3:2.3204344 4:2.2665097 5:1.7029628 6:1.5701226 7:110.20129 
0.37487471544675594 1:10.071954 2:-2.3111164 3:1.891937 4:2.2779125 5:1.6717251 6:1.4525936 7:120.45851 
0.3259968130607821 1:9.2130175 2:-4.5300884 3:0.44092137 4:2.4120128 5:1.5815498 6:0.73834541 7:114.46006 
0.19049843948821396 1:9.6715395 2:-5.324834 3:-0.25702079 4:2.5273595 5:1.580735 6:0.57708576 7:131.17789 
0.1095671343010764 1:10.122944 2:-5.0375298 3:-0.28691596 4:2.6696701 5:1.4882479 6:0.55997145 7:137.5886 
0.23743379655991251 1:10.401318 2:-4.8421111 3:-0.20279536 4:2.4856985 5:1.5742086 6:0.72528771 7:140.85746 
0.41584150526207819 1:9.321339 2:-4.1383453 3:0.022906686 4:2.3013889 5:1.5727995 6:0.54339714 7:112.07916 
0.3639881887411664 1:10.666137 2:-1.4887465 3:0.19817605 4:2.2934574 5:1.7193689 6:0.71557479 7:124.75033 
0.32514779891591616 1:10.120386 2:-2.2220745 3:0.0090660425 4:2.3848312 5:1.4443687 6:0.6555218 7:115.56325 
0.071483782940920407 1:10.657951 2:-1.8978901 3:-0.1722531 4:2.1983572 5:1.7267815 6:0.6179633 7:125.42 
0.33805881356064177 1:10.722918 2:-2.5940205 3:-0.53241869 4:2.5330419 5:1.567897 6:0.61239353 7:131.243 
0.34087081083581244 1:10.867377 2:-2.1841504 3:0.056567001 4:2.6457599 5:1.7396756 6:0.78439784 7:133.5154 
0.045860061422903609 1:9.8866295 2:-2.8436645 3:-0.0045295718 4:2.2147108 5:1.6450637 6:0.60044203 7:113.8036 
0.040654195321860501 1:10.014881 2:-3.1706995 3:-0.19554804 4:2.2087482 5:1.7857591 6:0.5469826 7:118.75611 
0.14519021773869445 1:10.776206 2:-3.1539617 3:-0.09168196 4:2.4872268 5:1.748701 6:0.70261514 7:135.82042 
0.73319006298447531 1:9.3606816 2:-1.845606 3:2.9470682 4:2.1424252 5:2.0930678 6:1.3360731 7:110.46984 
0.022548431175139921 1:10.324057 2:-1.8229581 3:2.4103787 4:1.9079632 5:1.9768015 6:1.0627899 7:124.39684 
0.41643115020411198 1:10.040505 2:-2.4797459 3:2.9026784 4:2.2594299 5:1.2906346 6:1.6183105 7:124.77612 
0.3962993086268039 1:10.830204 2:-2.9747632 3:2.3975665 4:2.4922276 5:1.7166988 6:0.80561018 7:141.69812 
0.0082366511362428653 1:11.203699 2:-3.6052795 3:0.7261549 4:2.4563757 5:2.093353 6:0.77536394 7:150.06532 
0.021169361538480942 1:10.923513 2:-3.7903448 3:0.64475205 4:2.4495266 5:2.0426469 6:0.65918489 7:144.71267 
0.44575334041001691 1:10.900347 2:-4.1356275 3:0.24174966 4:2.63484 5:1.9356954 6:0.38935825 7:146.82033 
0.1901253862239429 1:10.945269 2:-3.9485813 3:-0.052991664 4:2.3571386 5:1.6189597 6:0.63351733 7:143.97148 
0.36019896145607039 1:11.204346 2:-3.5885848 3:0.21004267 4:2.8168961 5:1.7070768 6:0.44449996 7:149.50603 
0.2008103704931169 1:10.943055 2:-3.0027172 3:-0.2372201 4:2.4751464 5:1.5749889 6:0.58560822 7:137.77291 
1 1:3.7041099 2:0.35334685 3:8.0869293 4:3.8395666 5:3.117656 6:3.3599163 7:114.9948 
0.55510060049256305 1:9.5564884 2:-3.9258437 3:1.882619 4:3.9600834 5:1.8380021 6:2.0405141 7:133.50718 
0.97435404080147481 1:10.295195 2:-4.8528872 3:2.2868138 4:3.4243027 5:1.9400605 6:2.3542247 7:155.80313 
0.73551882558033621 1:9.7609663 2:-4.9197609 3:1.7572146 4:4.1349309 5:2.8799271 6:1.3972102 7:149.91214 
1 1:3.8635945 2:1.4625337 3:6.6306445 4:4.4301634 5:5.3726884 6:3.2823885 7:120.29802 
0.55404870770912618 1:10.609678 2:-6.016823 3:1.4163321 4:3.7772098 5:3.120674 6:2.3719592 7:180.40554 
1 1:8.4497202 2:-3.4828517 3:3.5101585 4:2.6187166 5:2.0208154 6:3.3070171 7:117.72697 
0.32358889735587004 1:10.201888 2:-5.4323789 3:1.246279 4:3.9166365 5:2.8932902 6:1.8211873 7:162.17036 
0.82702986066790174 1:11.609549 2:-6.3346694 3:0.80108695 4:4.5859648 5:3.1781294 6:1.4403152 7:208.75749 
0.048193128642985174 1:10.480521 2:-6.6008788 3:1.0273066 4:4.3328242 5:3.0100538 6:1.7625286 7:185.40857 
0.42851822579891719 1:11.144038 2:-5.704412 3:0.89452552 4:4.4727491 5:2.9993999 6:2.0085165 7:190.56611 
0.63169174741156597 1:11.718906 2:-5.847417 3:0.049178193 4:4.5237112 5:3.0931792 6:1.8587097 7:205.01397 
0.099050713982892488 1:11.151415 2:-6.3403638 3:0.92998559 4:4.0265957 5:3.0761604 6:1.7531408 7:194.16888 
0.31890813849744221 1:10.721106 2:-8.0451648 3:1.103274 4:4.7883757 5:3.5971651 6:1.9778674 7:220.6641 
0.054288116242329862 1:10.849487 2:-6.5590773 3:0.73767296 4:4.539687 5:3.3924667 6:1.7247941 7:196.36952 
0.39117813648181904 1:8.6364679 2:-6.8280044 3:0.73016681 4:4.9880848 5:2.8037469 6:1.6588822 7:157.23724 
1 1:8.9545732 2:-4.4299202 3:3.2448551 4:2.5738449 5:2.3631732 6:2.7671496 7:130.20404 
0.59949160517489752 1:10.134432 2:-7.3703105 3:1.6233326 4:3.9002936 5:2.496088 6:1.561075 7:183.5431 
0.44781764865054857 1:8.6452682 2:-6.2853618 3:1.2242783 4:4.466882 5:2.5309164 6:1.696048 7:144.98044 
0.04720798401500214 1:9.8426279 2:-6.7578608 3:0.72680197 4:4.1632036 5:2.6848568 6:1.7018713 7:170.51133 
0.36821582137730036 1:10.378929 2:-6.2585727 3:1.3213405 4:3.8216067 5:2.5448962 6:1.6396134 7:172.40735 
0.3404220834433383 1:8.3362221 2:-6.3940715 3:0.82347596 4:4.1664566 5:2.3018839 6:2.1120493 7:138.17364 
0.50916213954088674 1:9.0144567 2:-7.344134 3:1.694584 4:4.5212884 5:3.9293832 6:2.2489365 7:179.00816 
0.73902419803018549 1:9.0414116 2:-7.410119 3:1.9433153 4:4.6629488 5:4.6738611 6:2.5387067 7:190.46656 
0.14564551173081325 1:10.374788 2:-7.5827603 3:1.2312667 4:4.6585041 5:3.203763 6:1.5262326 7:200.94564 
0.050049663950846202 1:10.021999 2:-7.8573817 3:0.8150639 4:3.9327966 5:2.9840364 6:1.3578759 7:189.05843 
0.35142678479185452 1:8.8343455 2:-7.22143 3:0.72641375 4:4.7581013 5:2.9659457 6:1.449874 7:164.26088 
0.54291348479295465 1:10.782208 2:-7.3858887 3:0.9973925 4:4.3382694 5:3.131105 6:1.5230023 7:202.74608 
0.12207232302505706 1:9.4426021 2:-8.5259464 3:0.96479857 4:5.323002 5:3.8267807 6:2.479156 7:211.91015 
0.42806943489748928 1:10.779909 2:-7.4997889 3:0.7294973 4:5.4534312 5:3.8664313 6:3.2272379 7:228.08971 
0.5621929880800558 1:11.37414 2:-7.9607853 3:0.64294022 4:5.8514872 5:4.8836428 6:3.1125109 7:260.93614 
0.65926110911264835 1:11.03274 2:-9.6222319 3:0.75346174 4:5.0253339 5:4.3681448 6:2.5430608 7:265.67824 
0.4954306092976925 1:9.0290135 2:-8.4482759 3:0.22716184 4:6.3952039 5:4.151394 6:2.7196299 7:218.47714 
1 1:11.613219 2:-9.3705862 3:0.42418869 4:6.0519937 5:4.864304 6:3.2286872 7:293.56718 
0.58973902140471335 1:10.703805 2:-7.6015585 3:1.0185892 4:4.9602297 5:4.486597 6:2.4639765 7:224.19728 
0.39573351391684747 1:11.480521 2:-8.3593876 3:0.78594526 4:5.5626302 5:4.5105789 6:2.3855677 7:259.27854 
0.37308618429601392 1:10.900606 2:-9.6221025 3:0.45308649 4:5.3968848 5:4.5861938 6:2.824441 7:269.75037 
0.41385589295438063 1:9.097328 2:-8.3844304 3:-0.2418463 4:5.6860266 5:3.920981 6:3.3229961 7:211.86583 
0.087200830370142035 1:11.365728 2:-9.9434432 3:0.90591418 4:5.7996 5:4.7218112 6:3.3807726 7:296.23301 
1 1:11.918528 2:-9.8568326 3:0.84390822 4:5.8300485 5:4.7584301 6:2.9953574 7:305.52492 
0.03165995898224145 1:9.6114903 2:-7.8192039 3:-0.29092786 4:5.813751 5:3.8234576 6:2.5804319 7:208.68249 
0.26393752070944348 1:11.147144 2:-8.6152436 3:0.35253001 4:5.5099427 5:4.5034082 6:2.662833 7:256.33636 
0.15336967599311346 1:10.764714 2:-7.0500621 3:0.24606008 4:3.7702017 5:3.605847 6:2.6174378 7:199.71052 
0.2227244722030729 1:9.7253767 2:-6.75579 3:-0.75216758 4:5.5473527 5:3.9890447 6:2.8107173 7:195.37514 
0.49142067440380732 1:10.690434 2:-9.7697665 3:1.1338162 4:4.8255849 5:5.1084604 6:4.2879536 7:278.78844 
0.23122972731530658 1:9.5731831 2:-8.3243158 3:-0.28135104 4:5.9293817 5:4.6190567 6:3.3121429 7:228.48277 
0.45870007676061991 1:10.064447 2:-7.3540816 3:-1.3898018 4:4.5437446 5:3.5039517 6:3.9600142 7:205.91217 
0.21469993874569385 1:10.510157 2:-7.2883383 3:-0.33363526 4:4.4415212 5:4.3437548 6:2.9196253 7:210.81412 
0.25579123812698146 1:9.3137034 2:-7.6642926 3:-0.79668678 4:5.5192623 5:4.1746045 6:2.7338471 7:201.48466 
0.26517667323299637 1:9.0933074 2:-6.8563465 3:-0.83344102 4:4.5818226 5:3.4535358 6:2.6941128 7:170.5706 
0.19131616122203784 1:10.857122 2:-7.0913666 3:0.031577606 4:4.7262156 5:4.6422539 6:2.8448932 7:220.14663 
0.62320003615403874 1:8.9065598 2:-5.9431851 3:-0.62352777 4:4.9266323 5:3.1174783 6:2.5028678 7:155.29177 
0.50591045693789338 1:9.7906888 2:-7.5598035 3:-0.56605309 4:5.3991615 5:3.9453558 6:3.3381708 7:209.18879 
0.5669757381312186 1:10.921054 2:-8.3701291 3:0.67490607 4:6.7022559 5:3.5542366 6:3.0828359 7:256.84069 
1 1:8.8150624 2:-5.8273575 3:-0.95444524 4:5.8175107 5:2.7759113 6:5.0937664 7:180.06996 
0.52277753766342072 1:9.2758397 2:-7.6050061 3:-0.14365209 4:5.6856133 5:3.476631 6:3.2853218 7:199.10446 
0.63311363723982417 1:9.3689642 2:-7.7469896 3:-0.2134075 4:6.1686298 5:4.1516706 6:3.3561839 7:214.39121 
0.66475957804152608 1:11.339069 2:-7.7005291 3:0.39860223 4:5.8497339 5:4.1347867 6:2.8031764 7:247.20516 
0.37363023061756184 1:9.722012 2:-6.7929326 3:-0.67387072 4:5.592647 5:3.7055456 6:2.9590999 7:194.88059 
0.66358564089668448 1:10.334669 2:-8.2159943 3:-0.56761992 4:5.4507559 5:4.7272674 6:3.7943122 7:241.08473 
0.17445673828231029 1:11.381905 2:-7.934255 3:0.15620548 4:5.2431039 5:4.6768062 6:3.3446038 7:253.07361 
0.29874308736447369 1:9.2813494 2:-6.2029236 3:-0.77248592 4:4.5946148 5:3.391908 6:2.4082823 7:163.63179 
0.028129071888900615 1:10.465638 2:-7.0020693 3:0.25352656 4:4.4566235 5:3.8021196 6:3.1096485 7:202.61035 
0.22212971747138199 1:11.284196 2:-8.4371668 3:0.1364048 4:6.093247 5:4.5424609 6:2.8992077 7:264.70449 
1 1:10.537982 2:-9.5001923 3:0.70700129 4:5.9961742 5:5.1881593 6:3.1302989 7:274.47244 
0.38921480790577112 1:9.7761079 2:-8.5172754 3:-0.45800428 4:6.4445853 5:4.7850776 6:3.7797011 7:247.04182 
1 1:11.657145 2:-8.8861274 3:0.38805221 4:5.7507768 5:5.0618107 6:3.4005303 7:285.25983 
0.37994519785535746 1:10.366376 2:-8.0513768 3:0.59337377 4:4.991856 5:4.4378397 6:3.600777 7:230.21715 
0.15652475761021103 1:11.154426 2:-7.4971074 3:0.80777174 4:5.2088878 5:4.5800149 6:3.3404233 7:240.54781 
0.2877151867811642 1:9.2123774 2:-7.211974 3:-0.26010608 4:5.1325795 5:3.8883701 6:3.0394586 7:187.64922 
0.37734260915474577 1:10.849756 2:-8.1898298 3:-0.51880756 4:4.6922381 5:4.2101764 6:3.5515832 7:237.4161 
0.063393795557862981 1:10.191534 2:-7.2655609 3:0.67477663 4:4.9139017 5:3.9627081 6:2.9569399 7:205.70405 
0.28555716752536764 1:11.235406 2:-7.3533052 3:-0.27940979 4:5.6063434 5:4.7027491 6:4.2970898 7:252.39544 
0.62135176609081999 1:11.730424 2:-7.0638009 3:-0.33881188 4:4.9930392 5:4.4185853 6:2.8289601 7:240.07227 
0.17521505788851327 1:10.767955 2:-7.9620795 3:0.63193983 4:5.3252348 5:4.7758604 6:2.8313301 7:238.9263 
0.23287168945507239 1:8.918466 2:-6.7211065 3:-0.36883649 4:4.8914134 5:3.3957932 6:2.7535868 7:167.88793 
0.31526837282090781 1:10.865146 2:-8.767049 3:0.44596859 4:5.1298115 5:4.8939578 6:4.4939481 7:265.57279 
0.75625987768614922 1:10.079072 2:-7.6595041 3:-0.16785295 4:7.4889032 5:4.5402881 6:4.3215781 7:255.65779 
1 1:12.139897 2:-12.451143 3:0.66015256 4:9.4829967 5:7.1685045 6:4.3854485 7:463.3907 
0.8062904990779024 1:11.459862 2:-8.68029 3:0.047373257 4:5.811854 5:5.0578024 6:3.6383907 7:279.27502 
0.71251859169656806 1:10.819721 2:-9.6743867 3:0.25559718 4:4.420629 5:4.496303 6:3.222675 7:260.86979 
0.86370031076672082 1:9.7846494 2:-7.8435342 3:-1.4353563 4:6.0639701 5:4.5962173 6:4.1987591 7:234.84716 
0.86459756682905708 1:10.73793 2:-9.9970215 3:0.83913536 4:5.1738546 5:5.4970127 6:4.8302772 7:296.26523 
0.8775684092853282 1:11.200076 2:-8.2968795 3:0.45903964 4:5.3951906 5:5.4169332 6:3.9598015 7:268.62189 
0.53340724477174728 1:10.751306 2:-9.6314584 3:0.32331301 4:4.6002955 5:5.6314364 6:4.2887833 7:279.72957 
1 1:9.0100928 2:-9.611361 3:0.29015135 4:6.3514096 5:5.4621985 6:4.5299899 7:264.34104 
0.80406013618568051 1:10.700788 2:-8.3428222 3:1.0692375 4:4.8891555 5:5.2367381 6:3.6190942 7:249.67792 
0.80983853565072306 1:10.916666 2:-10.552109 3:1.0612379 4:5.6233296 5:5.6749844 6:4.3988165 7:314.82369 
0.42784804283366779 1:9.8695464 2:-7.7072588 3:0.86268908 4:4.0024249 5:3.2637414 6:3.454419 7:196.15844 
0.022778490050512579 1:9.7322358 2:-8.0190227 3:0.38850774 4:4.7619981 5:4.0594587 6:4.1213582 7:215.3135 
0.15971134295003056 1:9.6825399 2:-7.6980703 3:-0.27255074 4:4.1045913 5:3.3025562 6:3.5138438 7:193.18779 
0.63021027320705647 1:10.678528 2:-7.4094719 3:0.58806769 4:3.9620275 5:4.5059329 6:3.4097169 7:216.90432 
0.24766971679002284 1:10.262584 2:-8.3588698 3:-0.61006848 4:4.6518658 5:3.8155689 6:3.2149859 7:222.09807 
0.083728771902039895 1:9.153486 2:-7.4477791 3:-1.0698846 4:4.6371532 5:3.4984049 6:2.6694052 7:181.26812 
0.20768757256198672 1:10.894959 2:-8.782698 3:-0.31986535 4:4.7670395 5:3.9044906 6:3.5994738 7:246.86414 
0.50507863344509862 1:9.7898261 2:-9.1426152 3:-0.10599195 4:5.0841851 5:4.5032001 6:2.9209326 7:234.09894 
0.4159638084030049 1:9.5428998 2:-8.6131729 3:-1.0526723 4:5.3773563 5:4.3814924 6:3.7399967 7:228.46281 
1 1:10.375435 2:-9.8632051 3:-1.2480909 4:5.9585086 5:5.4161373 6:4.1358961 7:288.4342 
1 1:11.787237 2:-9.2545602 3:-0.11815709 4:6.0056636 5:4.7225984 6:3.8960977 7:298.15032 
0.063049563927378816 1:9.2999853 2:-6.8657939 3:-1.142746 4:4.0184122 5:3.3281826 6:2.9095846 7:170.62484 
0.019794888292013813 1:10.893229 2:-8.3508461 3:-0.011518066 4:4.3617129 5:4.2823837 6:2.8001578 7:233.60344 
0.35407307270890009 1:9.0881342 2:-7.2763301 3:-1.079753 4:4.484335 5:3.3500385 6:2.7699671 7:175.70976 
0.46091077636617755 1:10.351881 2:-8.09499 3:-0.23100809 4:4.9556845 5:4.3952784 6:3.9586546 7:232.2919 
0.1916204666395156 1:10.907336 2:-9.0247168 3:-0.10094471 4:4.9076214 5:4.7023437 6:3.5827416 7:259.4585 
0.81389490292885514 1:11.336221 2:-9.8982769 3:0.46085145 4:5.8405887 5:6.0175054 6:4.0993644 7:313.82582 
0.015118778207326322 1:11.814803 2:-9.2852319 3:0.078555711 4:5.5986031 5:5.1786201 6:3.3816919 7:295.40958 
0.36736487404401591 1:10.936196 2:-8.7613546 3:-0.56412567 4:4.8377107 5:4.7536449 6:2.9376785 7:251.31049 
0.02978660307914615 1:9.4922979 2:-7.3153862 3:-0.98589342 4:4.8962322 5:3.8132633 6:2.8786768 7:191.39143 
0.65120428455984714 1:9.7568249 2:-6.4502382 3:-1.7123072 4:4.7556262 5:3.294844 6:3.2411258 7:183.71007 
0.54385020107370996 1:11.317359 2:-7.5824049 3:-1.7611109 4:4.983786 5:4.4882929 6:4.3421572 7:252.51423 
0.1619072864114626 1:10.96289 2:-5.6021766 3:-1.2249374 4:4.0527934 5:3.3747862 6:3.1332952 7:190.70167 
0.39949961683898372 1:10.675292 2:-6.1528395 3:-0.89543144 4:4.8274135 5:4.2525846 6:2.5695404 7:200.61203 
0.28425621550660768 1:9.3467045 2:-6.4233196 3:-1.5892323 4:4.3704248 5:2.3776046 6:3.2772184 7:166.63936 
0.049982497768501215 1:10.284341 2:-7.5346485 3:-0.71519591 4:4.1758966 5:3.1860242 6:3.9353584 7:206.12602 
0.64585443471585291 1:9.5247814 2:-7.00414 3:-1.3404941 4:4.847531 5:2.9960428 6:3.8859678 7:189.15194 
0.57953448192088897 1:10.80898 2:-9.4146482 3:-0.1216513 4:5.0095093 5:4.8766614 6:4.2670691 7:272.56933 
0.78407874522579413 1:9.7331417 2:-9.1204849 3:-1.0249772 4:4.070213 5:3.6775337 6:4.0086156 7:225.12776 
0.27695229688923612 1:11.070789 2:-9.5876778 3:-0.6508346 4:5.0290116 5:4.3839442 6:3.5779608 7:272.22124 
0.26128970362023707 1:9.0621182 2:-8.7252475 3:-0.58120865 4:5.3903116 5:4.2835367 6:3.6145073 7:219.05854 
0.07261512626180365 1:9.9989628 2:-7.2200064 3:0.2047366 4:3.825491 5:3.8488026 6:3.212824 7:191.91957 
0.086748188655605352 1:8.924678 2:-6.9860217 3:-1.3178463 4:4.6788158 5:3.3132581 6:2.4405215 7:169.01624 
0.042166289892782642 1:9.4168483 2:-5.0814019 3:-1.0095766 4:3.5292888 5:2.4592519 6:1.5365587 7:136.38173 
0.0057463536407374354 1:9.1190354 2:-6.2929836 3:-1.0128431 4:3.808325 5:2.3239248 6:2.5941332 7:150.41779 
0.1533789034909902 1:10.045035 2:-6.670893 3:-1.5563605 4:3.4525104 5:2.753209 6:3.1446854 7:177.21483 
0.37671984827541061 1:10.117508 2:-6.829428 3:1.1087095 4:3.1191688 5:2.9028853 6:3.1784287 7:178.49266 
0.31845889956799894 1:10.117577 2:-5.727952 3:-0.61074488 4:3.1564649 5:2.9261183 6:3.0282105 7:163.24331 
0.1938012356329562 1:10.188299 2:-5.8773122 3:-0.6435873 4:4.1967519 5:2.6700451 6:2.8209631 7:171.45814 
0.067364364755415199 1:8.3997655 2:-6.009058 3:-1.2272549 4:2.7922544 5:2.3955779 6:2.1535996 7:126.34446 
0.062205976657119577 1:8.2198371 2:-5.1896077 3:-1.3660357 4:3.2746021 5:1.7821931 6:1.2975143 7:111.94658 
0.23496022521452656 1:9.2080359 2:-6.3602766 3:-1.2045069 4:2.788936 5:1.8677116 6:2.7881779 7:145.73233 
0.6431029607212666 1:8.8940442 2:-8.2780641 3:-0.65020132 4:5.0431336 5:4.3226768 6:3.5045871 7:204.45399 
0.76396614019635101 1:9.7458694 2:-9.2716259 3:-0.50003698 4:5.2924233 5:5.1905164 6:4.3459858 7:255.03385 
0.44343768858804306 1:8.9341255 2:-4.7887917 3:-1.0736377 4:3.8848494 5:1.7344746 6:1.2621649 7:123.59734 
0.51319558641844398 1:10.031705 2:-5.6895291 3:0.12035716 4:3.8904358 5:2.8763308 6:3.2391027 7:166.92089 
0.20510559307342849 1:8.4435082 2:-6.3864359 3:-1.618998 4:2.3945368 5:1.6385405 6:2.4464621 7:129.10435 
0.2530531270609177 1:8.8606169 2:-7.3002445 3:-1.4792284 4:3.4776806 5:2.4039561 6:3.0435455 7:161.12866 
0.15812271166103414 1:8.6223183 2:-6.8838087 3:-0.86587102 4:3.9941872 5:2.7597228 6:2.3823816 7:151.72627 
0.19496221632675445 1:11.425519 2:-6.6175734 3:-0.71476626 4:4.7274738 5:3.7645506 6:3.0399094 7:220.60754 
0.3588450720853722 1:9.7250558 2:-8.9720633 3:-0.82194543 4:5.6146602 5:4.7006669 6:4.0778343 7:245.99964 
0.43810185432112514 1:10.676198 2:-7.400801 3:-0.41542636 4:4.3232176 5:3.4129254 6:3.8660426 7:214.2102 
0.0020205698899450285 1:8.6707632 2:-6.5162406 3:-0.68267102 4:3.9745007 5:2.5506873 6:2.0539984 7:144.63114 
0.93335418611269994 1:3.9655745 2:3.6420337 3:6.5016165 4:2.4877243 5:2.5329032 6:4.0057616 7:99.911704 
1 1:8.588608 2:2.0355184 3:-2.6775475 4:1.3874381 5:0.94628064 6:3.6927979 7:101.53397 
0.43226649299794062 1:8.6010078 2:-3.1810528 3:1.7922865 4:1.2320735 5:2.6781126 6:3.398609 7:107.54956 
1 1:6.4633093 2:-6.9383965 3:-1.2379964 4:1.1518965 5:1.296153 6:0.92733487 7:95.315176 
0.15123654364055084 1:6.1830418 2:-7.275564 3:-1.6003482 4:1.6116335 5:1.1815981 6:0.78980667 7:98.342282 
0.18294548404740357 1:6.0720786 2:-7.3852503 3:-1.650403 4:1.3953654 5:1.4719774 6:0.95288581 7:99.157644 
0.75135713761080247 1:4.9208187 2:-8.8788492 3:-0.30083942 4:1.9304133 5:1.7559724 6:1.9196642 7:113.63397 
0.45502690903861126 1:4.2522299 2:-8.6922929 3:0.17953321 4:1.8184931 5:1.157831 6:1.4372368 7:100.38279 
0.23725568135818367 1:4.5276589 2:-8.3036023 3:-1.0575349 4:1.5860507 5:1.2518513 6:1.1392683 7:95.948506 
0.18839716095162121 1:7.5029105 2:-6.4665446 3:-0.54497208 4:2.6288759 5:2.3881526 6:1.6798009 7:113.84285 
0.28311663309938917 1:3.9132109 2:-9.1849238 3:-0.12692462 4:1.2956348 5:1.4920503 6:1.1348071 7:104.88483 
0.88174767153962219 1:3.3094338 2:-9.1688866 3:0.51520633 4:1.8902787 5:1.3572007 6:1.3373654 7:102.48996 
0.92765070975866371 1:3.6644228 2:-8.7638136 3:-0.42422666 4:1.6220133 5:1.4357379 6:1.4095263 7:97.091426 
0.020839150953825956 1:3.9821639 2:-9.2167188 3:0.0070229857 4:1.6793498 5:1.4621732 6:1.2665703 7:107.36795 
0.12086651389115674 1:6.8510405 2:-6.8810651 3:-0.8285232 4:2.6861616 5:1.9629084 6:1.2853045 7:107.69274 
0.053416543240024525 1:5.8604881 2:-8.68254 3:-0.8928431 4:2.3182828 5:1.6791607 6:1.4041265 7:120.69458 
0.43459411690628857 1:5.6670107 2:-7.7944854 3:-0.91432622 4:1.9366428 5:1.6020039 6:2.2864666 7:105.24994 
0.42944894804460482 1:5.0809429 2:-8.7420923 3:-0.62044939 4:2.0472912 5:1.7994512 6:1.1715722 7:111.42712 
0.23893828597371508 1:6.2065369 2:-8.6514318 3:-0.64036914 4:2.55637 5:1.4854042 6:1.5584062 7:124.94853 
0.19442043389988706 1:6.5056284 2:-7.0467179 3:-0.93179742 4:1.6694986 5:2.0898631 6:0.97018189 7:100.94369 
1 1:3.4919591 2:-9.2648583 3:0.89472914 4:1.7220613 5:1.6907511 6:1.5118169 7:106.94164 
0.0621088662849986 1:5.2929976 2:-8.1650043 3:-1.5058882 4:1.7633396 5:1.6715011 6:0.98571201 7:103.82573 
0.095555940374990961 1:5.3168102 2:-8.3781529 3:-0.87174825 4:1.6892598 5:1.9637744 6:1.5548788 7:108.34952 
0.27934494859276382 1:5.8740768 2:-7.5157227 3:-1.0841204 4:1.6814966 5:1.5947552 6:2.0371141 7:101.68669 
1 1:2.2282037 2:0.72349583 3:6.8174095 4:4.2316135 5:2.2673323 6:4.1056765 7:91.869339 
0.65554462963478155 1:-2.1215215 2:2.9992229 3:8.3204333 4:2.731783 5:1.8812814 6:2.1160349 7:98.205264 
0.89708569641499147 1:0.37349547 2:2.7428492 3:8.6534215 4:3.3137498 5:2.5823804 6:1.9699819 7:104.07488 
1 1:-3.5925795 2:-0.62594008 3:8.8313481 4:1.2342344 5:0.88525153 6:0.970241 7:94.53951 
1 1:0.79591031 2:-1.3879899 3:8.0380469 4:4.4192231 5:1.6062686 6:2.3256186 7:94.688321 
0.3353140658574415 1:6.3445051 2:-7.5638655 3:0.17911218 4:1.6837532 5:1.8542664 6:2.4524206 7:109.78458 
1 1:5.5371901 2:-7.2795702 3:-0.30705638 4:2.2332275 5:0.59346136 6:1.0686161 7:90.228342 
0.65481684711345589 1:2.1259181 2:1.9776106 3:9.305863 4:0.98628388 5:1.6176049 6:1.040903 7:99.702438 
0.61875447569043085 1:3.4841458 2:0.79228665 3:7.9222193 4:2.1608284 5:3.0245443 6:3.0227991 7:98.482911 
0.63403589401667682 1:3.7317193 2:-0.60256234 3:7.5862546 4:3.9798335 5:1.979365 6:2.636167 7:98.546405 
0.86070775219918128 1:9.4379432 2:-0.99728207 3:1.7248605 4:0.73809326 5:1.0651632 6:1.4058097 7:96.700143 
0.8964903184512073 1:9.4495905 2:-0.9616926 3:2.6213273 4:3.1829273 5:3.6994881 6:3.4985578 7:133.14812 
0.84388979334908409 1:11.232171 2:-4.6553634 3:1.3873428 4:4.0409204 5:2.7344532 6:1.4705617 7:175.72761 
0.63276562251779311 1:10.276561 2:-5.9884808 3:1.4616278 4:3.3522323 5:1.985392 6:1.3689065 7:160.65911 
0.59625685795408989 1:8.6391856 2:-5.1413216 3:1.1199687 4:3.5338663 5:1.6778168 6:1.3340053 7:119.4059 
0.10384274013893026 1:9.9351605 2:-5.8602293 3:1.4345798 4:3.5078672 5:1.9549241 6:1.445514 7:153.32409 
0.14011169966455075 1:9.7011776 2:-5.3204908 3:1.6658536 4:3.2866557 5:2.2503033 6:1.5206899 7:143.37401 
0.52925343551296811 1:9.8754996 2:-6.0493065 3:1.8601006 4:2.768245 5:1.8627887 6:1.614863 7:151.32052 
0.54351846168044959 1:8.6376326 2:-5.6148559 3:1.012812 4:3.7928973 5:1.9477787 6:1.4569315 7:127.46365 
0.06891889338070302 1:9.2781139 2:-5.4749569 3:1.4374269 4:2.7676339 5:1.7428635 6:1.0646975 7:129.9557 
0.4862213246651253 1:7.9153602 2:-5.2527491 3:-2.0533191 4:3.3076358 5:1.8784925 6:2.4265913 7:114.81795 
0.40229613372700779 1:8.8911592 2:-3.418273 3:2.4867343 4:1.871367 5:1.721917 6:2.0903011 7:107.75752 
0.85339717800005543 1:8.1379562 2:-2.0847673 3:4.2211717 4:1.7151128 5:1.4277022 6:1.9032228 7:96.993079 
0.2338391466770266 1:9.6838341 2:-2.3561533 3:1.1441696 4:2.0333503 5:1.525456 6:2.8456652 7:115.19657 
0.47073341260834556 1:9.0772599 2:-2.7568262 3:-0.77326244 4:2.1823339 5:1.8645657 6:2.0782017 7:103.15278 
1 1:9.6580802 2:-0.55597246 3:-1.7297784 4:2.170847 5:2.0975901 6:3.9348528 7:121.17528 
0.95358667893991045 1:8.9877694 2:0.6865932 3:0.28666575 4:2.2376353 5:2.2505732 6:2.8084389 7:99.293007 
0.41544329798730212 1:10.388635 2:-0.7801215 3:-0.80173403 4:2.4915933 5:1.8602147 6:1.3570852 7:120.68523 
0.20176631545615042 1:7.9952101 2:-5.1653931 3:-0.24097316 4:2.7826684 5:2.1023829 6:1.4853624 7:105.0323 
0.37568555988164443 1:9.5650299 2:-4.082308 3:-0.60877432 4:4.5714943 5:2.7071241 6:1.9181709 7:140.4321 
0.41033803561724952 1:11.426684 2:-6.781544 3:-0.3738837 4:5.2014489 5:3.2323731 6:2.0990948 7:218.60773 
0.13106349033566742 1:8.5948649 2:-6.3172448 3:-0.35446955 4:3.5891114 5:1.8694212 6:1.00127 7:131.28393 
0.0077417650144617663 1:7.0257525 2:-7.4295314 3:-0.092144408 4:3.4125316 5:1.9936385 6:1.8585806 7:123.64191 
0.2499081614407935 1:10.381906 2:-8.7522955 3:-0.14339327 4:4.3551811 5:3.1700807 6:1.3940539 7:215.3676 
0.097803905297816754 1:8.0099135 2:-8.1745069 3:-0.060653109 4:4.6568581 5:2.8442969 6:1.1200987 7:162.01593 
0.29527039700076829 1:10.284067 2:-8.7449187 3:0.14352269 4:3.8158188 5:2.7845053 6:1.2869073 7:206.22631 
0.48573664027368518 1:9.5649005 2:-2.7752033 3:1.8760188 4:3.1776707 5:2.8875064 6:2.0082701 7:125.17695 
0.75781013129168739 1:11.732494 2:-5.2541727 3:0.47405194 4:4.3497527 5:2.9213727 6:0.88781539 7:193.72546 
0.26682188962776193 1:8.7275769 2:-6.7261538 3:-0.12941631 4:4.5726354 5:2.7001258 6:0.98021009 7:150.58898 
0.128121185034725 1:9.7485422 2:-6.5628304 3:0.16539404 4:4.3576388 5:3.0399204 6:1.1254544 7:167.62895 
1 1:9.3833553 2:-2.858613 3:3.6680447 4:3.0741329 5:3.6758296 6:3.0281754 7:141.80544 
0.16463424614734481 1:8.6095493 2:-6.3689596 3:-0.020685899 4:3.7664918 5:2.2598751 6:0.98214412 7:134.94652 
0.28370477503324404 1:8.6255106 2:-6.0416882 3:0.30926701 4:4.218717 5:2.1252091 6:1.8364968 7:136.68388 
0.13195823383579663 1:10.602302 2:-6.3892831 3:-0.91510271 4:4.0095429 5:2.3323493 6:1.0150855 7:176.61584 
0.20289012673337456 1:9.0559062 2:-6.7851676 3:-0.71230736 4:4.6458497 5:2.3176473 6:0.66089664 7:155.94751 
0.094737190988208778 1:11.134073 2:-6.7310716 3:-0.64177546 4:4.510563 5:2.7324768 6:1.2586947 7:199.08271 
0.16213263086353799 1:10.092919 2:-7.8252865 3:-0.21612524 4:4.6035229 5:2.5327123 6:1.2092797 7:192.21824 
0.085238836157501954 1:9.520899 2:-7.2649139 3:-0.78956889 4:4.7104234 5:2.5729505 6:1.2437888 7:174.40508 
1 1:9.4714619 2:-5.0460713 3:0.68047094 4:4.7197768 5:5.4134348 6:2.4136171 7:173.04158 
0.88292390003859444 1:8.3751764 2:-1.5000644 3:1.8647596 4:3.1651585 5:6.3334706 6:2.8271781 7:133.99512 
0.18287590540092596 1:8.011646 2:-6.1934762 3:-0.57551432 4:1.5265761 5:1.0219005 6:1.0188198 7:107.28954 
0.66208913660229518 1:8.6666219 2:-3.5804316 3:-0.4467451 4:2.059565 5:2.9326118 6:0.87177442 7:101.73142 
1 1:8.6716069 2:2.569138 3:3.9891869 4:2.4522502 5:1.0513506 6:2.1370182 7:109.39657 
0.81079930574195846 1:7.2677611 2:4.9855044 3:3.8270991 4:0.97066191 5:0.55404059 6:1.408696 7:95.555862 
1 1:8.5067927 2:2.1982654 3:2.7997924 4:1.4594656 5:1.8729209 6:1.8964917 7:94.271284 
0.13793791319869736 1:10.008669 2:-3.1072855 3:-0.65911725 4:1.5340781 5:1.41645 6:1.8345221 7:117.98831 
0.97896882959651477 1:6.2787616 2:3.7750737 3:4.8164867 4:1.5185259 5:1.694331 6:3.3769198 7:93.452838 
0.89131249647720023 1:7.8284649 2:3.9543274 3:3.5609122 4:1.6618526 5:0.98382003 6:2.5062772 7:99.612745 
1 1:7.3667645 2:3.9456444 3:4.8052275 4:1.7944935 5:0.96017519 6:2.6782287 7:104.24259 
0.98484715474153817 1:6.6890113 2:3.3033512 3:6.2259597 4:0.38757597 5:0.1865424 6:0.52792904 7:94.881298 
0.39599213276043393 1:5.2193597 2:4.6992356 3:6.7797321 4:1.0370583 5:0.47487658 6:1.2870428 7:98.246774 
0.43316875569583402 1:6.2933857 2:4.4208611 3:5.8717473 4:1.6555301 5:0.7738044 6:1.8573247 7:100.41734 
0.69449115740342959 1:4.3342816 2:5.6567868 3:6.6258562 4:1.5142776 5:0.70225567 6:1.1995369 7:98.912292 
1 1:7.0100949 2:0.52404289 3:4.724175 4:3.612762 5:4.3780235 6:2.5464155 7:110.43725 
0.51217575602634535 1:7.7350832 2:-6.432767 3:0.49734686 4:1.5409082 5:1.2287757 6:2.0666279 7:109.6146 
0.18754860701419837 1:8.6008784 2:-6.7137298 3:-0.24252616 4:3.9061663 5:2.359609 6:1.2435347 7:141.48036 
0.18889958116770839 1:8.1036609 2:-6.5889725 3:-0.32250544 4:3.3269951 5:1.7654355 6:0.81805203 7:124.04276 
0.685679504804518 1:8.6711515 2:-6.2796675 3:1.2007245 4:3.1950395 5:3.9947763 6:1.8005819 7:145.47344 
0.039230093006380848 1:8.2193592 2:-5.337258 3:0.33544708 4:2.3338867 5:1.6130618 6:1.7674347 7:107.32953 
0.14385045412866848 1:8.8987948 2:-8.1079317 3:0.37478962 4:3.1473142 5:1.7601722 6:0.83047391 7:158.76105 
0.32712855018332371 1:7.1650044 2:-7.3271631 3:-0.050342948 4:2.8402763 5:1.7625981 6:0.84772112 7:116.9197 
0.23164149997053385 1:9.7669193 2:-8.3423046 3:0.40093171 4:3.9186317 5:2.0523749 6:1.405754 7:186.69157 
0.4517821659040494 1:9.7235234 2:-8.5898849 3:1.13798 4:4.226894 5:2.893266 6:1.0979809 7:197.07121 
0.39117955615203154 1:8.1558157 2:-7.9839509 3:0.89879625 4:2.347682 5:1.648791 6:1.7280962 7:142.28507 
0.21802334111477847 1:9.1722514 2:-9.3316923 3:1.0729906 4:3.7584069 5:2.583911 6:1.5720109 7:195.63542 
0.24843756017755175 1:7.8274866 2:-9.1937346 3:0.54070133 4:5.1020009 5:3.1301258 6:1.1359442 7:183.20513 
0.29895515342713497 1:9.0447194 2:-9.5063215 3:1.1900779 4:3.911997 5:3.0014879 6:1.3545946 7:199.74096 
0.36555146871655203 1:7.2189711 2:-8.3692232 3:0.42125009 4:4.4443916 5:2.7858055 6:0.97414011 7:150.79717 
0.25172161894046563 1:7.4442848 2:-8.681246 3:0.57862032 4:5.0273613 5:3.0585829 6:1.2135317 7:167.21816 
0.1798536536429825 1:7.577972 2:-8.7741668 3:0.65174052 4:5.0259465 5:3.0061118 6:1.3878646 7:171.05944 
0.43979634192968381 1:8.0207051 2:-9.3954945 3:1.1774296 4:5.0253575 5:3.3941295 6:1.5837847 7:193.27608 
0.11657751277649966 1:9.0594004 2:-10.530087 3:1.2414906 4:5.4883872 5:4.0586977 6:1.5759348 7:243.57577 
0.80119352702071256 1:9.8898648 2:-9.7686017 3:1.6289631 4:5.1741845 5:3.9104445 6:1.7944498 7:241.17234 
0.56612889982254844 1:8.7111412 2:-10.696646 3:1.9130319 4:5.1615725 5:4.2091256 6:2.233824 7:243.31045 
0.64129772504849669 1:8.1288971 2:-9.8915473 3:1.2319138 4:5.2477332 5:3.2973131 6:1.9717562 7:207.73809 
0.64831491176596168 1:9.13265 2:-10.102496 3:1.5391482 4:4.4336011 5:3.3134407 6:1.5550004 7:220.88843 
0.27777017823268407 1:7.6359504 2:-9.4454492 3:0.82761729 4:4.992042 5:3.2817577 6:1.3804857 7:185.80536 
0.07586605410975078 1:9.5720184 2:-9.1618981 3:1.3005045 4:4.6853976 5:3.6668461 6:1.6620561 7:215.41637 
0.82828808271404919 1:9.2033113 2:-10.086189 3:1.6224922 4:4.6131129 5:3.4950361 6:1.9681168 7:226.43421 
0.54334046407574854 1:7.3117625 2:-9.2955852 3:0.83978243 4:5.0783077 5:3.5000164 6:1.1839524 7:180.01608 
0.26227124585071621 1:9.505369 2:-9.2079703 3:1.2451143 4:4.4174514 5:2.9968257 6:1.5113484 7:207.46808 
0.22509172240362435 1:9.1866167 2:-9.9371018 3:1.4876405 4:4.1184633 5:3.0652898 6:1.464651 7:213.85594 
0.43229872637208561 1:7.5352645 2:-8.9713972 3:0.65756427 4:5.1218635 5:3.1660677 6:1.5412551 7:176.33151 
0.08671087587897007 1:9.2702196 2:-9.3610698 3:1.1624173 4:4.3477361 5:3.2721973 6:1.431288 7:206.57648 
0.2355581620833129 1:7.8144155 2:-9.3762115 3:0.82153472 4:5.0461434 5:3.410257 6:1.5294646 7:189.08603 
0.084213141427324098 1:8.8392633 2:-9.2750079 3:1.2733271 4:3.5168098 5:2.2543678 6:1.3837789 7:185.14468 
0.4964849901288021 1:8.7933205 2:-8.4546379 3:1.0644491 4:3.3068625 5:2.2504705 6:1.1702345 7:167.30584 
0.11362967662198226 1:8.3821649 2:-9.2264768 3:1.3183639 4:3.6097964 5:2.3428594 6:1.2009443 7:177.08853 
0.3357332033572944 1:7.1477921 2:-8.5947959 3:1.1849357 4:4.5788705 5:2.950015 6:1.4891302 7:158.25167 
0.86156571046207531 1:6.6288327 2:-2.2466671 3:3.1418397 4:4.8762243 5:7.4315517 6:3.2132674 7:148.1907 
1 1:1.3499467 2:6.993112 3:6.4969058 4:1.4429393 5:1.51281 6:2.7376453 7:104.80113 
0.88033345362421833 1:7.9553499 2:-8.3573169 3:2.5879379 4:4.8174081 5:5.7283353 6:2.1621523 7:200.52591 
0.86409131986479526 1:6.3228925 2:-2.5166295 3:3.3318229 4:5.17295 5:7.6626299 6:2.629525 7:149.80315 
1 1:6.1144029 2:-3.2088774 3:4.058366 4:6.7499529 5:9.7618577 6:3.2536936 7:215.5954 
0.60753843210320002 1:7.0982256 2:-9.1859696 3:1.5906558 4:4.4307812 5:3.3061683 6:1.8135471 7:171.14855 
0.38334145151705823 1:8.1018491 2:-9.8395219 3:1.9064316 4:3.6288904 5:3.1074592 6:1.7660874 7:192.03484 
0.62528810177757843 1:8.3950288 2:-10.09804 3:1.9743545 4:4.6519379 5:4.2015607 6:1.6149961 7:218.24686 
0.43416293073691181 1:7.8441813 2:-9.0775187 3:1.7304255 4:3.1616063 5:1.9664412 6:1.5493858 7:163.19014 
0.76745702800179416 1:6.6081261 2:-8.0911076 3:1.0922736 4:3.22866 5:2.3734593 6:1.337861 7:128.17384 
0.43692309155342973 1:6.5889725 2:-8.2130177 3:0.99094067 4:4.2164221 5:2.927021 6:1.3032089 7:139.8942 
0.089487154503453598 1:8.3860473 2:-8.7683431 3:1.1836416 4:3.2877533 5:2.4713047 6:1.862157 7:168.99494 
0.16118600484055068 1:7.1700518 2:-8.7495777 3:1.0780378 4:4.2983517 5:2.9329234 6:2.4619458 7:162.26596 
0.12880062185145313 1:8.2830319 2:-8.7604486 3:1.4275913 4:3.1462556 5:2.2679845 6:1.0472933 7:163.5316 
0.53341711404066738 1:6.4409202 2:-7.9610442 3:0.74310845 4:3.2285297 5:1.9045112 6:1.4514505 7:121.57316 
0.35912300296261357 1:7.961008 2:-8.6154231 3:1.616565 4:2.8273254 5:1.859419 6:1.4698498 7:153.82811 
0.67543465962693972 1:6.4304375 2:-8.4163308 3:1.2470555 4:3.7836397 5:2.1828667 6:1.2915964 7:134.48936 
0.15185435388852248 1:8.7596723 2:-8.6666219 3:1.3235406 4:3.6419922 5:2.2597926 6:1.361059 7:173.8172 
0.09096842353159261 1:8.2291948 2:-9.7524248 3:1.4294031 4:3.7204646 5:3.1120426 6:1.2298377 7:189.9118 
0.5747448639559275 1:6.634527 2:-9.0606945 3:1.3942019 4:4.4453195 5:3.179845 6:1.5706358 7:160.39611 
0.16321519535931128 1:8.1951583 2:-9.4642146 3:1.536301 4:3.7852262 5:3.2178975 6:1.6701704 7:186.56447 
0.47152005688343268 1:7.9858921 2:-9.2343712 3:1.6719293 4:3.5484768 5:2.8233938 6:1.6098107 7:174.99816 
0.63267363499158158 1:6.6409409 2:-8.9928769 3:1.5568057 4:4.0249289 5:2.7935334 6:1.431108 7:153.44953 
0.14146751948291014 1:7.1497334 2:-9.5070514 3:1.6626113 4:3.4324422 5:2.8174569 6:1.3832543 7:165.90011 
0.78440880784575928 1:7.3069741 2:-8.7431069 3:1.7384493 4:2.8465028 5:2.2546645 6:1.457221 7:148.16558 
0.67679154790506602 1:8.0808836 2:-9.7288709 3:2.1511579 4:4.5526813 5:3.6783612 6:2.0378676 7:202.98924 
0.20834516027927907 1:7.8473632 2:-10.087825 3:1.9919758 4:4.1052765 5:3.5221971 6:1.6391472 7:199.25926 
0.6559198433867921 1:6.0829323 2:-8.782698 3:1.6082651 4:4.0409242 5:2.8875497 6:1.4303927 7:143.4374 
0.59701795844567329 1:7.3830709 2:-9.9294663 3:2.090591 4:3.8673738 5:3.0695839 6:1.6647137 7:184.6248 
0.53244726741956383 1:6.1092262 2:-9.5606297 3:1.8325349 4:4.5718704 5:3.3702597 6:1.927563 7:168.06262 
0.31412501428196654 1:7.829169 2:-9.4411785 3:1.7748153 4:3.9227227 5:3.2571989 6:1.4516129 7:181.68599 
0.38013488399365369 1:7.7450484 2:-9.8189447 3:1.8326643 4:4.0513801 5:3.0386159 6:2.0517476 7:189.61264 
0.46244406393981996 1:6.4052013 2:-8.5447118 3:1.6222334 4:3.6468194 5:2.60147 6:1.8236877 7:140.06312 
0.019705990613921996 1:7.4778037 2:-8.6368561 3:1.4996762 4:3.0473247 5:2.3595084 6:1.2629672 7:149.21041 
0.0037000280501620956 1:7.6516098 2:-9.4485553 3:1.2791508 4:3.5030587 5:2.8915429 6:1.5882235 7:172.61345 
0.083634897881349077 1:7.2237595 2:-8.3496814 3:1.2686681 4:2.4025741 5:1.8589671 6:1.2988172 7:134.42445 
0.52026153386477181 1:7.4048129 2:-8.3873415 3:1.3212111 4:2.4999745 5:1.5439143 6:1.322421 7:137.30669 
0.42611300609922176 1:7.0407648 2:-9.0108693 3:1.5537722 4:2.5402577 5:1.8475156 6:1.3679085 7:144.91974 
0.54378295330295323 1:6.3443756 2:-8.552218 3:1.0005175 4:3.2183687 5:2.2275037 6:1.4760624 7:131.891 
0.096553461527774609 1:7.9237356 2:-9.4558818 3:1.2325493 4:3.6117384 5:3.1250221 6:1.1432743 7:177.83596 
0.49278336352718188 1:1.7725073 2:3.3163684 3:8.6749908 4:0.82578134 5:0.62596445 6:1.3580732 7:92.313657 
1 1:7.1929584 2:-8.5927252 3:3.0375302 4:4.8509788 5:5.3958966 6:3.1317264 7:197.25557 
0.83304224097095847 1:7.9627266 2:-10.242007 3:2.2346314 4:4.2408179 5:4.266486 6:1.7876643 7:212.68047 
0.7708073090468669 1:-2.0410246 2:-0.38164869 3:9.075448 4:2.278641 5:1.7139944 6:1.8482677 7:98.221268 
0.67374894911752692 1:0.91316148 2:1.4841462 3:9.5152047 4:0.67129736 5:0.98485434 6:0.71434155 7:95.506536 
0.18445266448796555 1:0.4023553 2:1.4177557 3:9.4303075 4:0.65782482 5:0.90109564 6:1.8934113 7:95.932333 
0.41536632991750377 1:0.23204344 2:1.1930889 3:9.7629075 4:0.78955349 5:0.94004582 6:2.1355525 7:102.85933 
1 1:4.9456442 2:-6.2099122 3:3.0106116 4:3.6283201 5:5.0576478 6:3.2050526 7:121.10306 
0.69778553815417421 1:7.3693529 2:-9.424225 3:1.4569688 4:2.6781891 5:1.9408826 6:1.0775761 7:157.34703 
0.29990597684517245 1:6.2826441 2:-9.9594908 3:1.349165 4:4.0427319 5:2.5592218 6:1.0630733 7:164.50674 
0.17673348203549552 1:6.8427578 2:-11.177945 3:0.69638915 4:3.7383542 5:2.8770941 6:1.218687 7:195.99292 
0.33402023063453568 1:8.1100024 2:-11.011904 3:1.1351104 4:4.0634824 5:2.8434934 6:1.4208296 7:214.93875 
0.11399181368909243 1:7.3525287 2:-11.486344 3:0.87226592 4:3.7612296 5:2.985069 6:1.3333296 7:211.59189 
0.30378869974811873 1:7.1204853 2:-12.62702 3:1.7447907 4:4.0284061 5:3.5525482 6:2.0579187 7:246.27091 
0.24286905316972698 1:5.5937611 2:-11.615114 3:1.1171216 4:4.1797834 5:2.3168865 6:1.3552692 7:192.12429 
0.57646556956467632 1:7.6302561 2:-12.485568 3:1.7419435 4:4.3270726 5:2.7825047 6:1.1024279 7:244.82581 
0.50259159905099238 1:5.2099124 2:-13.77999 3:2.1994302 4:4.8588334 5:3.8264588 6:1.5614111 7:262.55685 
1 1:6.3312909 2:-14.748538 3:2.6470294 4:5.4287673 5:4.0166359 6:2.1567009 7:314.86761 
1 1:6.9301139 2:-14.648114 3:3.0292475 4:5.2629352 5:5.1132084 6:2.0553425 7:329.83789 
0.66178484365913326 1:5.8396521 2:-12.814932 3:2.2628441 4:5.3845288 5:4.1927148 6:1.4795004 7:252.20542 
0.87757187375421741 1:7.3433402 2:-11.591819 3:2.1206156 4:4.5794259 5:2.5531254 6:1.939155 7:224.04183 
1 1:6.9491864 2:-15.258279 3:1.1981224 4:6.8098097 5:6.0425239 6:4.0242059 7:381.62161 
0.85339220892527956 1:3.4750867 2:-11.702858 3:0.10055649 4:4.5217991 5:2.1962213 6:3.1888082 7:184.48178 
0.08764415414379477 1:7.0789426 2:-12.631808 3:1.6928947 4:4.2764628 5:4.3166541 6:1.449307 7:251.56203 
0.31630740770831534 1:5.1816995 2:-12.303997 3:1.5241359 4:4.7857095 5:2.9530502 6:1.4086748 7:214.16922 
0.48852470531855036 1:6.4959222 2:-10.916524 3:0.55416063 4:3.3314064 5:1.4201712 6:1.6809339 7:177.6153 
0.36706416940501491 1:6.5590773 2:-11.37427 3:1.07312 4:3.7141795 5:2.1927587 6:1.413091 7:194.14724 
0.14036139697785543 1:5.3509761 2:-9.9628557 3:0.46589871 4:3.6540358 5:1.5754686 6:1.4660137 7:146.09178 
0.20517242896348906 1:6.7503546 2:-9.5972545 3:-0.19166555 4:2.8818466 5:2.2370289 6:2.2706229 7:156.17638 
1 1:6.5351353 2:-10.766401 3:1.0266596 4:4.9718556 5:3.0834678 6:5.0491883 7:219.39885 
0.0024436886608825183 1:7.4374258 2:-11.225959 3:0.5483369 4:4.2435705 5:2.4037389 6:1.2834911 7:207.07133 
0.34343251207013065 1:6.6510923 2:-10.796426 3:0.62352777 4:3.7403329 5:1.5587021 6:2.0597583 7:181.85088 
1 1:8.4125777 2:-12.891288 3:2.0737669 4:4.6352769 5:2.9238042 6:2.7483326 7:278.84503 
1 1:7.8448284 2:-13.284455 3:1.3590006 4:4.5517622 5:3.3101822 6:1.3857969 7:273.46123 
0.73642502979238333 1:6.9236431 2:-13.513392 3:1.8796425 4:4.1239281 5:3.2742324 6:1.2825302 7:263.45392 
0.41492652496327664 1:5.381389 2:-13.275784 3:1.5941501 4:5.3436348 5:3.4844002 6:1.4498265 7:250.54457 
0.79038462097036322 1:7.9955983 2:-12.115178 3:1.5924677 4:4.4933836 5:3.5559459 6:1.9369432 7:249.83009 
0.66573443349090711 1:5.7627787 2:-13.529051 3:2.4616276 4:4.4917596 5:3.2062357 6:2.2281762 7:257.72508 
0.61519136175859157 1:7.2466661 2:-12.196581 3:1.4612395 4:4.0776609 5:3.0383184 6:2.0980728 7:233.66659 
0.71560348857377798 1:4.3487762 2:-12.895688 3:1.8714892 4:4.7238708 5:3.8441933 6:2.2163972 7:230.71829 
0.14038327854717686 1:6.4253903 2:-12.918724 3:0.27164482 4:3.3822026 5:3.4330528 6:1.6134018 7:234.08108 
0.33538343126154363 1:4.1899824 2:-12.194122 3:-0.63776356 4:4.6872023 5:2.5847253 6:1.4481447 7:197.4071 
0.40674177821859692 1:7.3790591 2:-11.211852 3:0.44635685 4:4.1078477 5:1.9000003 6:1.6043188 7:203.41364 
0.09967539255168055 1:4.6113619 2:-11.446872 3:0.029377512 4:4.3014555 5:2.3396103 6:1.41858 7:178.28507 
0.1595098979738023 1:6.397954 2:-12.041282 3:0.62753969 4:4.3163304 5:2.0793628 6:1.5655221 7:211.7254 
0.73509740918743205 1:5.2514549 2:-14.240194 3:1.4481685 4:4.5701515 5:4.8143499 6:1.5174315 7:278.82495 
0.60697646743848699 1:4.104364 2:-13.590127 3:1.2134453 4:4.5661273 5:4.343386 6:1.6482378 7:245.44102 
0.55145394455853025 1:6.2030531 2:-14.602689 3:1.3401059 4:5.9847643 5:3.8442119 6:1.7357252 7:307.12039 
1 1:3.5253003 2:-14.84638 3:0.75216757 4:5.8570978 5:4.6420487 6:1.7315372 7:292.26093 
1 1:5.923255 2:-15.421247 3:1.5170179 4:4.8667686 5:4.7659559 6:1.7389487 7:324.62487 
0.60623542490149451 1:4.2884682 2:-13.259607 3:1.1595701 4:5.0057905 5:3.6954812 6:1.5850002 7:236.77948 
0.1380587696856671 1:4.5005816 2:-14.142614 3:1.0319656 4:5.0481328 5:4.606754 6:1.906995 7:271.67618 
0.47196676803067811 1:4.5074406 2:-14.033128 3:1.3091754 4:4.5327664 5:4.2442299 6:1.7405978 7:260.54878 
0.81468800683663312 1:6.4605915 2:-14.001033 3:1.2306197 4:4.9599829 5:4.0710481 6:1.2615419 7:282.04893 
0.67253306312451278 1:3.7032477 2:-13.14352 3:0.45321592 4:5.6592825 5:4.0547371 6:2.1552538 7:239.78506 
0.11512364805791168 1:5.5287544 2:-13.980733 3:1.4093229 4:4.3053981 5:4.6482819 6:2.0293191 7:272.27534 
0.28150018139758015 1:5.3315637 2:-14.472496 3:1.4560629 4:4.8355518 5:3.9148055 6:1.4800757 7:280.89772 
0.89915984125385684 1:3.6338805 2:-13.855569 3:1.025236 4:5.2220628 5:4.2896986 6:1.7923412 7:255.11692 
0.81047337080771242 1:4.2079212 2:-14.529165 3:0.79742877 4:4.7111286 5:4.2455323 6:1.6280747 7:272.30904 
1 1:4.5652897 2:-16.280313 3:0.92196178 4:6.1815374 5:5.1247905 6:2.6819566 7:358.40824 
1 1:6.6281718 2:-14.876484 3:1.1335109 4:5.9159958 5:4.1098388 6:1.8639282 7:321.8913 
1 1:4.1181563 2:-14.684998 3:1.4393682 4:5.5844071 5:4.4740892 6:1.4218102 7:287.90478 
0.062361833694197566 1:6.5335823 2:-14.770671 3:1.1899829 4:4.9766151 5:3.9483227 6:1.9170618 7:306.30757 
1 1:5.8138982 2:-15.884169 3:2.2548203 4:4.8646441 5:4.8143823 6:1.7128446 7:340.96934 
0.57699112364059491 1:3.8582884 2:-13.476508 3:0.4222854 4:5.4899251 5:3.7634993 6:1.5628328 7:243.42664 
0.45846974306681532 1:6.0582362 2:-14.513004 3:1.4090848 4:4.4006832 5:3.8428605 6:1.392404 7:285.3874 
0.79974739824359786 1:5.8621706 2:-13.962467 3:1.8289113 4:4.084495 5:4.0969963 6:1.4968586 7:268.3695 
0.54897760110143257 1:4.2201364 2:-12.992491 3:1.2724211 4:4.6015013 5:3.312365 6:1.2761314 7:222.00753 
0.90511941387477635 1:6.6745167 2:-14.610195 3:0.85544181 4:4.7035619 5:5.0013024 6:1.6352862 7:308.54944 
0.077297718279479455 1:4.8217928 2:-12.397435 3:0.75980315 4:4.3935589 5:3.0646467 6:1.1822242 7:207.61646 
1 1:6.5172759 2:-14.552346 3:1.1543935 4:4.2843102 5:3.6814747 6:1.6972666 7:290.36757 
0.3647954069444363 1:4.2117243 2:-12.803026 3:1.220784 4:4.6004141 5:2.8048137 6:1.6133286 7:214.78003 
0.51858404161291449 1:5.8445699 2:-13.483756 3:1.0914971 4:3.6758304 5:2.7062739 6:2.1486586 7:242.61441 
1 1:6.1243679 2:-14.976055 3:1.6530345 4:4.8674403 5:5.987351 6:2.7961585 7:331.88148 
0.45508795913838135 1:4.652285 2:-13.061104 3:0.36940935 4:3.8271144 5:3.5059016 6:2.5166848 7:225.64452 
0.056906862645980057 1:6.1331148 2:-12.068181 3:0.32982523 4:3.7491538 5:3.7890675 6:1.3181326 7:213.51554 
0.27293810595700452 1:5.6871997 2:-11.864369 3:0.20408953 4:3.3162278 5:2.003078 6:1.5062632 7:190.42767 
0.31543384345906345 1:4.1001675 2:-11.729129 3:0.29261027 4:3.9672631 5:2.0795579 6:1.2349557 7:176.05832 
0.24809154421869273 1:7.3331525 2:-12.129473 3:-0.071889902 4:4.4234234 5:2.4529947 6:1.7108987 7:229.41544 
0.17077625402294913 1:6.1795942 2:-12.163566 3:0.31565155 4:3.6695403 5:2.2135555 6:1.4312005 7:206.65305 
0.30711654654495413 1:4.2895035 2:-12.199558 3:0.0056943133 4:4.5284811 5:2.2527955 6:2.006843 7:196.83873 
0.058005313135579294 1:5.4539915 2:-13.9217 3:0.8840428 4:4.5986061 5:2.7044136 6:1.5178322 7:255.10614 
0.10226222568215147 1:4.705149 2:-12.649302 3:0.28985802 4:4.6150605 5:2.1797022 6:1.6138177 7:210.88157 
0.12545950145673054 1:5.6477277 2:-12.627149 3:-0.71502511 4:5.6188055 5:3.3686669 6:1.5089706 7:237.04887 
0.85985434927087767 1:7.0777779 2:-14.15025 3:0.67775321 4:4.8316649 5:3.1332491 6:1.4525726 7:286.05606 
0.069725236386651582 1:7.1175087 2:-13.778954 3:0.80134578 4:5.0186607 5:3.3748818 6:1.4820337 7:279.93387 
0.40011715896415145 1:4.7049299 2:-13.046587 3:0.8515593 4:5.5604207 5:2.6789788 6:1.5230694 7:233.48991 
0.43451071083529413 1:6.3490347 2:-14.210558 3:1.2805744 4:4.5327154 5:3.4624712 6:1.2666944 7:278.02879 
0.036533894941151904 1:4.9196316 2:-12.544452 3:0.65652893 4:5.0566456 5:2.8479213 6:1.2139719 7:217.15113 
0.23403538074678959 1:4.2809621 2:-12.854534 3:0.98602287 4:4.6095674 5:4.1748772 6:1.7147114 7:226.15586 
0.56026982666162628 1:7.1301242 2:-12.367744 3:0.43989466 4:3.9823074 5:3.0080904 6:1.1156782 7:230.14538 
0.097551094971298671 1:6.5424913 2:-11.614879 3:0.59056975 4:3.8432373 5:2.2268976 6:1.2680882 7:199.39597 
0.27779195408782703 1:6.3628822 2:-11.540829 3:1.2183251 4:3.6345359 5:3.0869353 6:1.6070299 7:200.48288 
0.72387262510267247 1:4.3735361 2:-11.338428 3:1.32875 4:3.9081768 5:2.5693442 6:1.681691 7:174.15681 
0.086409995936943373 1:5.7431075 2:-10.99948 3:0.51300625 4:3.075211 5:1.7000618 6:1.0676733 7:167.72208 
0.53599180330005314 1:4.6416454 2:-11.077777 3:0.84625324 4:3.7658813 5:2.0467416 6:1.6941686 7:166.21938 
0.12029117633892798 1:5.1634518 2:-10.771966 3:0.15529958 4:4.0565229 5:1.7183508 6:1.549078 7:164.52836 
0.45906772621171305 1:6.3237985 2:-9.9197601 3:0.052931265 4:3.1926704 5:1.6774164 6:1.0843876 7:152.57764 
0.038604881341716468 1:6.7143769 2:-12.08386 3:1.0406365 4:4.0104373 5:3.0978514 6:1.358238 7:219.71054 
0.46635217757477859 1:4.5284061 2:-11.129802 3:1.1515463 4:3.9881722 5:2.2974305 6:1.2372745 7:168.41957 
0.36873020277510038 1:6.0097051 2:-12.73573 3:1.2171604 4:3.9621326 5:3.1585334 6:1.3324187 7:227.24701 
0.57577294991428862 1:6.6354502 2:-11.808841 3:1.1109096 4:3.7661217 5:2.6427195 6:1.6461384 7:208.58946 
0.24757684569654786 1:5.7459547 2:-12.717223 3:1.9193733 4:4.366795 5:2.9950693 6:2.6425135 7:233.44996 
0.027547049179306008 1:7.1970342 2:-11.921975 3:0.77776442 4:4.1138031 5:2.8765479 6:1.5509218 7:222.13897 
0.0394803849419453 1:4.9241611 2:-11.87744 3:0.56438452 4:4.4274089 5:3.5026591 6:1.4055168 7:199.48553 
0.028397729405176476 1:6.4237079 2:-13.548205 3:0.72343717 4:4.8351576 5:4.5481633 6:1.2562244 7:270.98388 
0.0072066913242934032 1:7.35667 2:-12.41853 3:0.090720835 4:4.4386972 5:3.3402343 6:1.2294246 7:240.7194 
0.0049674554456956531 1:6.6107145 2:-12.423189 3:0.30581073 4:3.6793067 5:2.7818316 6:1.6186682 7:222.02666 
0.66506813318979019 1:7.4497204 2:-12.189722 3:0.62210419 4:4.4488492 5:3.2904148 6:1.2720069 7:236.71176 
0.03312133851542183 1:7.1272149 2:-12.840945 3:0.093697407 4:4.569442 5:3.9789009 6:1.3325081 7:254.18287 
0.16092008543284406 1:7.567465 2:-11.491019 3:0.080828244 4:3.9975311 5:2.4949178 6:0.96050772 7:212.44402 
0.51601352920443533 1:7.1216965 2:-12.983341 3:1.0090124 4:4.387987 5:3.9345378 6:1.0500498 7:256.14143 
0.55401804659891041 1:7.2664668 2:-13.19024 3:0.26142093 4:4.783712 5:3.728569 6:1.8146454 7:266.93136 
0.27788956125797931 1:4.5150761 2:-13.51391 3:0.39924931 4:5.1271763 5:3.4030004 6:2.2176924 7:245.95757 
0.10409738712216099 1:7.13498 2:-13.330656 3:0.51559457 4:4.5515964 5:3.0779275 6:1.9111443 7:262.72331 
0.33034824516829786 1:4.5884552 2:-13.810402 3:0.67710611 4:5.5550221 5:3.12766 6:2.3914258 7:258.59906 
0.0038040588658227415 1:6.9693271 2:-12.96622 3:1.2932572 4:4.3032381 5:3.6422704 6:1.5732017 7:252.62585 
0.21981726450792835 1:6.2200066 2:-12.534487 3:0.77585077 4:3.523603 5:2.8883342 6:1.5591546 7:219.59301 
0.0089217263024343133 1:6.5071813 2:-12.335574 3:0.78594524 4:4.0246502 5:3.4832361 6:1.1503943 7:224.78166 
0.10045143326525623 1:6.2893737 2:-12.276043 3:1.2624561 4:3.9671375 5:3.016028 6:1.467739 7:218.84011 
0.22276724845783341 1:4.4327674 2:-11.575124 3:1.1873946 4:4.2915808 5:2.7135015 6:1.6262043 7:183.46813 
0.26837152797060759 1:6.4304375 2:-11.416201 3:0.80212227 4:3.7597687 5:3.0431818 6:1.2667113 7:197.32494 
0.34522870694038421 1:4.9355498 2:-11.621585 3:0.89918452 4:3.3763935 5:2.6272545 6:1.7469135 7:181.58362 
0.11980744271406275 1:5.2009826 2:-11.15025 3:0.84482967 4:3.4392478 5:2.0017401 6:1.4138253 7:169.92633 
0.21557768831889346 1:6.1349801 2:-11.865275 3:1.0332598 4:3.6834128 5:3.0695964 6:1.2906953 7:204.14621 
0.3804744691527332 1:4.4026134 2:-11.459555 3:1.2508086 4:3.6815592 5:2.8079481 6:1.5441164 7:176.09168 
0.56353756232503538 1:5.213869 2:-11.005922 3:0.61227718 4:2.7757902 5:1.6629783 6:1.3787323 7:161.06104 
0.18381013511676955 1:6.3319517 2:-12.378282 3:1.0194123 4:3.8197069 5:2.6252871 6:1.5605717 7:218.27235 
0.73101300813451553 1:4.580302 2:-11.804967 3:0.79591029 4:4.1758111 5:2.759882 6:1.5202592 7:188.33543 
0.57044200870432948 1:4.5718899 2:-13.160733 3:0.32405843 4:3.2915686 5:2.9444381 6:1.867904 7:217.20528 
0.31864570946072041 1:4.6059333 2:-13.11333 3:0.3538311 4:4.6101845 5:4.3673923 6:1.3184838 7:235.36556 
0.39806513811238203 1:6.5573949 2:-12.884558 3:0.47560493 4:4.1364344 5:3.5592721 6:1.0523178 7:240.12335 
0.71070363787114554 1:4.0128115 2:-12.111296 3:0.27513908 4:4.2505911 5:3.5031887 6:1.2073557 7:194.6594 
0.97480350087944145 1:3.6386689 2:-12.56037 3:0.57434958 4:4.6106604 5:3.9939348 6:1.5046933 7:210.8065 
0.32286759864516246 1:5.323281 2:-12.100943 3:1.336741 4:4.28726 5:2.6242412 6:1.6069565 7:204.40656 
0.5699895950093451 1:5.4442852 2:-11.533323 3:0.3134463 4:4.1560375 5:2.9502706 6:3.3244888 7:199.78499 
0.066251207479245997 1:4.2213011 2:-11.741942 3:-0.60916258 4:3.7405781 5:3.1290029 6:1.1417108 7:181.14974 
0.65756096798769692 1:4.4752159 2:-11.516757 3:-0.56205503 4:3.3243142 5:1.9732784 6:1.7373272 7:170.94236 
1 1:3.9836928 2:-10.477156 3:-0.68694177 4:3.4651273 5:1.5570617 6:1.2815625 7:142.18645 
0.93480218788549518 1:4.7035063 2:-10.286526 3:-0.7475086 4:3.6927945 5:1.7342874 6:1.4977872 7:147.38221 
0.68181234728265372 1:4.1347544 2:-11.03644 3:-0.47232812 4:3.5572453 5:2.7891319 6:1.4523275 7:161.6648 
0.69832470077764597 1:4.200724 2:-13.025234 3:-0.79371022 4:4.8724258 5:4.1495117 6:1.7097483 7:231.81499 
0.65157652644673392 1:3.9919754 2:-12.477415 3:-0.36702465 4:4.9104469 5:4.1822882 6:1.4454061 7:215.44967 
0.24833089242794457 1:3.7634262 2:-13.637502 3:0.56283154 4:4.7229059 5:3.8383986 6:1.6928673 7:240.36657 
0.66091028207022662 1:7.1366623 2:-12.573959 3:-1.2267372 4:4.5938301 5:3.0234049 6:1.2805116 7:242.42524 
0.53394092290451822 1:5.9636329 2:-13.839909 3:-0.87938381 4:4.6872402 5:3.0768069 6:1.5385508 7:261.68542 
0.37405358716209641 1:6.2697024 2:-13.659374 3:-0.10806262 4:3.9908825 5:4.0444654 6:0.96516729 7:259.11573 
0.52912131972927146 1:4.3170692 2:-12.80885 3:-0.52788912 4:4.822209 5:4.3856452 6:1.2859462 7:227.12362 
0.66628626650371059 1:6.0762251 2:-13.791637 3:-0.50899435 4:4.6694594 5:4.2411666 6:1.6281711 7:269.83113 
0.16312656974448239 1:5.015529 2:-12.386435 3:-1.1683704 4:4.7063159 5:3.0998665 6:1.7199773 7:214.66129 
0.51477997019560406 1:6.0453912 2:-12.3182 3:-1.3652696 4:4.6900629 5:1.8467991 6:2.6065533 7:222.35023 
1 1:6.0186348 2:-13.741294 3:-1.1075448 4:4.8811961 5:4.7119415 6:1.5910096 7:274.83357 
0.4067657754176785 1:4.396919 2:-11.664939 3:-0.48556998 4:5.1147125 5:2.6835006 6:1.6134941 7:191.6043 
0.3613975279563939 1:4.4177171 2:-12.158331 3:-0.710216 4:4.4351512 5:3.1626787 6:1.4113706 7:199.51071 
0.080655516837598418 1:4.386307 2:-11.663127 3:-0.8421119 4:4.7869101 5:2.7144776 6:1.7058536 7:189.17021 
0.91057512394087203 1:5.2602552 2:-13.656268 3:-0.58392638 4:5.3505834 5:4.2545071 6:2.1000302 7:265.6446 
0.54698405416358564 1:6.7337894 2:-13.01268 3:-1.0820497 4:4.9990353 5:3.3486567 6:1.7332594 7:255.05265 
0.24395255550051997 1:4.1061206 2:-12.851039 3:-0.35330652 4:5.4486913 5:2.5012253 6:1.6530104 7:220.81107 
0.41793473242091983 1:6.5240055 2:-13.451143 3:-0.54225434 4:4.9583675 5:2.6908414 6:2.0889443 7:259.97965 
0.52558895078652756 1:4.4510151 2:-11.975667 3:-1.3859192 4:5.0529785 5:2.0481568 6:2.8007877 7:202.72087 
0.32495490994218806 1:6.0340354 2:-11.699493 3:-1.5152061 4:4.5592126 5:2.4824362 6:2.8649621 7:210.74049 
0.39917761650683592 1:6.4391895 2:-12.969678 3:-0.84173747 4:4.1622825 5:4.0202866 6:1.4156672 7:245.87564 
0.69316739766473456 1:3.6092914 2:-12.826709 3:-0.36844823 4:5.0198499 5:3.8186655 6:1.4895496 7:219.68706 
0.80592034626395181 1:6.7225302 2:-12.994433 3:-1.0269184 4:4.9976712 5:3.1090917 6:1.4331657 7:251.79939 
0.39023762936949036 1:4.3913542 2:-12.815062 3:-0.44713334 4:5.553692 5:3.4406493 6:1.6043273 7:228.96515 
0.25818798544978167 1:6.5257639 2:-12.908514 3:-0.49033251 4:4.6948884 5:3.7345979 6:1.6175277 7:248.06135 
0.094194299222246106 1:4.6386687 2:-13.703375 3:-0.48984072 4:4.9973808 5:4.2254758 6:1.5380153 7:254.73363 
0.69510344356984632 1:5.8919069 2:-12.785675 3:-1.4652514 4:4.945998 5:2.8178576 6:2.6346842 7:239.6798 
0.77142833478814776 1:3.7594143 2:-11.68914 3:-0.40779079 4:4.545657 5:2.673448 6:1.2449749 7:180.29576 
0.40696450256285133 1:4.3817774 2:-12.79992 3:-0.12941631 4:4.6765788 5:4.033593 6:1.4484009 7:223.2928 
0.82517567042889195 1:6.7359895 2:-14.570464 3:-0.67956503 4:5.2825244 5:4.0307993 6:1.9154399 7:305.95511 
0.12649519257567046 1:6.3036096 2:-14.623008 3:-0.36068324 4:5.1289753 5:4.6396456 6:2.0999513 7:305.94043 
0.2884698329684684 1:4.2612907 2:-12.334539 3:-0.97321063 4:5.0829291 5:2.6711174 6:1.8076153 7:207.48509 
0.62589678908192159 1:3.8669593 2:-12.41193 3:-0.27151542 4:4.8205379 5:3.3890969 6:1.6019799 7:206.373 
0.087561411512166315 1:4.2224659 2:-11.999998 3:-0.2951986 4:4.2035699 5:2.9119222 6:2.0127036 7:192.11657 
0.085015368605232289 1:4.2831621 2:-11.648632 3:0.028600999 4:4.2936352 5:3.063779 6:2.248788 7:186.91603 
0.56469133038252628 1:3.9207965 2:-12.471979 3:-0.060437411 4:4.562495 5:3.064065 6:1.2900032 7:202.79552 
0.329361406111156 1:6.1492038 2:-13.33232 3:-0.15233507 4:4.3275027 5:3.4831893 6:1.3846982 7:248.36394 
0.36731067971036407 1:4.1612519 2:-11.787108 3:-0.22104306 4:4.2083731 5:3.0892147 6:1.2317426 7:185.07163 
0.43379778135560221 1:5.7098475 2:-13.353692 3:-0.64876395 4:4.4710853 5:4.0271421 6:3.0143222 7:256.63897 
0.043741857620375205 1:5.2469254 2:-13.26983 3:-0.32858801 4:3.9411493 5:3.7145856 6:1.3917706 7:234.99443 
0.50809399003160971 1:-1.1969748 2:0.75870992 3:9.7869925 4:1.2156734 5:1.0424254 6:1.3449218 7:102.16694 
0.19702301486182719 1:0.630128 2:0.12812215 3:9.5592062 4:1.5064508 5:1.4656419 6:1.1448104 7:97.519991 
1 1:2.8452175 2:-1.8676067 3:9.0828247 4:1.1674739 5:1.1122581 6:1.4051117 7:98.655375 
1 1:2.7785681 2:3.7451786 3:6.3174571 4:4.3621514 5:3.9278666 6:2.7148773 7:103.48413 
0.31740094761260407 1:0.46033381 2:4.9226081 3:8.2491248 4:1.3668394 5:1.3354043 6:1.8756912 7:99.661811 
1 1:3.5875494 2:0.47896976 3:4.3910953 4:5.4450211 5:8.2936375 6:5.1083578 7:156.90964 
1 1:10.585219 2:-9.537076 3:-1.6794355 4:4.0295252 5:3.7727398 6:1.3198883 7:238.03592 
0.43240221211377861 1:7.3863063 2:-8.803415 3:-2.6345278 4:3.1165599 5:1.4039149 6:1.1684703 7:152.04762 
0.38315025851040324 1:9.5493705 2:-8.5808188 3:-2.8676065 4:3.7481015 5:1.8336352 6:1.0774124 7:191.6154 
0.042538069590771763 1:9.5066631 2:-8.6318089 3:-2.6341395 4:3.8021931 5:1.9841283 6:0.97663874 7:191.17072 
0.32169312056594529 1:8.0031044 2:-8.4169778 3:-2.78038 4:3.1893553 5:1.4421419 6:1.0907782 7:156.06727 
0.24415293419551864 1:8.6354325 2:-8.4262958 3:-2.6702467 4:3.8300561 5:1.7220718 6:0.98707221 7:171.31255 
0.04857783768064796 1:8.4773894 2:-8.1985128 3:-2.8323087 4:3.1324211 5:1.5786264 6:0.90450371 7:160.22597 
0.51680483592283755 1:8.847287 2:-8.1485684 3:-2.9561273 4:3.4545386 5:1.5660802 6:0.93740536 7:168.67752 
0.31953078188283174 1:9.1573685 2:-8.5128753 3:-2.7573439 4:3.619683 5:1.8386533 6:1.0404549 7:181.49469 
0.40470526829481307 1:7.4106366 2:-8.8339572 3:-2.7375432 4:3.1943735 5:1.3755967 6:1.0418536 7:153.63222 
0.10277830296265346 1:9.1008136 2:-8.6591157 3:-2.5179237 4:3.4491232 5:1.5506615 6:1.0320348 7:179.51113 
0.36998569006293469 1:8.8588052 2:-8.887665 3:-2.8872778 4:4.0333097 5:1.9347888 6:1.0623517 7:186.94498 
0.014773945801528736 1:8.1731575 2:-8.6575628 3:-3.0528013 4:3.7614428 5:1.621252 6:1.1520223 7:169.17756 
0.11842053104475793 1:7.6147262 2:-9.0597886 3:-2.4618864 4:3.3489159 5:1.4049427 6:1.0139777 7:160.34196 
0.59994776047749365 1:8.5660067 2:-8.2357985 3:-3.0233341 4:3.3810695 5:1.5496792 6:1.1860454 7:165.58524 
0.92948369281530119 1:6.9218606 2:-8.4621942 3:-2.7788063 4:2.6762352 5:1.2940199 6:1.0080019 7:137.09544 
0.40668737307020175 1:7.3665056 2:-8.5733127 3:-2.7214955 4:3.1746337 5:1.5554504 6:1.0824555 7:148.84307 
0.28863447893976768 1:7.0067283 2:-8.6941876 3:-2.4158142 4:3.0183986 5:1.4939893 6:1.1658558 7:143.22125 
0.12099138597314256 1:8.749243 2:-8.7129788 3:-2.501845 4:3.6069345 5:1.5662863 6:1.0100644 7:175.20794 
0.58809678801800591 1:9.288481 2:-9.3320236 3:-2.8807035 4:4.1854929 5:1.9353146 6:1.3632314 7:204.78319 
0.89814032349361816 1:9.667657 2:-10.0616 3:-2.4195673 4:4.6356793 5:2.5024954 6:1.2783682 7:229.93993 
0.045115645204175603 1:9.0481412 2:-8.9527614 3:-2.4184025 4:4.0924561 5:1.9467459 6:1.1789571 7:189.79742 
0.27298192264376386 1:9.0480118 2:-8.674128 3:-2.3996372 4:3.4877102 5:1.5262789 6:1.1500104 7:178.68145 
0.6359639877356007 1:9.4277192 2:-9.2108175 3:-2.5775846 4:3.8557131 5:2.0937119 6:1.1288119 7:200.88936 
0.41608534718076812 1:7.7647196 2:-9.2887261 3:-2.9046196 4:3.9589049 5:1.7939916 6:1.1875384 7:175.3097 
0.5861405315569953 1:9.6266061 2:-9.2620491 3:-2.5314692 4:4.436475 5:2.3399431 6:0.97522848 7:210.97415 
0.27948470856600355 1:8.8388751 2:-9.3423045 3:-2.5056291 4:4.4675151 5:2.1189863 6:1.0532576 7:197.24069 
0.34991186858671874 1:7.9241605 2:-8.7563073 3:-2.8217932 4:3.4504796 5:1.3491104 6:1.202073 7:162.59864 
0.26226859309909023 1:9.6684335 2:-9.3567991 3:-2.4240969 4:4.015047 5:2.1424823 6:1.2286176 7:209.12487 
0.21516215037048922 1:7.7653668 2:-9.3786704 3:-2.5038173 4:3.9496213 5:1.4595774 6:1.1821035 7:173.65672 
0.030338835516741644 1:8.5409586 2:-9.1888167 3:-2.3152578 4:3.9525883 5:1.4737827 6:1.0919374 7:181.73006 
0.14145909895484665 1:9.3631404 2:-8.7554015 3:-2.6076092 4:3.4389084 5:1.5685817 6:1.3955569 7:187.3592 
0.32851839187430854 1:8.9333731 2:-9.0410163 3:-2.3280579 4:3.683983 5:1.578786 6:1.0940477 7:184.22622 
0.22486887671873779 1:10.0462 2:-8.5755128 3:-2.4530861 4:3.945451 5:2.2642662 6:1.2538795 7:202.74888 
0.14822276936066475 1:9.3908355 2:-8.951726 3:-2.0748023 4:3.3518203 5:1.8160222 6:1.3578448 7:189.00237 
0.17734392336651802 1:8.5893742 2:-8.8893197 3:-2.862316 4:3.9195385 5:1.7387531 6:1.3002496 7:181.0669 
0.10691077857398786 1:9.3627523 2:-9.0697538 3:-2.7478965 4:3.5619384 5:2.0588792 6:1.3927057 7:196.33852 
0.38110552098678885 1:7.2326599 2:-8.5552807 3:-2.8826188 4:2.973529 5:1.3755996 6:1.3023405 7:146.24393 
0.14707179386844912 1:7.5683951 2:-8.9646677 3:-2.7235662 4:3.2281593 5:1.5792425 6:1.1984851 7:159.41507 
0.086666755968942868 1:9.1928286 2:-8.9537967 3:-2.5927263 4:3.8417232 5:1.8140731 6:1.1106377 7:190.68402 
0.089082181931350216 1:7.4358728 2:-9.184546 3:-2.7792152 4:3.7059022 5:1.8247113 6:1.5206418 7:166.74776 
1 1:6.9800876 2:-1.298615 3:3.0676428 4:3.4680341 5:5.9428563 6:5.1645124 7:133.83545 
0.86558751996521921 1:-2.5650312 2:2.8679948 3:8.645527 4:1.0054723 5:1.6783416 6:1.210013 7:94.841853 
0.4830060028928006 1:-1.7986278 2:3.0692372 3:9.0025866 4:0.89299125 5:1.7547757 6:0.75440624 7:98.147645 
1 1:-0.22194896 2:5.747637 3:7.5519592 4:0.9608092 5:1.0886239 6:1.0874952 7:93.407583 
1 1:4.3609413 2:-1.7178721 3:3.0817905 4:3.7852004 5:7.4234365 6:6.178598 7:139.07655 
0.89394141854874154 1:6.7248596 2:-12.038693 3:-3.450627 4:4.8440167 5:2.4314694 6:1.8116037 7:234.71914 
0.87202601586865336 1:7.4784507 2:-11.578748 3:-3.5372065 4:4.2681314 5:2.3989597 6:1.3668485 7:228.34668 
0.44026642497028529 1:6.0024578 2:-11.80885 3:-2.9192436 4:4.3530992 5:1.8875415 6:1.3163375 7:208.24545 
0.59940342431260207 1:7.4379434 2:-10.909406 3:-3.3243167 4:4.0371524 5:1.7013251 6:1.2161026 7:206.06125 
0.62317749103816988 1:5.5986789 2:-10.886241 3:-3.3419173 4:3.7718419 5:1.6816622 6:1.8947879 7:181.66886 
0.033635354450015573 1:7.5808726 2:-10.745433 3:-3.2166579 4:3.921904 5:1.757394 6:1.0564082 7:202.8666 
0.14830865148263683 1:5.4815571 2:-11.014104 3:-3.2294545 4:3.8354595 5:1.4018246 6:1.3388189 7:180.25564 
0.43748603749220361 1:7.55843 2:-11.040505 3:-3.071049 4:4.0121556 5:2.0079958 6:1.005047 7:209.59352 
0.45343479725077734 1:5.3844949 2:-11.026658 3:-3.0561661 4:3.8053725 5:1.3728277 6:1.451138 7:178.39144 
0.012069498183964415 1:7.545359 2:-11.029117 3:-3.0095762 4:3.9649303 5:1.9025096 6:1.145159 7:208.28301 
0.51064947722866716 1:7.2279008 2:-10.475862 3:-3.1941239 4:3.8500087 5:1.5531384 6:1.3376797 7:191.21285 
0.77639000222458632 1:5.4203432 2:-10.146756 3:-3.2159953 4:3.2991173 5:1.2967162 6:1.7494743 7:158.30572 
0.33127294293902454 1:6.5514418 2:-10.226218 3:-3.294551 4:3.9113483 5:1.4180526 6:1.5680292 7:178.11922 
0.60574457409165805 1:6.6241737 2:-9.9651851 3:-3.3456704 4:3.596511 5:1.2961961 6:1.2626439 7:170.58739 
0.31583474035314046 1:5.5187946 2:-10.648643 3:-2.91684 4:3.3833908 5:1.5369426 6:1.1992968 7:167.60648 
0.11767830442680097 1:7.2018881 2:-10.5539 3:-3.2251838 4:3.7629706 5:1.7659799 6:1.240966 7:192.47244 
0.31858353619303648 1:5.5634776 2:-11.002457 3:-2.8320171 4:3.5208201 5:1.3221734 6:1.3375818 7:175.9601 
0.60718480212829051 1:7.748672 2:-11.19917 3:-2.9707514 4:3.7777328 5:2.0207473 6:1.3264772 7:214.40291 
0.6692350325845895 1:7.8685116 2:-11.562182 3:-2.7488024 4:3.907659 5:2.1685889 6:1.1234789 7:224.38823 
0.32606480781121466 1:6.816357 2:-11.13045 3:-3.0638017 4:3.6786189 5:1.9003684 6:1.5580725 7:199.30774 
0.007089356231152079 1:6.1988755 2:-10.907855 3:-2.9485073 4:4.0462997 5:1.5824321 6:1.2683655 7:186.58644 
0.26300531978783137 1:7.6162792 2:-11.267631 3:-2.7566968 4:4.0467143 5:1.8001748 6:1.2016628 7:213.62711 
0.67735608864283559 1:5.3754358 2:-11.264137 3:-2.8722655 4:3.999945 5:1.7534335 6:1.7932024 7:186.31566 
0.63005241266389045 1:6.0040108 2:-11.510286 3:-3.5716313 4:3.9996393 5:1.5970844 6:1.6987211 7:202.72484 
0.47423360544725685 1:6.9497851 2:-10.994045 3:-3.1233332 4:3.8537002 5:1.5604776 6:1.2986351 7:197.89629 
0.56860335692161146 1:5.123074 2:-11.592595 3:-2.644234 4:3.9640908 5:2.0051999 6:1.4764254 7:189.5408 
0.4922543699979714 1:7.2026646 2:-11.62702 3:-2.8538884 4:3.9864095 5:1.931606 6:1.393885 7:216.77613 
0.33494118664623407 1:5.2781147 2:-12.035846 3:-2.8063926 4:4.2322594 5:1.9373848 6:1.5909629 7:204.79257 
0.49947333226131108 1:7.5524769 2:-11.612914 3:-2.6864237 4:3.8960537 5:2.3634379 6:1.4192455 7:221.89587 
0.72363664412415385 1:7.5541593 2:-11.997539 3:-3.188559 4:4.3015415 5:2.2954457 6:1.2706103 7:236.55995 
0.27705861362331002 1:5.3714239 2:-10.69807 3:-2.9166553 4:3.4998572 5:1.383996 6:1.6116983 7:168.56979 
0.16565801528058302 1:5.0725153 2:-11.038738 3:-2.526234 4:3.5482207 5:1.4591663 6:1.6171967 7:171.30038 
0.24964599160940612 1:5.9332201 2:-10.137438 3:-3.1455928 4:3.4687538 5:1.5740247 6:1.4691205 7:164.53363 
0.39746390152981848 1:5.2517138 2:-10.655492 3:-2.5527367 4:3.2158636 5:1.2269798 6:1.4654089 7:161.63115 
0.3107386132517852 1:7.9007362 2:-11.274749 3:-2.7059656 4:3.8992159 5:2.1522882 6:1.4026381 7:218.66747 
0.55816724103408044 1:5.6376332 2:-12.206934 3:-2.5242651 4:4.2086508 5:1.9597888 6:1.6360325 7:211.39419 
0.076981597999232751 1:7.1722517 2:-11.689916 3:-2.8883132 4:4.3566024 5:1.9813142 6:1.7276553 7:222.32807 
0.17949161855102597 1:7.4224135 2:-10.446873 3:-2.6314218 4:3.6431644 5:1.5367286 6:1.1141309 7:188.02922 
0.34954047352139883 1:5.0956377 2:-10.91523 3:-2.3413998 4:3.2791004 5:1.4170525 6:1.8348463 7:166.71713 
0.78769043449435827 1:5.2693144 2:-10.413613 3:-2.4046844 4:3.1043012 5:1.290948 6:1.5969328 7:155.84494 
0.14971039214082493 1:5.1816996 2:-11.262584 3:-2.6540696 4:4.0586053 5:1.779033 6:1.6932449 7:183.2442 
0.70410365187994095 1:4.9563858 2:-11.114014 3:-2.6358219 4:3.7387026 5:1.5286419 6:1.5930961 7:173.88721 
0.49777847204550224 1:7.1132379 2:-10.461108 3:-2.801216 4:3.6053713 5:1.1768486 6:1.3304239 7:184.03346 
0.43108620534980607 1:5.1166031 2:-10.710882 3:-2.7305547 4:3.2594394 5:1.3877566 6:1.7519671 7:163.97775 
0.23620892673322558 1:7.6377623 2:-10.934772 3:-2.7573439 4:3.4412687 5:1.5643038 6:1.4724689 7:201.96514 
0.086361355890546138 1:7.0539653 2:-10.863852 3:-2.7733915 4:3.9096936 5:1.4200257 6:1.3812315 7:194.68338 
0.63445776401152931 1:5.5597246 2:-9.6802104 3:-2.6705055 4:3.0195626 5:1.3668191 6:1.3900025 7:144.66667 
0.008298729433599536 1:5.4537326 2:-11.409212 3:-2.3672831 4:3.685895 5:1.4158095 6:2.0140931 7:185.16427 
0.4346165590462836 1:7.3029622 2:-11.461885 3:-2.5931146 4:4.5188035 5:1.9192341 6:1.9136468 7:219.19739 
0.28574862350808361 1:5.4625329 2:-11.36547 3:-2.8430174 4:4.3702016 5:1.6331767 6:2.1161793 7:193.34006 
0.04565651792127786 1:7.3153862 2:-11.056682 3:-2.2906686 4:3.9116463 5:1.3084717 6:1.4360315 7:200.08752 
0.40246807775626675 1:7.1413213 2:-10.678787 3:-3.0348124 4:4.0996434 5:1.6949634 6:1.290341 7:195.59 
0.50980786102930842 1:4.6725879 2:-11.981862 3:-2.4087585 4:4.0965017 5:1.7949244 6:1.5793935 7:193.69778 
0.40635141349666781 1:7.1194499 2:-11.951984 3:-2.3407528 4:4.473394 5:1.895005 6:1.8859502 7:226.17472 
0.10323580827025827 1:6.3288457 2:-11.311891 3:-2.3137048 4:4.5373196 5:1.5623634 6:1.8088164 7:199.66647 
0.76107632168184236 1:0.47909916 2:4.0538364 3:8.2906675 4:3.3617184 5:0.86425437 6:1.6880042 7:100.29574 
0.8926870842495741 1:7.9283019 2:1.3551182 3:4.8472878 4:2.2298032 5:1.1846538 6:2.5579314 7:101.10895 
1 1:2.7407786 2:-1.9953406 3:7.8635937 4:3.8405476 5:1.6503367 6:3.514579 7:103.15504 
1 1:5.1179732 2:0.60372191 3:7.3503907 4:1.9487031 5:1.7233715 6:2.175759 7:92.087754 
0.21921209008815193 1:7.481945 2:-7.3359634 3:-0.52763028 4:1.5219536 5:1.1603322 6:1.1938644 7:115.16228 
0.55804733236471182 1:8.5282759 2:-4.6803408 3:0.67620021 4:1.721094 5:2.1165344 6:1.5345141 7:104.89094 
0.14906378766920045 1:7.0226465 2:-7.1039199 3:-0.85828896 4:1.6816337 5:0.85700131 6:0.78272566 7:104.69491 
0.38467502956218208 1:6.4054602 2:-7.7055764 3:-1.3706481 4:2.0260297 5:0.94554458 6:0.77281273 7:107.88059 
0.23465976801159014 1:6.5922079 2:-7.7693786 3:-1.5101589 4:2.1486912 5:0.91188847 6:0.80979698 7:112.20521 
0.52614546086904701 1:6.3318223 2:-7.385271 3:-2.2819978 4:1.4457713 5:1.017433 6:0.88811306 7:103.75588 
0.19972597202076836 1:6.9555709 2:-7.4645463 3:-1.7731139 4:2.2076265 5:0.86189024 6:0.96829008 7:113.79741 
0.15218210957032149 1:7.5205111 2:-7.8365458 3:-1.5338421 4:2.6727675 5:0.84215955 6:0.94847247 7:129.07473 
1 1:6.3998607 2:-7.8638353 3:-1.8264886 4:2.1290637 5:1.4503829 6:5.2709058 7:140.55315 
0.024151630671363247 1:6.0556479 2:-8.1028844 3:-1.4066259 4:2.0539728 5:1.0601057 6:0.82696929 7:110.33271 
0.0061828281169768531 1:5.6328448 2:-8.4481671 3:-1.1052153 4:2.0343905 5:1.3080875 6:0.77709566 7:110.77569 
0.25621729271352345 1:5.4486854 2:-8.4532144 3:-0.81946406 4:2.262682 5:1.3430778 6:0.91576304 7:109.57874 
0.39506271310102387 1:6.4818158 2:-8.6012667 3:-0.76808579 4:2.247054 5:1.1114297 6:0.91729637 7:123.71164 
0.00068621078023833881 1:5.8458641 2:-8.1188027 3:-1.2461496 4:1.9065362 5:1.3351698 6:0.82531004 7:107.74067 
0.23837065527164084 1:6.13278 2:-8.6155024 3:-0.9562571 4:2.3945323 5:1.0354708 6:0.98800136 7:120.53443 
0.5005527955802942 1:6.6673988 2:-8.7425893 3:-0.76937995 4:2.4309498 5:0.95211853 6:0.97657324 7:129.24876 
0.48914745771257967 1:5.5783605 2:-8.8106623 3:-0.83861768 4:2.1492135 5:0.96436504 6:0.9862755 7:115.97101 
0.40484637262987266 1:6.6209383 2:-8.6169259 3:-0.59505619 4:2.439386 5:0.91769703 6:0.88767449 7:126.02307 
0.20078085237616172 1:6.1292857 2:-8.6312912 3:-0.70324822 4:2.2026253 5:0.95672811 6:0.96084626 7:119.252 
0.37706442200334933 1:5.8925834 2:-8.68034 3:-0.75436766 4:2.3084415 5:0.98510077 6:1.0045184 7:117.94829 
0.31100095897032354 1:6.2299044 2:-7.3594568 3:-0.49416323 4:1.6820911 5:1.5703576 6:0.8867344 7:99.299262 
1 1:3.5401831 2:0.31590518 3:5.9504324 4:5.2465189 5:5.3033545 6:2.8157904 7:111.62054 
0.17205469092676154 1:6.9279138 2:-7.7323655 3:-0.48129925 4:2.0817048 5:2.2483346 6:1.0549631 7:118.51857 
0.80924423686683888 1:-2.354212 2:0.26866826 3:9.0995195 4:1.4701647 5:2.4713558 6:2.1191581 7:101.17557 
1 1:5.0478831 2:-1.6570464 3:3.5986793 4:7.9445766 5:8.1670344 6:3.7002487 7:184.68601 
0.25008373432927233 1:8.9381373 2:-8.2105588 3:-0.31474048 4:2.2862144 5:1.859505 6:2.1200056 7:160.58159 
0.24748912847424587 1:9.0674242 2:-6.3733649 3:-1.6435871 4:2.4634031 5:1.4734891 6:2.2567309 7:138.8717 
0.10490392193918967 1:9.3095621 2:-3.6884942 3:-1.4556746 4:3.2844357 5:2.1239471 6:1.8830255 7:121.23638 
0.20181528723252898 1:9.967644 2:-7.4614972 3:-0.41012028 4:2.9246918 5:2.147953 6:1.3889077 7:170.29266 
0.059184691550905888 1:10.066906 2:-7.8053564 3:-0.16798237 4:3.0430817 5:2.6722041 6:2.3860466 7:184.38865 
0.076217677473879891 1:9.5746067 2:-6.2693142 3:-0.96441032 4:2.3868242 5:1.2195807 6:1.435965 7:141.15378 
0.082638693295500984 1:9.2002468 2:-6.3415061 3:-1.0254845 4:2.1175953 5:1.1813276 6:1.1684916 7:133.15598 
0.07685600480784098 1:9.3455589 2:-5.25639 3:-1.4393302 4:1.7532638 5:1.0318417 6:1.1331978 7:122.46355 
1 1:8.8194626 2:-2.7564379 3:0.49877044 4:5.4296228 5:3.6074984 6:3.3762728 7:139.52371 
1 1:5.8918069 2:-2.9880931 3:2.3146106 4:8.3201924 5:8.2605669 6:3.3128371 7:197.43697 
0.25068619450506463 1:8.8980027 2:-7.0874755 3:-0.13318146 4:2.177428 5:1.0726415 6:0.99786489 7:136.31198 
0.046539621217613708 1:8.1330385 2:-6.5652893 3:-0.50575894 4:2.2014756 5:1.0189731 6:0.8226533 7:116.06669 
0.37158494371570749 1:9.1184142 2:-7.2958444 3:-1.1795002 4:2.6652385 5:1.1791644 6:0.84714922 7:146.97763 
0.27229295893196037 1:9.4344489 2:-7.4152956 3:-0.60139758 4:2.4304743 5:1.606728 6:1.4519047 7:154.95392 
0.012090244195641024 1:8.6365973 2:-6.5799133 3:-1.6399635 4:2.2157828 5:1.1343918 6:2.0803176 7:131.09981 
0.25592585105736931 1:7.9459405 2:-6.8728273 3:-1.89774 4:2.1130113 5:1.153927 6:0.81535029 7:120.4363 
0.038120870959534259 1:9.1797576 2:-6.8092391 3:-1.6433283 4:2.3412339 5:1.1025504 6:1.3479605 7:141.84821 
1 1:6.053189 2:0.30865789 3:2.3115047 4:7.7104304 5:7.5695434 6:3.1484834 7:168.74109 
1 1:-0.19528921 2:6.9364553 3:3.2606439 4:1.5967657 5:4.0491478 6:2.343105 7:83.219749 
1 1:9.8018618 2:-12.781284 3:-0.22389016 4:5.3099912 5:5.3658867 6:3.8475782 7:331.28045 
0.18282348648875449 1:9.0325888 2:-8.7012312 3:-0.42048566 4:2.6086811 5:2.3074656 6:2.1599209 7:174.27077 
0.021872182685378789 1:8.6585981 2:-6.9606561 3:-1.3895429 4:1.9656428 5:1.1354741 6:1.4178607 7:132.51627 
0.0027379483169563431 1:7.7576017 2:-6.9636327 3:-1.8022515 4:1.9050024 5:1.1353059 6:1.2158668 7:118.31696 
0.12812827140766303 1:7.6198182 2:-5.7243766 3:-2.8422686 4:2.1787084 5:1.9929273 6:1.3987256 7:109.58357 
1 1:7.8371479 2:-6.5722433 3:-4.0211096 4:2.6217566 5:2.7697015 6:3.7303543 7:149.24499 
0.87525738522210206 1:9.3511048 2:-3.6340099 3:-1.7388375 4:2.6271706 5:3.5416325 6:3.1706256 7:133.1708 
0.075116679133000255 1:8.297656 2:-5.9063015 3:-2.5783611 4:1.739536 5:1.1531758 6:1.0635985 7:115.87048 
0.00099235647514309805 1:7.655827 2:-5.9837166 3:-2.6217466 4:1.8079558 5:1.3484332 6:1.0753167 7:107.53339 
0.29751160524078962 1:8.5844425 2:-5.7387073 3:-2.3553768 4:1.8510507 5:0.67068619 6:1.5052804 7:118.31529 
0.68616728192142407 1:7.6346563 2:-7.1068966 3:-2.503429 4:1.7509326 5:1.3820651 6:2.4491659 7:126.0374 
0.73118809897214943 1:7.5792661 2:-6.6658457 3:-2.406108 4:3.3047076 5:3.094003 6:1.9428781 7:131.93685 
0.65986354408017656 1:9.2990794 2:-10.259348 3:-0.84767682 4:2.9288056 5:3.1258827 6:2.5096066 7:217.09283 
0.71491151905852979 1:8.7200018 2:-9.7190543 3:-1.197867 4:2.4627253 5:2.667327 6:2.8763222 7:193.38621 
0.037830634735019415 1:8.2396775 2:-6.8445697 3:-2.2281606 4:2.2253745 5:1.3037133 6:1.7506751 7:129.42194 
0.33287546089813724 1:7.2611349 2:-8.0169365 3:-1.5819608 4:2.4878281 5:1.3760108 6:2.5146357 7:133.90404 
0.070491548901371978 1:8.4296607 2:-7.7851674 3:-1.6592465 4:2.3371605 5:1.4384728 6:1.2033679 7:143.40073 
0.10996705658762831 1:8.2676315 2:-8.4855685 3:-1.0462014 4:2.9106258 5:1.4800686 6:2.3075313 7:157.44019 
0.0014562186214837039 1:7.1740636 2:-7.7147649 3:-1.9082435 4:2.3218548 5:1.3857654 6:1.0416078 7:123.02248 
0.0041998247777859203 1:9.2460187 2:-5.4404028 3:-2.6545873 4:2.6280248 5:1.1572832 6:1.2550809 7:131.95473 
0.29180142755984578 1:9.1002959 2:-5.4014485 3:-2.7666618 4:2.6059849 5:0.93443425 6:1.2677077 7:128.91686 
0.64854382648695519 1:7.5608889 2:-5.6970352 3:-3.0001288 4:1.6046203 5:1.9931464 6:2.447807 7:111.16322 
0.21534484381620014 1:8.5364291 2:-7.0135873 3:-1.0738965 4:3.1604014 5:2.5464279 6:2.9043103 7:148.12173 
0.43091053823730868 1:8.3096917 2:-9.4889331 3:-0.61291564 4:3.1805583 5:1.6562477 6:2.6622653 7:179.41326 
0.42045464253121856 1:7.5765484 2:-8.1626748 3:-2.3464471 4:2.4710371 5:1.3666943 6:1.8223848 7:140.83412 
1 1:2.8406879 2:3.3292345 3:2.9492683 4:8.0835781 5:6.0038814 6:3.3844991 7:140.69715 
1 1:8.7898262 2:-13.761095 3:-0.05746083 4:6.0767648 5:7.6948077 6:5.2400571 7:390.22741 
0.076149937856472671 1:6.8982774 2:-9.3737525 3:-0.37983687 4:2.3912667 5:1.1073023 6:1.3054353 7:144.24618 
0.048266830086601584 1:7.7805084 2:-8.792544 3:-0.77352126 4:3.0029459 5:1.1027123 6:2.2912941 7:153.92716 
0.14067768352132079 1:7.072213 2:-9.2797964 3:-0.9990939 4:2.600887 5:1.627504 6:1.8462822 7:149.95115 
0.42622392048629287 1:8.0328703 2:-9.56723 3:-0.32159953 4:2.6952403 5:2.0532792 6:1.9669438 7:171.51147 
0.52013404648296924 1:7.8540169 2:-10.157239 3:-1.2596089 4:2.7446897 5:3.064333 6:2.0769067 7:187.6787 
0.14688777322364049 1:6.9876213 2:-8.9811294 3:-0.86842485 4:3.1450905 5:1.9885971 6:2.4739629 7:150.2083 
0.36590103098088139 1:7.4011892 2:-9.5859953 3:-1.3526593 4:2.4344608 5:1.5887388 6:2.5036571 7:163.21759 
0.018519974554892949 1:7.3279396 2:-7.9728211 3:-1.5729258 4:2.2016088 5:1.3861967 6:2.2568474 7:131.60065 
0.14727245238632292 1:8.1617688 2:-8.0709186 3:-0.78348633 4:2.5205186 5:1.2257957 6:0.87283328 7:140.98548 
0.19416050298769283 1:7.1727694 2:-8.7398715 3:-0.58729121 4:2.083756 5:1.1283959 6:1.9401735 7:137.55848 
0.036508792188023956 1:7.1722518 2:-7.3866946 3:-0.48298167 4:2.0968797 5:1.0202345 6:0.9557648 7:112.58899 
0.34827474926583196 1:6.7950032 2:-8.8862413 3:-0.63905773 4:2.2370184 5:0.94783532 6:1.3826426 7:133.36009 
0.11100094152550961 1:6.9939161 2:-6.8725236 3:-1.0586254 4:1.295018 5:1.1651079 6:0.79993136 7:100.94157 
0.59388513236400275 1:6.5334529 2:-7.7749435 3:-0.72408425 4:2.2742132 5:1.9074043 6:3.057214 7:121.81685 
0.22493923160822338 1:6.5299587 2:-8.7434952 3:-1.3183639 4:2.489321 5:1.7593721 6:1.1690706 7:131.48599 
0.59461397044293851 1:7.8223099 2:-0.28497471 3:4.2561141 4:2.2214777 5:1.6498029 6:3.2348722 7:97.505461 
0.26394248456371683 1:9.9579378 2:-2.7182602 3:-2.4143906 4:2.0020869 5:1.0009742 6:0.60968498 7:117.76076 
0.23907596255903754 1:9.0716949 2:-2.6509637 3:-2.6589875 4:1.7600317 5:1.2075254 6:0.73628116 7:101.49141 
0.15045948353064215 1:8.9870566 2:-3.0031054 3:-2.298563 4:1.7015133 5:1.130424 6:0.68617596 7:99.713065 
0.21132145990997028 1:9.1058608 2:-2.6725761 3:-2.5023937 4:1.5196417 5:1.1885863 6:0.83564894 7:100.7417 
0.04898248444470555 1:9.2752668 2:-3.1194507 3:-2.3025749 4:2.2708236 5:1.0217826 6:0.83271657 7:107.95749 
0.96816380822112946 1:6.8665704 2:-0.38436643 3:3.0768727 4:4.3471399 5:3.0918239 6:4.7549649 7:107.83136 
0.59547951768001406 1:2.2268664 2:4.3008921 3:8.2587016 4:0.79834638 5:0.9995432 6:1.4560719 7:95.419349 
0.023380650569824673 1:1.7196839 2:2.307881 3:9.103402 4:0.89243368 5:0.89326991 6:1.7320052 7:95.749767 
0.96096159883599697 1:1.8879251 2:2.8607475 3:9.3314335 4:0.89391187 5:1.0072008 6:1.921436 7:104.32924 
0.84627633422214765 1:5.4982518 2:2.9263616 3:6.1725108 4:3.7371461 5:2.3464904 6:2.6663148 7:103.47577 
1 1:3.5074408 2:2.8478059 3:6.4128369 4:3.8636794 5:1.4965171 6:3.1828304 7:88.834607 
0.30348447526103478 1:8.461497 2:-1.9149731 3:-0.15633489 4:3.2734473 5:3.1288218 6:4.1079113 7:112.66841 
0.099939784426986686 1:8.7208472 2:-4.7810267 3:-2.9673865 4:1.9559762 5:1.3597567 6:0.65185381 7:113.81647 
0.4275231492342168 1:7.9924923 2:-4.7169656 3:-3.0538366 4:0.79046582 5:0.80586825 6:0.85858734 7:97.467048 
0.081184868352284778 1:8.2994678 2:-5.0657426 3:-3.0525425 4:1.3873946 5:0.97804703 6:1.0115347 7:107.76557 
0.17960558683953404 1:8.1652631 2:-4.2302309 3:-2.9782575 4:1.5615679 5:0.92206503 6:0.8877124 7:97.513124 
0.072869606681376126 1:8.086578 2:-4.3899306 3:-3.5812081 4:0.84762864 5:0.7451217 6:0.68573222 7:99.233195 
0.29807635764026397 1:7.9804566 2:-4.9200198 3:-3.2678912 4:0.84251181 5:0.72011492 6:0.77251053 7:100.39856 
1 1:6.5473004 2:-1.5852203 3:0.64501084 4:5.417892 5:3.1338156 6:5.0467363 7:110.44001 
0.87812708627979663 1:8.116663 2:-3.183969 3:0.69310543 4:2.8497412 5:3.3722127 6:4.2445015 7:114.00691 
0.78439851055851184 1:7.9465495 2:-2.8160989 3:0.97605778 4:2.9093075 5:2.9777822 6:4.1510813 7:106.59348 
0.10747379811376678 1:1.3293643 2:4.7973331 3:8.2786318 4:0.77980031 5:1.0430373 6:1.4885799 7:97.229244 
0.39685827268510193 1:1.4762328 2:5.0716215 3:8.0484761 4:0.91318984 5:1.0482659 6:1.9268904 7:98.324259 
0.51599696526788075 1:8.2112059 2:-2.5242651 3:-0.3420473 4:3.6485419 5:2.8646609 6:3.882716 7:110.50644 
0.3158289356510583 1:7.8060034 2:-5.0826961 3:-3.3802245 4:1.7312708 5:1.2078596 6:0.80061008 7:103.29061 
0.073148621633751007 1:8.3705174 2:-4.7858151 3:-3.4906167 4:1.9476074 5:1.158228 6:0.85149527 7:111.0137 
0.2219518350821614 1:8.4031303 2:-4.8713592 3:-3.3628828 4:1.9585417 5:1.0882393 6:0.80696788 7:111.32307 
0.17181082428874747 1:7.9636894 2:-4.9197972 3:-3.4475227 4:1.8384398 5:1.3123646 6:0.8515765 7:105.33751 
0.21585473056646645 1:7.759543 2:-4.9070781 3:-3.4684865 4:1.6810368 5:1.2172342 6:0.87572193 7:101.39476 
0.45441271827737467 1:8.4714621 2:-4.8515585 3:-3.4107668 4:2.0364843 5:1.7819838 6:1.4557476 7:116.37856 
0.47187972852632221 1:8.2510661 2:-4.6239153 3:-3.5370771 4:1.7779725 5:1.2480566 6:0.77835836 7:107.29627 
0.8720778721581941 1:2.434709 2:4.3793185 3:7.7950031 4:1.5262103 5:1.0349498 6:1.3318351 7:91.042534 
1 1:9.9908095 2:0.23631418 3:0.90694949 4:2.0397648 5:2.1489367 6:2.1944259 7:114.28875 
0.21434371137377944 1:10.118026 2:-2.1626759 3:-2.6346572 4:2.7549268 5:1.5618215 6:0.8685385 7:124.7763 
0.55283904861250854 1:10.992751 2:-2.1195803 3:-3.3901896 4:2.3310405 5:1.7000442 6:0.88330846 7:145.93071 
0.24397936016030278 1:10.859588 2:-3.0174603 3:-3.5154542 4:2.6054068 5:1.9031431 6:0.69995868 7:150.29418 
1 1:11.567618 2:-2.1168626 3:-3.1176389 4:2.7688714 5:2.3859963 6:0.92177155 7:162.21985 
0.9314219752061047 1:10.679951 2:-1.8233464 3:-3.5689135 4:2.0995183 5:1.4341022 6:0.8664007 7:137.33837 
0.55660240602488176 1:10.083601 2:-2.2259605 3:-3.45218 4:2.4005918 5:1.3869697 6:0.91508631 7:127.07537 
0.27807954294414605 1:9.3872119 2:-3.1573697 3:-3.8397819 4:2.3176418 5:1.4512643 6:1.1202805 7:121.56531 
0.97928953532269258 1:10.081013 2:-1.5231005 3:-4.3738829 4:2.2107008 5:1.337742 6:1.6412185 7:132.44785 
0.77448430005242008 1:11.718388 2:-2.8929721 3:-2.8461234 4:2.8208975 5:2.2255049 6:0.61931995 7:167.08421 
0.26946948619138361 1:10.676224 2:-2.1279665 3:-2.8655083 4:2.0303806 5:1.2473998 6:0.84617258 7:133.1156 
0.23707425468587753 1:9.4860859 2:-2.4523096 3:-2.79811 4:1.4539189 5:1.1089245 6:1.0050288 7:108.18275 
0.26190395143909695 1:9.2181942 2:-2.3494237 3:-3.2005947 4:1.7748343 5:0.90122034 6:1.3836468 7:106.61542 
0.40186143756401527 1:9.8673464 2:-2.2416199 3:-3.4908755 4:1.8818973 5:0.94508238 6:0.98079788 7:119.97228 
0.23434549217604031 1:9.625079 2:-2.823605 3:-3.6789174 4:2.277879 5:1.430033 6:1.1502783 7:122.70619 
0.094030452184836785 1:8.2135354 2:-4.1620285 3:-3.5484658 4:1.9469817 5:0.98385454 6:1.8316336 7:105.48984 
0.15178059035043831 1:11.037787 2:-3.169276 3:-2.8207578 4:2.4651601 5:1.7560142 6:1.0457523 7:150.08793 
0.0974225714209217 1:9.7728725 2:-3.926879 3:-3.0037525 4:3.4622104 5:2.1043567 6:1.3806935 7:138.27348 
0.41671737369020523 1:9.6697277 2:-2.4136141 3:-3.1533578 4:2.2580568 5:1.014907 6:1.6418933 7:118.0975 
0.29749738782378704 1:9.8456044 2:-2.6529049 3:-1.0894265 4:1.7840498 5:1.1992033 6:0.5817271 7:110.12001 
0.34056532949939672 1:9.5065337 2:-0.420603 3:0.43043863 4:1.5263806 5:1.4825016 6:1.830354 7:98.614212 
0.53056955884765578 1:10.562571 2:-1.0458132 3:-1.9443506 4:2.0623283 5:1.1804046 6:1.1129293 7:123.32729 
0.79563325797115902 1:8.7622606 2:-1.7181309 3:-4.1936061 4:2.6367955 5:1.4135672 6:2.0015852 7:110.27272 
1 1:8.7977655 2:-1.2761414 3:-4.4289539 4:1.3081423 5:1.1285755 6:1.7613754 7:104.73221 
0.50133324812278446 1:9.9012535 2:-1.1621584 3:-2.3492942 4:1.5877996 5:1.1350899 6:1.4305121 7:110.76052 
0.051229197543197838 1:9.5800421 2:-1.233208 3:-2.5473012 4:2.6377746 5:1.39953 6:1.169021 7:110.0699 
0.41436973181319176 1:10.151415 2:-2.450886 3:-2.9273969 4:2.3766225 5:1.6374627 6:1.7789461 7:129.12199 
0.93416279942983016 1:11.407659 2:-2.5237474 3:-2.8783481 4:2.4555931 5:2.3425765 6:0.76859651 7:156.89722 
0.47338665754376386 1:11.165004 2:-3.1788527 3:-3.9057842 4:3.4627279 5:2.1977227 6:1.4317125 7:168.88783 
0.90487343214686544 1:12.625424 2:-3.9047833 3:-3.5709997 4:3.3465473 5:2.9166966 6:1.213782 7:208.58046 
0.3797663143842176 1:10.942278 2:-4.3561529 3:-3.8723947 4:3.0427802 5:2.397646 6:2.0275985 7:172.82334 
0.33350962072308138 1:10.614467 2:-4.3766007 3:-3.9143256 4:3.4967038 5:1.8495055 6:1.5045799 7:165.05485 
0.19914688653262383 1:10.403648 2:-4.4965697 3:-3.6838352 4:2.5563482 5:1.9691941 6:1.2584848 7:154.02209 
0.094270660683099611 1:9.5141693 2:-5.3012802 3:-3.1461104 4:2.7367704 5:1.5931214 6:1.2645465 7:140.14803 
0.37599336706560127 1:10.52064 2:-5.1175091 3:-2.7079068 4:2.3495325 5:1.6158444 6:0.88546918 7:153.12083 
0.16673053077421662 1:11.030411 2:-5.0402476 3:-2.0789436 4:2.99997 5:1.8141823 6:1.1521807 7:165.01466 
0.84762615315473844 1:11.779472 2:-4.3116337 3:-3.230231 4:3.254869 5:2.6027944 6:1.2897282 7:186.81266 
0.03212023815183452 1:11.64035 2:-7.5757718 3:-2.2048657 4:3.7064185 5:3.4276612 6:2.0094485 7:227.27578 
0.85634840104293086 1:12.084765 2:-6.0471065 3:-3.6733525 4:3.8554886 5:2.9075482 6:2.6371994 7:226.37602 
0.50180717520454254 1:10.326515 2:-6.5236173 3:-4.2627144 4:3.9555876 5:2.8091142 6:2.1851169 7:195.67777 
0.56214320778171345 1:10.746601 2:-7.4000245 3:-3.7750737 4:4.1426354 5:2.3865984 6:1.4920931 7:209.5846 
0.74519841530813169 1:12.89957 2:-6.3177159 3:-2.9229967 4:4.6128922 5:4.0791376 6:1.4037079 7:254.7449 
1 1:11.154392 2:-7.6448801 3:-3.2531378 4:6.2280333 5:3.8644096 6:1.2342005 7:248.69286 
1 1:13.058551 2:-7.98412 3:-3.5598906 4:5.4896053 5:4.1849341 6:1.2338759 7:296.11663 
0.16271834207439301 1:12.381388 2:-6.1388626 3:-2.9889991 4:3.9011557 5:3.3067249 6:1.6084348 7:228.65902 
0.094711357967957099 1:11.275784 2:-4.9437029 3:-2.9345148 4:2.975278 5:2.4946995 6:1.078623 7:176.43411 
0.59862782632365508 1:11.722012 2:-4.6411276 3:-3.1871354 4:3.5972969 5:2.9785965 6:1.8277466 7:194.25669 
0.57638549926112359 1:10.209394 2:-6.8949126 3:-3.5334534 4:3.0750252 5:2.6183182 6:2.2612193 7:185.68132 
0.22685592066776158 1:9.8876647 2:-7.4339316 3:-0.34567096 4:2.8592603 5:2.4542237 6:3.0324112 7:176.54284 
0.029625254820612974 1:10.258184 2:-7.4353552 3:-2.6382809 4:4.3116331 5:3.2612709 6:1.3750895 7:198.5923 
0.35478021657279746 1:11.375587 2:-7.2451736 3:-3.3534146 4:4.5767765 5:3.2483133 6:1.2801819 7:226.27919 
0.99103676329296453 1:12.393682 2:-6.3310457 3:-3.8206283 4:4.7742105 5:3.9229345 6:2.036012 7:250.61054 
0.84089644606958702 1:12.14572 2:-7.6387976 3:-3.6697288 4:4.475372 5:3.6342319 6:1.6665136 7:255.35053 
0.34197042633936486 1:10.571889 2:-5.4743098 3:-3.6653287 4:4.0243476 5:2.3992135 6:1.9121986 7:180.77564 
1 1:12.510804 2:-7.8234747 3:-3.2958451 4:4.0936862 5:4.0350753 6:1.7888012 7:264.82947 
0.6563277672101685 1:12.441549 2:-5.4297941 3:-2.923863 4:4.1185992 5:4.3507991 6:1.192031 7:230.13703 
0.015334536332033244 1:10.226994 2:-6.6223619 3:-3.2352783 4:3.7713976 5:2.8349269 6:1.2508598 7:182.73902 
0.50401290513267827 1:11.351325 2:-7.1769867 3:-3.5240095 4:4.0185556 5:2.9587884 6:1.4611926 7:219.81867 
0.27909819523162177 1:11.103402 2:-5.7789558 3:-2.0662608 4:3.4240113 5:3.7150548 6:2.0713193 7:190.76714 
0.66328759593569242 1:11.546394 2:-7.4754742 3:-2.5995854 4:3.6048221 5:2.8746037 6:1.2103052 7:218.68269 
0.16394555574475056 1:10.869548 2:-8.5481301 3:-1.5177323 4:4.6836704 5:3.1648019 6:1.5017804 7:227.7292 
0.72006731003933 1:12.106507 2:-8.1024961 3:-2.0644489 4:5.2774447 5:4.185938 6:1.2761506 7:263.48197 
1 1:11.41646 2:-9.7535895 3:-1.8694186 4:4.7401576 5:4.163012 6:1.1142715 7:270.00415 
0.7913306789963791 1:9.1106492 2:-10.489192 3:-0.9530217 4:4.5766484 5:4.7591584 6:2.7511839 7:245.09964 
0.34387562003019995 1:8.9540555 2:-8.5460059 3:-2.8260639 4:4.5464206 5:3.4012041 6:1.7104559 7:196.35975 
0.074658783862047759 1:8.7912498 2:-5.2181949 3:-3.3566708 4:2.0763664 5:1.0974716 6:1.5053836 7:123.56479 
0.45161583976780983 1:9.2249238 2:-6.1019789 3:-2.9541861 4:2.454855 5:1.3688398 6:2.0308117 7:143.08481 
0.40362854877549448 1:9.1745809 2:-7.5681363 3:-2.9060432 4:2.2634422 5:1.9002741 6:1.3411792 7:160.42768 
0.13558879643892813 1:9.6272792 2:-6.0648364 3:-2.1634524 4:2.5750631 5:2.7961357 6:1.578084 7:151.08695 
0.094521202440624341 1:10.178204 2:-5.8672177 3:-3.6140798 4:3.5729645 5:2.367859 6:1.4284961 7:171.49509 
0.37831081692259244 1:9.557006 2:-6.1477923 3:-3.8577707 4:2.6368813 5:1.9341023 6:1.4466106 7:156.80069 
0.49915966419921742 1:10.153745 2:-6.5470416 3:-4.0043994 4:2.9035551 5:2.4617043 6:0.81119987 7:177.14617 
0.46669549450242875 1:9.0520237 2:-6.6002317 3:-3.7647204 4:3.561348 5:2.0910086 6:1.1470174 7:158.04648 
0.58841521406023745 1:10.120514 2:-7.8366371 3:-3.761642 4:2.9453739 5:2.4574874 6:1.0858058 7:193.88108 
0.85038197385137171 1:11.687587 2:-6.7497075 3:-3.7502258 4:4.4021322 5:3.7969515 6:1.2741579 7:231.64152 
0.12414185707689715 1:10.644812 2:-6.6021229 3:-3.8820544 4:4.2669357 5:2.7847672 6:1.229036 7:199.4426 
0.38842810094315444 1:10.286267 2:-6.2482194 3:-3.9895165 4:3.5989007 5:2.2181306 6:0.96493033 7:179.56706 
0.91916165180864684 1:8.8889591 2:-4.1032735 3:-4.7763677 4:1.4277278 5:1.8253264 6:1.5374716 7:126.39818 
0.18813504956284863 1:10.413095 2:-5.4240963 3:-0.055519606 4:2.962508 5:2.2942743 6:2.603726 7:158.67599 
0.56360794257450919 1:11.184804 2:-4.072343 3:-0.726802 4:3.1818508 5:1.820899 6:1.9941353 7:159.62849 
0.45195984293688762 1:10.932831 2:-2.3393292 3:-2.0053057 4:2.7762107 5:2.8432122 6:1.415289 7:146.81475 
0.55122724558828351 1:10.067812 2:-5.2587023 3:-3.6699877 4:3.3784605 5:2.2479033 6:1.7189756 7:161.90554 
0.65880487890434425 1:11.785857 2:-3.1860121 3:-1.5980498 4:2.8012779 5:2.9688485 6:2.4014045 7:174.03882 
0.52690175189319421 1:10.78452 2:-2.1875239 3:-3.1747115 4:2.2077629 5:1.9122243 6:1.2934634 7:141.37379 
0.020303500492412425 1:10.806779 2:-3.5137821 3:-2.901643 4:1.9674044 5:1.3143614 6:0.89836825 7:143.95797 
1 1:11.706611 2:-2.3938135 3:0.2848453 4:2.2528525 5:1.525653 6:1.4279506 7:152.29822 
0.32352303786764802 1:10.479615 2:-2.3982136 3:0.37880154 4:2.431761 5:1.7874755 6:1.6802546 7:127.64903 
0.0077212409631884386 1:10.763037 2:-4.4626626 3:-1.101721 4:2.2633406 5:1.3400266 6:0.86998267 7:144.64736 
0.23283937346805031 1:12.000127 2:-3.8362876 3:-0.21470166 4:2.8937823 5:2.3099493 6:1.7578918 7:175.56628 
0.061144544669032963 1:10.526954 2:-5.2256165 3:-1.3121502 4:2.1438557 5:1.4823573 6:1.6453809 7:149.34634 
0.36242705834834138 1:11.537982 2:-5.7490606 3:-2.204348 4:3.3812024 5:2.4072856 6:1.287995 7:189.92235 
0.065686532103869669 1:10.946161 2:-4.733272 3:-2.7449199 4:2.4117518 5:2.1710637 6:1.1411753 7:161.58923 
0.27057720769491267 1:11.381647 2:-5.3604235 3:-2.1133683 4:2.8907332 5:2.2603037 6:1.45223 7:178.31663 
0.2609462461972894 1:11.001033 2:-4.6189974 3:-0.7634268 4:3.2393668 5:1.6075918 6:1.1197545 7:157.27239 
0.17646509570521782 1:10.826321 2:-5.9369732 3:-1.9483625 4:2.6981642 5:1.8887814 6:1.1726547 7:168.4757 
0.25994731811770033 1:10.999869 2:-5.404425 3:-1.0779084 4:3.021544 5:2.4026244 6:1.1832101 7:167.66912 
0.11742556288374592 1:10.526593 2:-5.469392 3:-0.46149855 4:2.2102669 5:1.3953207 6:1.3766915 7:149.66387 
0.13293367411826471 1:10.899312 2:-4.7467313 3:-0.071567214 4:2.5361548 5:2.1797865 6:1.1682285 7:153.87989 
0.13937648662726213 1:9.3245744 2:-4.0458126 3:-0.89491377 4:1.9267262 5:0.8068796 6:1.0057904 7:109.4921 
0.21713531196010474 1:10.117896 2:-4.2537846 3:-0.29429268 4:2.2492893 5:0.92613534 6:0.73399987 7:127.0089 
0.77952516407245509 1:11.878605 2:-5.9268786 3:-0.55416063 4:5.6507368 5:3.6539885 6:1.6168195 7:224.43281 
0.23824691056248889 1:12.303608 2:-5.3069745 3:-1.4970878 4:3.9707932 5:2.591353 6:1.6036916 7:206.83817 
0.74100166672464673 1:11.411801 2:-5.5779723 3:0.79772211 4:4.0541454 5:2.4948178 6:1.5735439 7:187.11558 
0.99189216859466789 1:12.036364 2:-6.2599963 3:-0.96557507 4:4.2327593 5:2.9597963 6:1.2444824 7:213.21933 
0.81673532623508716 1:12.296109 2:-6.8475445 3:0.0058737719 4:4.2686038 5:3.3892338 6:1.5965973 7:230.34021 
1 1:10.095104 2:-4.6376005 3:2.3390393 4:4.7804231 5:4.3791419 6:4.1358117 7:188.02383 
1 1:9.2185824 2:-4.2078418 3:7.0454238 4:2.5202138 5:2.3552587 6:2.846334 7:172.32653 
1 1:9.0170813 2:-4.050601 3:6.7419426 4:1.6245776 5:1.9579425 6:2.5219254 7:156.00181 
1 1:8.5030397 2:-4.1436513 3:6.273585 4:2.1468154 5:2.0838792 6:1.6267897 7:140.42721 
1 1:5.3794477 2:-0.19852461 3:5.7271893 4:4.3783919 5:3.2839497 6:2.4343669 7:97.659351 
1 1:11.308656 2:-3.8683829 3:2.4023549 4:3.0537902 5:2.0112547 6:1.7075111 7:164.90777 
0.25061660253526463 1:8.6331031 2:-4.2786326 3:5.9594916 4:2.1221518 5:2.0442307 6:1.8620143 7:140.50221 
0.32208161375871047 1:11.697164 2:-4.6283154 3:-1.5149473 4:3.7585114 5:2.5312433 6:1.5905447 7:183.60344 
1 1:12.14585 2:-6.8668293 3:-0.51391215 4:4.9946702 5:3.5967856 6:1.4435718 7:234.90662 
0.02180689222433569 1:10.519863 2:-5.6679166 3:-1.87576 4:4.6241887 5:2.682548 6:2.0165369 7:178.95689 
0.69417703059438751 1:11.744401 2:-4.3109866 3:-1.604374 4:3.6305785 5:2.3432481 6:1.7327486 7:180.7639 
0.66540923956293629 1:12.160345 2:-4.4705569 3:-1.2148309 4:4.2463272 5:2.8124658 6:0.89332707 7:196.07497 
0.11007557924847051 1:10.995339 2:-5.7872385 3:-0.85220639 4:4.6601658 5:2.7382475 6:1.0582773 7:185.45096 
0.49345552788650876 1:11.718129 2:-5.5612776 3:-1.1435225 4:3.9478539 5:2.6234847 6:2.4884207 7:198.21046 
1 1:12.61576 2:-3.5185706 3:-2.7812859 4:3.5459881 5:2.6932211 6:1.6171864 7:201.71607 
0.88429894554968203 1:12.038564 2:-5.8563467 3:-3.2448551 4:3.9381697 5:3.1649921 6:2.6241921 7:222.16564 
0.6445931001151185 1:11.601007 2:-6.5465239 3:-2.9636334 4:3.1829036 5:2.382507 6:1.883885 7:205.57971 
0.40080155821690638 1:11.445708 2:-5.5787488 3:-2.6525166 4:2.7553076 5:2.5043761 6:0.92264881 7:183.87741 
0.11659111636967631 1:10.417883 2:-5.9559973 3:-2.4103787 4:3.0708761 5:1.6685866 6:1.2178603 7:163.51377 
0.38108909240860139 1:12.058349 2:-3.67826 3:-1.8156349 4:2.3401697 5:2.1611353 6:1.6036399 7:174.94847 
0.11593229496272899 1:10.599972 2:-6.3124098 3:-3.248867 4:3.0256997 5:2.1826146 6:2.2044355 7:181.53926 
0.56106587482831394 1:11.124496 2:-5.7503548 3:-3.5819846 4:4.8477986 5:2.4512344 6:1.3497854 7:200.98324 
0.67137908681071479 1:11.415812 2:-5.337905 3:-4.7918977 4:3.3546049 5:3.2286143 6:2.1237277 7:207.96383 
0.54875532662535542 1:11.127732 2:-4.3355757 3:-3.8990545 4:2.7752154 5:1.8085249 6:1.435319 7:170.85898 
1 1:10.709976 2:-4.3325992 3:-6.102626 4:3.0758152 5:2.8663261 6:1.911874 7:192.04877 
0.66700616701958448 1:10.105214 2:-5.142357 3:-4.6783996 4:3.02356 5:2.0371326 6:1.7893828 7:166.94031 
0.85601174233953858 1:9.5941727 2:-3.5505692 3:-5.3315999 4:2.5649664 5:1.5039202 6:1.8130199 7:145.20852 
0.61626032087714744 1:10.536946 2:-3.9931402 3:-4.2914448 4:2.5892398 5:1.8834207 6:1.7057129 7:158.5498 
0.56220916033316171 1:9.5185695 2:-4.3568 3:-3.9767043 4:3.1184076 5:2.0793192 6:1.364493 7:141.30892 
0.031424692238156936 1:10.391871 2:-7.2555959 3:-3.529571 4:3.2206097 5:2.5445374 6:1.5880067 7:192.46128 
0.0063657386757399667 1:9.441955 2:-6.3763415 3:-2.2713856 4:3.3986761 5:2.0982917 6:1.1589908 7:152.26452 
0.35502527571821718 1:9.5175341 2:-5.7339189 3:-3.5223237 4:2.4443404 5:1.6658818 6:1.1485372 7:145.93715 
0.21454384823152658 1:9.3357042 2:-6.806133 3:-2.4438975 4:2.6596673 5:1.7187633 6:1.0749808 7:150.63502 
0.4215454243369311 1:8.3649524 2:-5.5434181 3:-3.1483106 4:2.2813813 5:1.2722403 6:2.3338564 7:122.88396 
0.17401749390863777 1:9.1198378 2:-5.4375556 3:-0.80212229 4:2.219549 5:1.1308616 6:2.3288841 7:125.0108 
0.430681228660525 1:10.78452 2:-7.8202393 3:-2.3688361 4:4.9763366 5:3.8149948 6:1.2981579 7:224.07672 
0.25434781369805171 1:11.58496 2:-5.3289753 3:-2.7328842 4:2.8597079 5:2.871679 6:1.499646 7:188.75133 
0.36670919479158631 1:11.854793 2:-6.7282245 3:-1.8225699 4:3.2126159 5:3.0232536 6:1.3663538 7:210.45476 
0.33197053963012851 1:10.246666 2:-6.6178323 3:-3.3139634 4:2.7500442 5:2.0505521 6:0.87541489 7:172.30607 
0.18928678680508709 1:9.1727691 2:-6.1173795 3:-3.2711266 4:3.3312296 5:1.780784 6:1.2440259 7:148.07818 
0.018515659425402134 1:9.8228272 2:-6.960915 3:-2.2959747 4:2.4373877 5:1.9611912 6:1.6236122 7:162.63702 
0.048637444454253692 1:10.084636 2:-5.1410629 3:-3.2651734 4:2.440744 5:1.7480644 6:1.0741783 7:148.9586 
0.091573027052724368 1:11.051507 2:-6.7308352 3:-3.1958443 4:3.107119 5:2.5808969 6:1.7199453 7:196.92681 
0.46550768851454266 1:9.9593683 2:-7.0597666 3:-3.4167493 4:2.5605231 5:1.9726364 6:1.6695665 7:173.93852 
0.9636852060835065 1:11.416831 2:-5.0440403 3:-4.9183926 4:2.8606841 5:3.0192718 6:1.3130797 7:199.00064 
0.8044849192834328 1:10.085672 2:-2.8226991 3:-4.8945248 4:3.5200557 5:2.0430218 6:1.3416047 7:152.00941 
1 1:10.456468 2:-4.1239007 3:-6.0167885 4:2.7526725 5:2.0577601 6:1.4259308 7:176.39089 
0.79693456343427316 1:9.7212353 2:-3.4476504 3:-5.6193855 4:2.4581323 5:1.7518915 6:1.6014274 7:149.64231 
0.87460757877515694 1:10.662817 2:-3.4087048 3:0.013535244 4:2.0163422 5:1.5139639 6:3.5234012 7:144.08719 
0.076944399755556225 1:9.9672558 2:-4.6711522 3:1.3058105 4:2.6919556 5:1.8802102 6:2.2290477 7:138.62146 
0.046164721481002403 1:9.4318605 2:-4.7647202 3:-0.17302961 4:1.9135068 5:0.99314692 6:0.84054473 7:117.04685 
0.01106784899071564 1:10.822568 2:-8.4077893 3:0.19063021 4:4.3481602 5:3.4722433 6:2.0066566 7:222.84488 
0.074849277335404432 1:9.8758879 2:-6.4369083 3:-0.033648224 4:2.3746382 5:1.8323251 6:2.1893739 7:152.75776 
0.31378837482293076 1:10.775849 2:-7.0323528 3:-0.07984986 4:3.3594878 5:2.1944192 6:0.81064497 7:182.33806 
0.06776055439668878 1:10.174451 2:-6.3446345 3:-1.0922736 4:3.6285766 5:2.2716983 6:0.85138994 7:164.01895 
0.35341743756896871 1:10.163969 2:-6.7244714 3:1.1486991 4:3.1972335 5:2.371996 6:2.6789144 7:172.86953 
0.21925523788380447 1:8.5573946 2:-4.8603589 3:-0.90733774 4:1.5293073 5:0.81023964 6:0.88713641 7:101.45763 
0.052541786968951058 1:9.1118139 2:-4.8683827 3:-1.9275265 4:1.4231236 5:1.1743638 6:2.1180848 7:118.33236 
0.15593590553972553 1:8.2898909 2:-5.1666873 3:-1.9814931 4:1.3302594 5:0.77755535 6:1.9581146 7:105.55166 
0.014429458231592439 1:9.3129977 2:-5.4103851 3:-2.4128446 4:1.878254 5:1.2038174 6:0.94148391 7:127.68942 
0.37783017636795874 1:9.5119692 2:-5.5414769 3:-2.4305677 4:1.7828666 5:1.401873 6:1.1111963 7:133.4718 
0.012509734836938978 1:8.8465434 2:-5.8390429 3:-2.2163285 4:1.9844957 5:1.1828105 6:0.90037084 7:123.41579 
0.12864524591649776 1:9.5795246 2:-5.2225951 3:-2.249126 4:1.803076 5:1.1460582 6:1.0236518 7:129.71375 
0.32157015614765089 1:10.613528 2:-2.6437094 3:-3.6661293 4:1.7831737 5:2.0316305 6:1.5972266 7:142.93505 
0.89701066026883158 1:10.198264 2:-4.4288849 3:-2.1978772 4:2.4106723 5:2.2750746 6:3.8380692 7:154.16835 
0.71303210793883554 1:10.976574 2:-2.2597382 3:-0.73715529 4:1.8115127 5:1.9011918 6:2.5379685 7:139.47237 
0.27551099486693742 1:9.6588567 2:-4.2716441 3:-3.3432115 4:1.8068235 5:1.4288568 6:1.4613003 7:130.15916 
0.49333342901938299 1:8.5221933 2:-3.7753325 3:-2.8239933 4:1.1247181 5:0.84522499 6:0.91095377 7:97.665085 
0.73850100951959141 1:9.4221543 2:-2.7605793 3:-3.3795775 4:1.5309917 5:1.0300577 6:1.5623493 7:113.66522 
0.058676030630977927 1:8.4463553 2:-3.7736501 3:-3.6180917 4:1.2748606 5:1.1208087 6:1.5585245 7:103.98242 
0.081077120847581632 1:9.0116458 2:-4.4433795 3:-3.312281 4:1.5422264 5:1.1224646 6:1.0981844 7:116.76898 
0.28075758433913728 1:9.7868494 2:-4.0573307 3:-3.8380994 4:2.1400915 5:2.0370255 6:1.5010709 7:137.95804 
0.10564550090016751 1:9.5917466 2:-3.9151263 3:-3.7899894 4:2.4319802 5:2.0792261 6:1.6580961 7:134.68083 
0.41406237220464498 1:8.6266323 2:-5.4568386 3:-3.0033643 4:1.5367678 5:1.2169828 6:1.8597993 7:120.51762 
0.67636842500313454 1:9.0609534 2:-5.2959742 3:-3.7928037 4:2.603698 5:1.5402091 6:1.5051738 7:135.95061 
0.45549604868652416 1:11.229194 2:-3.1063796 3:-0.55778428 4:1.9628244 5:1.7376358 6:2.1866876 7:147.70918 
